digraph Tree {
node [shape=box, style="filled", color="black", fontname="helvetica"] ;
edge [fontname="helvetica"] ;
0 [label="node #0\nTreatment code_18_11 <= 0.5\nentropy = 0.694\nsamples = 912\nvalue = [742, 170]", fillcolor="#eb9e66"] ;
1 [label="node #1\nTreatment code_54_2 <= 0.5\nentropy = 0.562\nsamples = 821\nvalue = [713, 108]", fillcolor="#e99457"] ;
0 -> 1 [labeldistance=2.5, labelangle=45, headlabel="True"] ;
2 [label="node #2\nTreatment code_26_9 <= 0.5\nentropy = 0.47\nsamples = 778\nvalue = [700, 78]", fillcolor="#e88f4f"] ;
1 -> 2 ;
3 [label="node #3\nTreatment code_34_1 <= 0.5\nentropy = 0.374\nsamples = 734\nvalue = [681, 53]", fillcolor="#e78b48"] ;
2 -> 3 ;
4 [label="node #4\nTreatment code_97_10 <= 0.5\nentropy = 0.305\nsamples = 681\nvalue = [644, 37]", fillcolor="#e68844"] ;
3 -> 4 ;
5 [label="node #5\nTreatment code_11_4 <= 0.5\nentropy = 0.281\nsamples = 676\nvalue = [643, 33]", fillcolor="#e68743"] ;
4 -> 5 ;
6 [label="node #6\nTreatment code_6_11 <= 0.5\nentropy = 0.257\nsamples = 670\nvalue = [641, 29]", fillcolor="#e68742"] ;
5 -> 6 ;
7 [label="node #7\nTreatment code_24_8 <= 0.5\nentropy = 0.209\nsamples = 636\nvalue = [615, 21]", fillcolor="#e68540"] ;
6 -> 7 ;
8 [label="node #8\nentropy = 0.148\nsamples = 521\nvalue = [510, 11]", fillcolor="#e6843d"] ;
7 -> 8 ;
9 [label="node #9\nentropy = 0.426\nsamples = 115\nvalue = [105, 10]", fillcolor="#e78d4c"] ;
7 -> 9 ;
10 [label="node #10\nentropy = 0.787\nsamples = 34\nvalue = [26, 8]", fillcolor="#eda876"] ;
6 -> 10 ;
11 [label="node #11\nentropy = 0.918\nsamples = 6\nvalue = [2, 4]", fillcolor="#9ccef2"] ;
5 -> 11 ;
12 [label="node #12\nentropy = 0.722\nsamples = 5\nvalue = [1, 4]", fillcolor="#6ab6ec"] ;
4 -> 12 ;
13 [label="node #13\nentropy = 0.884\nsamples = 53\nvalue = [37, 16]", fillcolor="#f0b78f"] ;
3 -> 13 ;
14 [label="node #14\nentropy = 0.987\nsamples = 44\nvalue = [19, 25]", fillcolor="#cfe7f9"] ;
2 -> 14 ;
15 [label="node #15\nentropy = 0.884\nsamples = 43\nvalue = [13, 30]", fillcolor="#8fc7f0"] ;
1 -> 15 ;
16 [label="node #16\nentropy = 0.903\nsamples = 91\nvalue = [29, 62]", fillcolor="#96cbf1"] ;
0 -> 16 [labeldistance=2.5, labelangle=-45, headlabel="False"] ;
}
