digraph Tree {
node [shape=box, style="filled", color="black", fontname="helvetica"] ;
edge [fontname="helvetica"] ;
0 [label="node #0\nTreatment code_37_6 <= 0.5\ngini = 0.377\nsamples = 912\nvalue = [230, 682]", fillcolor="#7cbeee"] ;
1 [label="node #1\nTreatment code_42_8 <= 0.5\ngini = 0.344\nsamples = 862\nvalue = [190, 672]", fillcolor="#71b9ec"] ;
0 -> 1 [labeldistance=2.5, labelangle=45, headlabel="True"] ;
2 [label="node #2\nTreatment code_42_11 <= 0.5\ngini = 0.304\nsamples = 764\nvalue = [143, 621]", fillcolor="#67b4eb"] ;
1 -> 2 ;
3 [label="node #3\nTreatment code_25_2 <= 0.5\ngini = 0.264\nsamples = 703\nvalue = [110, 593]", fillcolor="#5eafea"] ;
2 -> 3 ;
4 [label="node #4\ngini = 0.222\nsamples = 660\nvalue = [84, 576]", fillcolor="#56abe9"] ;
3 -> 4 ;
5 [label="node #5\ngini = 0.478\nsamples = 43\nvalue = [26, 17]", fillcolor="#f6d3ba"] ;
3 -> 5 ;
6 [label="node #6\nTreatment code_61_11 <= 0.5\ngini = 0.497\nsamples = 61\nvalue = [33, 28]", fillcolor="#fbece1"] ;
2 -> 6 ;
7 [label="node #7\ngini = 0.422\nsamples = 33\nvalue = [23, 10]", fillcolor="#f0b88f"] ;
6 -> 7 ;
8 [label="node #8\ngini = 0.459\nsamples = 28\nvalue = [10, 18]", fillcolor="#a7d3f3"] ;
6 -> 8 ;
9 [label="node #9\nTreatment code_70_8 <= 0.5\ngini = 0.499\nsamples = 98\nvalue = [47, 51]", fillcolor="#eff7fd"] ;
1 -> 9 ;
10 [label="node #10\nDiagnosis_52 <= 0.5\ngini = 0.365\nsamples = 50\nvalue = [38, 12]", fillcolor="#eda978"] ;
9 -> 10 ;
11 [label="node #11\ngini = 0.42\nsamples = 40\nvalue = [28, 12]", fillcolor="#f0b78e"] ;
10 -> 11 ;
12 [label="node #12\ngini = 0.0\nsamples = 10\nvalue = [10, 0]", fillcolor="#e58139"] ;
10 -> 12 ;
13 [label="node #13\nDiagnosis_16 <= 0.5\ngini = 0.305\nsamples = 48\nvalue = [9, 39]", fillcolor="#67b4eb"] ;
9 -> 13 ;
14 [label="node #14\ngini = 0.339\nsamples = 37\nvalue = [8, 29]", fillcolor="#70b8ec"] ;
13 -> 14 ;
15 [label="node #15\ngini = 0.165\nsamples = 11\nvalue = [1, 10]", fillcolor="#4da7e8"] ;
13 -> 15 ;
16 [label="node #16\nTreatment code_66_6 <= 0.5\ngini = 0.32\nsamples = 50\nvalue = [40, 10]", fillcolor="#eca06a"] ;
0 -> 16 [labeldistance=2.5, labelangle=-45, headlabel="False"] ;
17 [label="node #17\nTreatment code_51_6 <= 0.5\ngini = 0.145\nsamples = 38\nvalue = [35, 3]", fillcolor="#e78c4a"] ;
16 -> 17 ;
18 [label="node #18\ngini = 0.278\nsamples = 18\nvalue = [15, 3]", fillcolor="#ea9a61"] ;
17 -> 18 ;
19 [label="node #19\ngini = 0.0\nsamples = 20\nvalue = [20, 0]", fillcolor="#e58139"] ;
17 -> 19 ;
20 [label="node #20\ngini = 0.486\nsamples = 12\nvalue = [5, 7]", fillcolor="#c6e3f8"] ;
16 -> 20 ;
}
