digraph Tree {
node [shape=box, style="filled", color="black", fontname="helvetica"] ;
edge [fontname="helvetica"] ;
0 [label="node #0\nActivity_16_1 <= 0.5\ngini = 0.273\nsamples = 490\nvalue = [80, 410]", fillcolor="#60b0ea"] ;
1 [label="node #1\nActivity_17_2 <= 0.5\ngini = 0.212\nsamples = 465\nvalue = [56, 409]", fillcolor="#54aae9"] ;
0 -> 1 [labeldistance=2.5, labelangle=45, headlabel="True"] ;
2 [label="node #2\nActivity_15_1 <= 0.5\ngini = 0.169\nsamples = 451\nvalue = [42, 409]", fillcolor="#4da7e8"] ;
1 -> 2 ;
3 [label="node #3\nActivity_21_2 <= 0.5\ngini = 0.142\nsamples = 443\nvalue = [34, 409]", fillcolor="#49a5e7"] ;
2 -> 3 ;
4 [label="node #4\nActivity_23_5 <= 0.5\ngini = 0.124\nsamples = 437\nvalue = [29, 408]", fillcolor="#47a4e7"] ;
3 -> 4 ;
5 [label="node #5\nActivity_23_1 <= 0.5\ngini = 0.105\nsamples = 431\nvalue = [24, 407]", fillcolor="#45a3e7"] ;
4 -> 5 ;
6 [label="node #6\nActivity_20_2 <= 0.5\ngini = 0.089\nsamples = 427\nvalue = [20, 407]", fillcolor="#43a2e6"] ;
5 -> 6 ;
7 [label="node #7\nActivity_18_1 <= 0.5\ngini = 0.077\nsamples = 424\nvalue = [17, 407]", fillcolor="#41a1e6"] ;
6 -> 7 ;
8 [label="node #8\nActivity_22_1 <= 0.5\ngini = 0.064\nsamples = 420\nvalue = [14, 406]", fillcolor="#40a0e6"] ;
7 -> 8 ;
9 [label="node #9\nActivity_19_1 <= 0.5\ngini = 0.051\nsamples = 416\nvalue = [11, 405]", fillcolor="#3ea0e6"] ;
8 -> 9 ;
10 [label="node #10\nActivity_25_3 <= 0.5\ngini = 0.043\nsamples = 414\nvalue = [9, 405]", fillcolor="#3d9fe6"] ;
9 -> 10 ;
11 [label="node #11\nActivity_29_1 <= 0.5\ngini = 0.029\nsamples = 406\nvalue = [6, 400]", fillcolor="#3c9ee5"] ;
10 -> 11 ;
12 [label="node #12\nActivity_19_2 <= 0.5\ngini = 0.024\nsamples = 405\nvalue = [5, 400]", fillcolor="#3b9ee5"] ;
11 -> 12 ;
13 [label="node #13\nActivity_26_1 <= 0.5\ngini = 0.02\nsamples = 404\nvalue = [4, 400]", fillcolor="#3b9ee5"] ;
12 -> 13 ;
14 [label="node #14\nActivity_22_5 <= 0.5\ngini = 0.015\nsamples = 403\nvalue = [3, 400]", fillcolor="#3a9ee5"] ;
13 -> 14 ;
15 [label="node #15\nActivity_3_1 <= 0.5\ngini = 0.01\nsamples = 396\nvalue = [2, 394]", fillcolor="#3a9de5"] ;
14 -> 15 ;
16 [label="node #16\nActivity_36_2 <= 0.5\ngini = 0.034\nsamples = 114\nvalue = [2, 112]", fillcolor="#3d9fe5"] ;
15 -> 16 ;
17 [label="node #17\ngini = 0.102\nsamples = 37\nvalue = [2, 35]", fillcolor="#44a3e6"] ;
16 -> 17 ;
18 [label="node #18\ngini = 0.0\nsamples = 77\nvalue = [0, 77]", fillcolor="#399de5"] ;
16 -> 18 ;
19 [label="node #19\ngini = 0.0\nsamples = 282\nvalue = [0, 282]", fillcolor="#399de5"] ;
15 -> 19 ;
20 [label="node #20\ngini = 0.245\nsamples = 7\nvalue = [1, 6]", fillcolor="#5aade9"] ;
14 -> 20 ;
21 [label="node #21\ngini = 0.0\nsamples = 1\nvalue = [1, 0]", fillcolor="#e58139"] ;
13 -> 21 ;
22 [label="node #22\ngini = 0.0\nsamples = 1\nvalue = [1, 0]", fillcolor="#e58139"] ;
12 -> 22 ;
23 [label="node #23\ngini = 0.0\nsamples = 1\nvalue = [1, 0]", fillcolor="#e58139"] ;
11 -> 23 ;
24 [label="node #24\ngini = 0.469\nsamples = 8\nvalue = [3, 5]", fillcolor="#b0d8f5"] ;
10 -> 24 ;
25 [label="node #25\ngini = 0.0\nsamples = 2\nvalue = [2, 0]", fillcolor="#e58139"] ;
9 -> 25 ;
26 [label="node #26\ngini = 0.375\nsamples = 4\nvalue = [3, 1]", fillcolor="#eeab7b"] ;
8 -> 26 ;
27 [label="node #27\ngini = 0.375\nsamples = 4\nvalue = [3, 1]", fillcolor="#eeab7b"] ;
7 -> 27 ;
28 [label="node #28\ngini = 0.0\nsamples = 3\nvalue = [3, 0]", fillcolor="#e58139"] ;
6 -> 28 ;
29 [label="node #29\ngini = 0.0\nsamples = 4\nvalue = [4, 0]", fillcolor="#e58139"] ;
5 -> 29 ;
30 [label="node #30\ngini = 0.278\nsamples = 6\nvalue = [5, 1]", fillcolor="#ea9a61"] ;
4 -> 30 ;
31 [label="node #31\ngini = 0.278\nsamples = 6\nvalue = [5, 1]", fillcolor="#ea9a61"] ;
3 -> 31 ;
32 [label="node #32\ngini = 0.0\nsamples = 8\nvalue = [8, 0]", fillcolor="#e58139"] ;
2 -> 32 ;
33 [label="node #33\ngini = 0.0\nsamples = 14\nvalue = [14, 0]", fillcolor="#e58139"] ;
1 -> 33 ;
34 [label="node #34\ngini = 0.077\nsamples = 25\nvalue = [24, 1]", fillcolor="#e68641"] ;
0 -> 34 [labeldistance=2.5, labelangle=-45, headlabel="False"] ;
}
