digraph Tree {
node [shape=box, style="filled", color="black", fontname="helvetica"] ;
edge [fontname="helvetica"] ;
0 [label="node #0\nDiagnose_28 <= 0.5\ngini = 0.235\nsamples = 625\nvalue = [85, 540]", fillcolor="#58ace9"] ;
1 [label="node #1\nDisfuncOrg_10_1 <= 0.5\ngini = 0.163\nsamples = 593\nvalue = [53, 540]", fillcolor="#4ca7e8"] ;
0 -> 1 [labeldistance=2.5, labelangle=45, headlabel="True"] ;
2 [label="node #2\nDiagnose_12 <= 0.5\ngini = 0.459\nsamples = 101\nvalue = [36, 65]", fillcolor="#a7d3f3"] ;
1 -> 2 ;
3 [label="node #3\nDisfuncOrg_9_2 <= 0.5\ngini = 0.421\nsamples = 93\nvalue = [28, 65]", fillcolor="#8ec7f0"] ;
2 -> 3 ;
4 [label="node #4\nDisfuncOrg_2_2 <= 0.5\ngini = 0.469\nsamples = 72\nvalue = [27, 45]", fillcolor="#b0d8f5"] ;
3 -> 4 ;
5 [label="node #5\nDiagnose_116 <= 0.5\ngini = 0.437\nsamples = 65\nvalue = [21, 44]", fillcolor="#98ccf1"] ;
4 -> 5 ;
6 [label="node #6\ngini = 0.469\nsamples = 56\nvalue = [21, 35]", fillcolor="#b0d8f5"] ;
5 -> 6 ;
7 [label="node #7\ngini = 0.0\nsamples = 9\nvalue = [0, 9]", fillcolor="#399de5"] ;
5 -> 7 ;
8 [label="node #8\ngini = 0.245\nsamples = 7\nvalue = [6, 1]", fillcolor="#e9965a"] ;
4 -> 8 ;
9 [label="node #9\ngini = 0.091\nsamples = 21\nvalue = [1, 20]", fillcolor="#43a2e6"] ;
3 -> 9 ;
10 [label="node #10\ngini = 0.0\nsamples = 8\nvalue = [8, 0]", fillcolor="#e58139"] ;
2 -> 10 ;
11 [label="node #11\nDiagnose_56 <= 0.5\ngini = 0.067\nsamples = 492\nvalue = [17, 475]", fillcolor="#40a1e6"] ;
1 -> 11 ;
12 [label="node #12\nDiagnose_114 <= 0.5\ngini = 0.059\nsamples = 490\nvalue = [15, 475]", fillcolor="#3fa0e6"] ;
11 -> 12 ;
13 [label="node #13\nDiagnose_38 <= 0.5\ngini = 0.056\nsamples = 489\nvalue = [14, 475]", fillcolor="#3fa0e6"] ;
12 -> 13 ;
14 [label="node #14\nDiagnose_99 <= 0.5\ngini = 0.052\nsamples = 488\nvalue = [13, 475]", fillcolor="#3ea0e6"] ;
13 -> 14 ;
15 [label="node #15\nDiagnose_33 <= 0.5\ngini = 0.048\nsamples = 487\nvalue = [12, 475]", fillcolor="#3e9fe6"] ;
14 -> 15 ;
16 [label="node #16\nDiagnose_12 <= 0.5\ngini = 0.044\nsamples = 486\nvalue = [11, 475]", fillcolor="#3e9fe6"] ;
15 -> 16 ;
17 [label="node #17\ngini = 0.04\nsamples = 485\nvalue = [10, 475]", fillcolor="#3d9fe6"] ;
16 -> 17 ;
18 [label="node #18\ngini = 0.0\nsamples = 1\nvalue = [1, 0]", fillcolor="#e58139"] ;
16 -> 18 ;
19 [label="node #19\ngini = 0.0\nsamples = 1\nvalue = [1, 0]", fillcolor="#e58139"] ;
15 -> 19 ;
20 [label="node #20\ngini = 0.0\nsamples = 1\nvalue = [1, 0]", fillcolor="#e58139"] ;
14 -> 20 ;
21 [label="node #21\ngini = 0.0\nsamples = 1\nvalue = [1, 0]", fillcolor="#e58139"] ;
13 -> 21 ;
22 [label="node #22\ngini = 0.0\nsamples = 1\nvalue = [1, 0]", fillcolor="#e58139"] ;
12 -> 22 ;
23 [label="node #23\ngini = 0.0\nsamples = 2\nvalue = [2, 0]", fillcolor="#e58139"] ;
11 -> 23 ;
24 [label="node #24\ngini = 0.0\nsamples = 32\nvalue = [32, 0]", fillcolor="#e58139"] ;
0 -> 24 [labeldistance=2.5, labelangle=-45, headlabel="False"] ;
}
