digraph Tree {
node [shape=box, style="filled", color="black", fontname="helvetica"] ;
edge [fontname="helvetica"] ;
0 [label="node #0\nActivity_24_1 <= 0.5\ngini = 0.5\nsamples = 3748\nvalue = [1874.0, 1874.0]", fillcolor="#ffffff"] ;
1 [label="node #1\nActivity_35_1 <= 0.5\ngini = 0.499\nsamples = 3539\nvalue = [1683.514, 1845.706]", fillcolor="#eef6fd"] ;
0 -> 1 [labeldistance=2.5, labelangle=45, headlabel="True"] ;
2 [label="node #2\nActivity_33_27 <= 0.5\ngini = 0.497\nsamples = 3424\nvalue = [1576.033, 1832.502]", fillcolor="#e3f1fb"] ;
1 -> 2 ;
3 [label="node #3\nActivity_24_5 <= 0.5\ngini = 0.494\nsamples = 3298\nvalue = [1463.231, 1813.64]", fillcolor="#d9ecfa"] ;
2 -> 3 ;
4 [label="node #4\nActivity_26_29 <= 0.5\ngini = 0.491\nsamples = 3185\nvalue = [1365.328, 1793.834]", fillcolor="#d0e8f9"] ;
3 -> 4 ;
5 [label="node #5\nActivity_33_4 <= 0.5\ngini = 0.486\nsamples = 3084\nvalue = [1274.873, 1778.744]", fillcolor="#c7e3f8"] ;
4 -> 5 ;
6 [label="node #6\nActivity_26_8 <= 0.5\ngini = 0.48\nsamples = 2956\nvalue = [1169.521, 1751.393]", fillcolor="#bddef6"] ;
5 -> 6 ;
7 [label="node #7\nActivity_29_1 <= 0.5\ngini = 0.474\nsamples = 2866\nvalue = [1091.836, 1735.36]", fillcolor="#b6dbf5"] ;
6 -> 7 ;
8 [label="node #8\nActivity_34_7 <= 0.5\ngini = 0.467\nsamples = 2760\nvalue = [1008.831, 1708.952]", fillcolor="#aed7f4"] ;
7 -> 8 ;
9 [label="node #9\nActivity_29_5 <= 0.5\ngini = 0.46\nsamples = 2694\nvalue = [951.366, 1697.635]", fillcolor="#a8d4f4"] ;
8 -> 9 ;
10 [label="node #10\nActivity_34_36 <= 0.5\ngini = 0.453\nsamples = 2627\nvalue = [894.965, 1684.431]", fillcolor="#a2d1f3"] ;
9 -> 10 ;
11 [label="node #11\nActivity_26_4 <= 0.5\ngini = 0.446\nsamples = 2567\nvalue = [844.949, 1672.17]", fillcolor="#9dcff2"] ;
10 -> 11 ;
12 [label="node #12\nActivity_21_1 <= 0.5\ngini = 0.436\nsamples = 2451\nvalue = [769.394, 1629.729]", fillcolor="#96cbf1"] ;
11 -> 12 ;
13 [label="node #13\nActivity_21_29 <= 0.5\ngini = 0.429\nsamples = 2404\nvalue = [732.148, 1618.412]", fillcolor="#93c9f1"] ;
12 -> 13 ;
14 [label="node #14\nActivity_35_53 <= 0.5\ngini = 0.422\nsamples = 2358\nvalue = [697.03, 1606.151]", fillcolor="#8fc8f0"] ;
13 -> 14 ;
15 [label="node #15\nActivity_17_4 <= 0.5\ngini = 0.415\nsamples = 2307\nvalue = [660.848, 1590.118]", fillcolor="#8bc6f0"] ;
14 -> 15 ;
16 [label="node #16\nActivity_34_5 <= 0.5\ngini = 0.41\nsamples = 2286\nvalue = [641.693, 1587.288]", fillcolor="#89c5f0"] ;
15 -> 16 ;
17 [label="node #17\nActivity_22_8 <= 0.5\ngini = 0.404\nsamples = 2253\nvalue = [617.217, 1577.857]", fillcolor="#86c3ef"] ;
16 -> 17 ;
18 [label="node #18\nActivity_35_16 <= 0.5\ngini = 0.399\nsamples = 2224\nvalue = [594.87, 1570.312]", fillcolor="#84c2ef"] ;
17 -> 18 ;
19 [label="node #19\nActivity_26_38 <= 0.5\ngini = 0.393\nsamples = 2198\nvalue = [574.651, 1563.71]", fillcolor="#82c1ef"] ;
18 -> 19 ;
20 [label="node #20\nActivity_35_28 <= 0.5\ngini = 0.386\nsamples = 2163\nvalue = [550.175, 1552.393]", fillcolor="#7fc0ee"] ;
19 -> 20 ;
21 [label="node #21\nActivity_6_22 <= 0.5\ngini = 0.382\nsamples = 2143\nvalue = [534.212, 1547.677]", fillcolor="#7dbfee"] ;
20 -> 21 ;
22 [label="node #22\nActivity_35_36 <= 0.5\ngini = 0.372\nsamples = 2069\nvalue = [495.902, 1511.838]", fillcolor="#7abdee"] ;
21 -> 22 ;
23 [label="node #23\nActivity_20_35 <= 0.5\ngini = 0.368\nsamples = 2053\nvalue = [483.132, 1508.065]", fillcolor="#78bced"] ;
22 -> 23 ;
24 [label="node #24\nActivity_26_16 <= 0.5\ngini = 0.362\nsamples = 2032\nvalue = [468.234, 1501.464]", fillcolor="#77bced"] ;
23 -> 24 ;
25 [label="node #25\nActivity_21_38 <= 0.5\ngini = 0.357\nsamples = 2000\nvalue = [450.143, 1487.317]", fillcolor="#75bbed"] ;
24 -> 25 ;
26 [label="node #26\nActivity_34_41 <= 0.5\ngini = 0.351\nsamples = 1970\nvalue = [433.116, 1474.113]", fillcolor="#73baed"] ;
25 -> 26 ;
27 [label="node #27\nActivity_25_31 <= 0.5\ngini = 0.347\nsamples = 1954\nvalue = [422.475, 1468.454]", fillcolor="#72b9ec"] ;
26 -> 27 ;
28 [label="node #28\nActivity_32_10 <= 0.5\ngini = 0.343\nsamples = 1934\nvalue = [410.769, 1459.966]", fillcolor="#71b9ec"] ;
27 -> 28 ;
29 [label="node #29\nActivity_31_8 <= 0.5\ngini = 0.337\nsamples = 1889\nvalue = [391.614, 1434.501]", fillcolor="#6fb8ec"] ;
28 -> 29 ;
30 [label="node #30\nActivity_34_40 <= 0.5\ngini = 0.333\nsamples = 1872\nvalue = [382.036, 1426.956]", fillcolor="#6eb7ec"] ;
29 -> 30 ;
31 [label="node #31\nActivity_22_16 <= 0.5\ngini = 0.329\nsamples = 1851\nvalue = [371.395, 1416.582]", fillcolor="#6db7ec"] ;
30 -> 31 ;
32 [label="node #32\nActivity_35_47 <= 0.5\ngini = 0.325\nsamples = 1833\nvalue = [361.817, 1408.094]", fillcolor="#6cb6ec"] ;
31 -> 32 ;
33 [label="node #33\nActivity_18_3 <= 0.5\ngini = 0.32\nsamples = 1799\nvalue = [346.919, 1389.231]", fillcolor="#6ab5eb"] ;
32 -> 33 ;
34 [label="node #34\nActivity_33_16 <= 0.5\ngini = 0.315\nsamples = 1777\nvalue = [336.277, 1377.913]", fillcolor="#69b5eb"] ;
33 -> 34 ;
35 [label="node #35\nActivity_7_33 <= 0.5\ngini = 0.31\nsamples = 1745\nvalue = [322.443, 1359.994]", fillcolor="#68b4eb"] ;
34 -> 35 ;
36 [label="node #36\nActivity_30_52 <= 0.5\ngini = 0.305\nsamples = 1717\nvalue = [310.737, 1343.961]", fillcolor="#67b4eb"] ;
35 -> 36 ;
37 [label="node #37\nActivity_23_15 <= 0.5\ngini = 0.3\nsamples = 1692\nvalue = [300.095, 1329.814]", fillcolor="#66b3eb"] ;
36 -> 37 ;
38 [label="node #38\nActivity_23_10 <= 0.5\ngini = 0.294\nsamples = 1647\nvalue = [284.133, 1301.52]", fillcolor="#64b2eb"] ;
37 -> 38 ;
39 [label="node #39\nActivity_31_46 <= 0.5\ngini = 0.301\nsamples = 1577\nvalue = [280.94, 1238.33]", fillcolor="#66b3eb"] ;
38 -> 39 ;
40 [label="node #40\nActivity_25_45 <= 0.5\ngini = 0.294\nsamples = 1519\nvalue = [261.785, 1200.605]", fillcolor="#64b2eb"] ;
39 -> 40 ;
41 [label="node #41\nActivity_34_28 <= 0.5\ngini = 0.304\nsamples = 1442\nvalue = [259.657, 1129.87]", fillcolor="#67b4eb"] ;
40 -> 41 ;
42 [label="node #42\nActivity_16_24 <= 0.5\ngini = 0.3\nsamples = 1426\nvalue = [252.208, 1121.382]", fillcolor="#66b3eb"] ;
41 -> 42 ;
43 [label="node #43\nActivity_30_20 <= 0.5\ngini = 0.295\nsamples = 1398\nvalue = [241.566, 1104.406]", fillcolor="#64b2eb"] ;
42 -> 43 ;
44 [label="node #44\nActivity_12_46 <= 0.5\ngini = 0.29\nsamples = 1377\nvalue = [233.053, 1092.145]", fillcolor="#63b2eb"] ;
43 -> 44 ;
45 [label="node #45\nActivity_20_42 <= 0.5\ngini = 0.299\nsamples = 1296\nvalue = [228.796, 1019.524]", fillcolor="#65b3eb"] ;
44 -> 45 ;
46 [label="node #46\nActivity_17_29 <= 0.5\ngini = 0.305\nsamples = 1263\nvalue = [228.796, 988.401]", fillcolor="#67b4eb"] ;
45 -> 46 ;
47 [label="node #47\nActivity_12_38 <= 0.5\ngini = 0.312\nsamples = 1221\nvalue = [227.732, 949.732]", fillcolor="#68b4eb"] ;
46 -> 47 ;
48 [label="node #48\nActivity_20_34 <= 0.5\ngini = 0.305\nsamples = 1187\nvalue = [214.962, 928.983]", fillcolor="#67b4eb"] ;
47 -> 48 ;
49 [label="node #49\nActivity_8_43 <= 0.5\ngini = 0.301\nsamples = 1169\nvalue = [207.513, 918.609]", fillcolor="#66b3eb"] ;
48 -> 49 ;
50 [label="node #50\nActivity_9_44 <= 0.5\ngini = 0.308\nsamples = 1127\nvalue = [206.449, 879.941]", fillcolor="#67b4eb"] ;
49 -> 50 ;
51 [label="node #51\nActivity_17_52 <= 0.5\ngini = 0.32\nsamples = 1022\nvalue = [196.871, 789.4]", fillcolor="#6ab5eb"] ;
50 -> 51 ;
52 [label="node #52\nActivity_21_14 <= 0.5\ngini = 0.314\nsamples = 1001\nvalue = [188.358, 777.139]", fillcolor="#69b5eb"] ;
51 -> 52 ;
53 [label="node #53\nActivity_18_53 <= 0.5\ngini = 0.32\nsamples = 977\nvalue = [188.358, 754.504]", fillcolor="#6ab5eb"] ;
52 -> 53 ;
54 [label="node #54\nActivity_22_45 <= 0.5\ngini = 0.313\nsamples = 947\nvalue = [177.716, 735.642]", fillcolor="#69b5eb"] ;
53 -> 54 ;
55 [label="node #55\nActivity_11_29 <= 0.5\ngini = 0.32\nsamples = 921\nvalue = [177.716, 711.12]", fillcolor="#6ab5eb"] ;
54 -> 55 ;
56 [label="node #56\nActivity_6_46 <= 0.5\ngini = 0.313\nsamples = 888\nvalue = [166.01, 690.371]", fillcolor="#69b5eb"] ;
55 -> 56 ;
57 [label="node #57\nActivity_15_52 <= 0.5\ngini = 0.322\nsamples = 825\nvalue = [160.689, 635.67]", fillcolor="#6bb6ec"] ;
56 -> 57 ;
58 [label="node #58\nActivity_13_42 <= 0.5\ngini = 0.313\nsamples = 795\nvalue = [148.984, 617.75]", fillcolor="#69b5eb"] ;
57 -> 58 ;
59 [label="node #59\nActivity_21_4 <= 0.5\ngini = 0.304\nsamples = 755\nvalue = [136.214, 591.343]", fillcolor="#67b4eb"] ;
58 -> 59 ;
60 [label="node #60\nActivity_8_22 <= 0.5\ngini = 0.298\nsamples = 739\nvalue = [129.829, 581.911]", fillcolor="#65b3eb"] ;
59 -> 60 ;
61 [label="node #61\nActivity_8_9 <= 0.5\ngini = 0.292\nsamples = 723\nvalue = [123.443, 572.48]", fillcolor="#64b2eb"] ;
60 -> 61 ;
62 [label="node #62\nActivity_12_18 <= 0.5\ngini = 0.279\nsamples = 668\nvalue = [107.481, 534.755]", fillcolor="#61b1ea"] ;
61 -> 62 ;
63 [label="node #63\nActivity_5_44 <= 0.5\ngini = 0.267\nsamples = 629\nvalue = [95.775, 508.347]", fillcolor="#5eafea"] ;
62 -> 63 ;
64 [label="node #64\nActivity_6_13 <= 0.5\ngini = 0.256\nsamples = 602\nvalue = [87.262, 490.428]", fillcolor="#5caeea"] ;
63 -> 64 ;
65 [label="node #65\nActivity_9_34 <= 0.5\ngini = 0.249\nsamples = 586\nvalue = [81.941, 480.053]", fillcolor="#5baee9"] ;
64 -> 65 ;
66 [label="node #66\nActivity_13_43 <= 0.5\ngini = 0.241\nsamples = 563\nvalue = [75.556, 464.02]", fillcolor="#59ade9"] ;
65 -> 66 ;
67 [label="node #67\nActivity_18_9 <= 0.5\ngini = 0.23\nsamples = 528\nvalue = [67.043, 438.556]", fillcolor="#57ace9"] ;
66 -> 67 ;
68 [label="node #68\nActivity_18_17 <= 0.5\ngini = 0.239\nsamples = 503\nvalue = [67.043, 414.977]", fillcolor="#59ade9"] ;
67 -> 68 ;
69 [label="node #69\nActivity_17_14 <= 0.5\ngini = 0.248\nsamples = 481\nvalue = [67.043, 394.228]", fillcolor="#5baee9"] ;
68 -> 69 ;
70 [label="node #70\nActivity_19_16 <= 0.5\ngini = 0.255\nsamples = 465\nvalue = [67.043, 379.138]", fillcolor="#5caeea"] ;
69 -> 70 ;
71 [label="node #71\nActivity_10_15 <= 0.5\ngini = 0.264\nsamples = 439\nvalue = [65.978, 355.56]", fillcolor="#5eafea"] ;
70 -> 71 ;
72 [label="node #72\nActivity_21_46 <= 0.5\ngini = 0.251\nsamples = 422\nvalue = [59.593, 345.186]", fillcolor="#5baee9"] ;
71 -> 72 ;
73 [label="node #73\nActivity_16_50 <= 0.5\ngini = 0.262\nsamples = 400\nvalue = [59.593, 324.437]", fillcolor="#5dafea"] ;
72 -> 73 ;
74 [label="node #74\nActivity_19_40 <= 0.5\ngini = 0.251\nsamples = 377\nvalue = [53.208, 308.404]", fillcolor="#5baee9"] ;
73 -> 74 ;
75 [label="node #75\ngini = 0.239\nsamples = 352\nvalue = [46.823, 290.484]", fillcolor="#59ade9"] ;
74 -> 75 ;
76 [label="node #76\ngini = 0.387\nsamples = 25\nvalue = [6.385, 17.919]", fillcolor="#80c0ee"] ;
74 -> 76 ;
77 [label="node #77\ngini = 0.407\nsamples = 23\nvalue = [6.385, 16.033]", fillcolor="#88c4ef"] ;
73 -> 77 ;
78 [label="node #78\ngini = 0.0\nsamples = 22\nvalue = [0.0, 20.749]", fillcolor="#399de5"] ;
72 -> 78 ;
79 [label="node #79\ngini = 0.472\nsamples = 17\nvalue = [6.385, 10.374]", fillcolor="#b3d9f5"] ;
71 -> 79 ;
80 [label="node #80\ngini = 0.083\nsamples = 26\nvalue = [1.064, 23.578]", fillcolor="#42a1e6"] ;
70 -> 80 ;
81 [label="node #81\ngini = 0.0\nsamples = 16\nvalue = [0.0, 15.09]", fillcolor="#399de5"] ;
69 -> 81 ;
82 [label="node #82\ngini = 0.0\nsamples = 22\nvalue = [0.0, 20.749]", fillcolor="#399de5"] ;
68 -> 82 ;
83 [label="node #83\ngini = 0.0\nsamples = 25\nvalue = [0.0, 23.578]", fillcolor="#399de5"] ;
67 -> 83 ;
84 [label="node #84\ngini = 0.376\nsamples = 35\nvalue = [8.513, 25.465]", fillcolor="#7bbeee"] ;
66 -> 84 ;
85 [label="node #85\ngini = 0.407\nsamples = 23\nvalue = [6.385, 16.033]", fillcolor="#88c4ef"] ;
65 -> 85 ;
86 [label="node #86\ngini = 0.448\nsamples = 16\nvalue = [5.321, 10.374]", fillcolor="#9fcff2"] ;
64 -> 86 ;
87 [label="node #87\ngini = 0.437\nsamples = 27\nvalue = [8.513, 17.919]", fillcolor="#97ccf1"] ;
63 -> 87 ;
88 [label="node #88\ngini = 0.426\nsamples = 39\nvalue = [11.706, 26.408]", fillcolor="#91c8f1"] ;
62 -> 88 ;
89 [label="node #89\ngini = 0.418\nsamples = 55\nvalue = [15.963, 37.725]", fillcolor="#8dc6f0"] ;
61 -> 89 ;
90 [label="node #90\ngini = 0.481\nsamples = 16\nvalue = [6.385, 9.431]", fillcolor="#bfdff7"] ;
60 -> 90 ;
91 [label="node #91\ngini = 0.481\nsamples = 16\nvalue = [6.385, 9.431]", fillcolor="#bfdff7"] ;
59 -> 91 ;
92 [label="node #92\ngini = 0.439\nsamples = 40\nvalue = [12.77, 26.408]", fillcolor="#99ccf2"] ;
58 -> 92 ;
93 [label="node #93\ngini = 0.478\nsamples = 30\nvalue = [11.706, 17.919]", fillcolor="#baddf6"] ;
57 -> 93 ;
94 [label="node #94\ngini = 0.162\nsamples = 63\nvalue = [5.321, 54.702]", fillcolor="#4ca7e8"] ;
56 -> 94 ;
95 [label="node #95\ngini = 0.461\nsamples = 33\nvalue = [11.706, 20.749]", fillcolor="#a9d4f4"] ;
55 -> 95 ;
96 [label="node #96\ngini = 0.0\nsamples = 26\nvalue = [0.0, 24.521]", fillcolor="#399de5"] ;
54 -> 96 ;
97 [label="node #97\ngini = 0.461\nsamples = 30\nvalue = [10.642, 18.863]", fillcolor="#a9d4f4"] ;
53 -> 97 ;
98 [label="node #98\ngini = 0.0\nsamples = 24\nvalue = [0.0, 22.635]", fillcolor="#399de5"] ;
52 -> 98 ;
99 [label="node #99\ngini = 0.484\nsamples = 21\nvalue = [8.513, 12.261]", fillcolor="#c2e1f7"] ;
51 -> 99 ;
100 [label="node #100\ngini = 0.173\nsamples = 105\nvalue = [9.578, 90.541]", fillcolor="#4ea7e8"] ;
50 -> 100 ;
101 [label="node #101\ngini = 0.052\nsamples = 42\nvalue = [1.064, 38.668]", fillcolor="#3ea0e6"] ;
49 -> 101 ;
102 [label="node #102\ngini = 0.487\nsamples = 18\nvalue = [7.449, 10.374]", fillcolor="#c7e3f8"] ;
48 -> 102 ;
103 [label="node #103\ngini = 0.472\nsamples = 34\nvalue = [12.77, 20.749]", fillcolor="#b3d9f5"] ;
47 -> 103 ;
104 [label="node #104\ngini = 0.052\nsamples = 42\nvalue = [1.064, 38.668]", fillcolor="#3ea0e6"] ;
46 -> 104 ;
105 [label="node #105\ngini = 0.0\nsamples = 33\nvalue = [0.0, 31.123]", fillcolor="#399de5"] ;
45 -> 105 ;
106 [label="node #106\ngini = 0.105\nsamples = 81\nvalue = [4.257, 72.621]", fillcolor="#45a3e7"] ;
44 -> 106 ;
107 [label="node #107\ngini = 0.484\nsamples = 21\nvalue = [8.513, 12.261]", fillcolor="#c2e1f7"] ;
43 -> 107 ;
108 [label="node #108\ngini = 0.474\nsamples = 28\nvalue = [10.642, 16.976]", fillcolor="#b5daf5"] ;
42 -> 108 ;
109 [label="node #109\ngini = 0.498\nsamples = 16\nvalue = [7.449, 8.488]", fillcolor="#e7f3fc"] ;
41 -> 109 ;
110 [label="node #110\ngini = 0.057\nsamples = 77\nvalue = [2.128, 70.735]", fillcolor="#3fa0e6"] ;
40 -> 110 ;
111 [label="node #111\ngini = 0.447\nsamples = 58\nvalue = [19.155, 37.725]", fillcolor="#9ecff2"] ;
39 -> 111 ;
112 [label="node #112\ngini = 0.092\nsamples = 70\nvalue = [3.193, 63.19]", fillcolor="#43a2e6"] ;
38 -> 112 ;
113 [label="node #113\ngini = 0.461\nsamples = 45\nvalue = [15.963, 28.294]", fillcolor="#a9d4f4"] ;
37 -> 113 ;
114 [label="node #114\ngini = 0.49\nsamples = 25\nvalue = [10.642, 14.147]", fillcolor="#cee7f9"] ;
36 -> 114 ;
115 [label="node #115\ngini = 0.488\nsamples = 28\nvalue = [11.706, 16.033]", fillcolor="#cae5f8"] ;
35 -> 115 ;
116 [label="node #116\ngini = 0.492\nsamples = 32\nvalue = [13.834, 17.919]", fillcolor="#d2e9f9"] ;
34 -> 116 ;
117 [label="node #117\ngini = 0.5\nsamples = 22\nvalue = [10.642, 11.318]", fillcolor="#f3f9fd"] ;
33 -> 117 ;
118 [label="node #118\ngini = 0.493\nsamples = 34\nvalue = [14.898, 18.863]", fillcolor="#d5eafa"] ;
32 -> 118 ;
119 [label="node #119\ngini = 0.498\nsamples = 18\nvalue = [9.578, 8.488]", fillcolor="#fcf1e8"] ;
31 -> 119 ;
120 [label="node #120\ngini = 0.5\nsamples = 21\nvalue = [10.642, 10.374]", fillcolor="#fefcfa"] ;
30 -> 120 ;
121 [label="node #121\ngini = 0.493\nsamples = 17\nvalue = [9.578, 7.545]", fillcolor="#f9e4d5"] ;
29 -> 121 ;
122 [label="node #122\ngini = 0.49\nsamples = 45\nvalue = [19.155, 25.465]", fillcolor="#cee7f9"] ;
28 -> 122 ;
123 [label="node #123\ngini = 0.487\nsamples = 20\nvalue = [11.706, 8.488]", fillcolor="#f8dcc9"] ;
27 -> 123 ;
124 [label="node #124\ngini = 0.453\nsamples = 16\nvalue = [10.642, 5.659]", fillcolor="#f3c4a2"] ;
26 -> 124 ;
125 [label="node #125\ngini = 0.492\nsamples = 30\nvalue = [17.027, 13.204]", fillcolor="#f9e3d3"] ;
25 -> 125 ;
126 [label="node #126\ngini = 0.493\nsamples = 32\nvalue = [18.091, 14.147]", fillcolor="#f9e4d4"] ;
24 -> 126 ;
127 [label="node #127\ngini = 0.426\nsamples = 21\nvalue = [14.898, 6.602]", fillcolor="#f1b991"] ;
23 -> 127 ;
128 [label="node #128\ngini = 0.352\nsamples = 16\nvalue = [12.77, 3.773]", fillcolor="#eda673"] ;
22 -> 128 ;
129 [label="node #129\ngini = 0.499\nsamples = 74\nvalue = [38.31, 35.839]", fillcolor="#fdf7f2"] ;
21 -> 129 ;
130 [label="node #130\ngini = 0.352\nsamples = 20\nvalue = [15.963, 4.716]", fillcolor="#eda673"] ;
20 -> 130 ;
131 [label="node #131\ngini = 0.432\nsamples = 35\nvalue = [24.476, 11.318]", fillcolor="#f1bb95"] ;
19 -> 131 ;
132 [label="node #132\ngini = 0.371\nsamples = 26\nvalue = [20.219, 6.602]", fillcolor="#edaa7a"] ;
18 -> 132 ;
133 [label="node #133\ngini = 0.377\nsamples = 29\nvalue = [22.348, 7.545]", fillcolor="#eeac7c"] ;
17 -> 133 ;
134 [label="node #134\ngini = 0.402\nsamples = 33\nvalue = [24.476, 9.431]", fillcolor="#efb285"] ;
16 -> 134 ;
135 [label="node #135\ngini = 0.224\nsamples = 21\nvalue = [19.155, 2.829]", fillcolor="#e99456"] ;
15 -> 135 ;
136 [label="node #136\ngini = 0.426\nsamples = 51\nvalue = [36.182, 16.033]", fillcolor="#f1b991"] ;
14 -> 136 ;
137 [label="node #137\ngini = 0.384\nsamples = 46\nvalue = [35.118, 12.261]", fillcolor="#eead7e"] ;
13 -> 137 ;
138 [label="node #138\ngini = 0.357\nsamples = 47\nvalue = [37.246, 11.318]", fillcolor="#eda775"] ;
12 -> 138 ;
139 [label="node #139\ngini = 0.461\nsamples = 116\nvalue = [75.556, 42.441]", fillcolor="#f4c8a8"] ;
11 -> 139 ;
140 [label="node #140\ngini = 0.316\nsamples = 60\nvalue = [50.016, 12.261]", fillcolor="#eba06a"] ;
10 -> 140 ;
141 [label="node #141\ngini = 0.307\nsamples = 67\nvalue = [56.401, 13.204]", fillcolor="#eb9e67"] ;
9 -> 141 ;
142 [label="node #142\ngini = 0.275\nsamples = 66\nvalue = [57.465, 11.318]", fillcolor="#ea9a60"] ;
8 -> 142 ;
143 [label="node #143\ngini = 0.366\nsamples = 106\nvalue = [83.005, 26.408]", fillcolor="#eda978"] ;
7 -> 143 ;
144 [label="node #144\ngini = 0.284\nsamples = 90\nvalue = [77.684, 16.033]", fillcolor="#ea9b62"] ;
6 -> 144 ;
145 [label="node #145\ngini = 0.327\nsamples = 128\nvalue = [105.353, 27.351]", fillcolor="#eca26c"] ;
5 -> 145 ;
146 [label="node #146\ngini = 0.245\nsamples = 101\nvalue = [90.454, 15.09]", fillcolor="#e9965a"] ;
4 -> 146 ;
147 [label="node #147\ngini = 0.28\nsamples = 113\nvalue = [97.903, 19.806]", fillcolor="#ea9a61"] ;
3 -> 147 ;
148 [label="node #148\ngini = 0.245\nsamples = 126\nvalue = [112.802, 18.863]", fillcolor="#e9965a"] ;
2 -> 148 ;
149 [label="node #149\ngini = 0.195\nsamples = 115\nvalue = [107.481, 13.204]", fillcolor="#e89051"] ;
1 -> 149 ;
150 [label="node #150\ngini = 0.225\nsamples = 209\nvalue = [190.486, 28.294]", fillcolor="#e99456"] ;
0 -> 150 [labeldistance=2.5, labelangle=-45, headlabel="False"] ;
}
