digraph Tree {
node [shape=box, style="filled", color="black", fontname="helvetica"] ;
edge [fontname="helvetica"] ;
0 [label="node #0\narticle_2_3 <= 0.5\nentropy = 0.997\nsamples = 103652\nvalue = [48666, 54986]", fillcolor="#e8f4fc"] ;
1 [label="node #1\nentropy = 0.877\nsamples = 4042\nvalue = [2844, 1198]", fillcolor="#f0b68c"] ;
0 -> 1 [labeldistance=2.5, labelangle=45, headlabel="True"] ;
2 [label="node #2\nentropy = 0.995\nsamples = 99610\nvalue = [45822, 53788]", fillcolor="#e2f0fb"] ;
0 -> 2 [labeldistance=2.5, labelangle=-45, headlabel="False"] ;
}
