digraph Tree {
node [shape=box, style="filled", color="black", fontname="helvetica"] ;
edge [fontname="helvetica"] ;
0 [label="node #0\nDisfuncOrg_25_1 <= 0.5\nentropy = 0.642\nsamples = 490\nvalue = [80, 410]", fillcolor="#60b0ea"] ;
1 [label="node #1\nDisfuncOrg_10_1 <= 0.5\nentropy = 0.198\nsamples = 65\nvalue = [2, 63]", fillcolor="#3fa0e6"] ;
0 -> 1 [labeldistance=2.5, labelangle=45, headlabel="True"] ;
2 [label="node #2\nentropy = 0.65\nsamples = 12\nvalue = [2, 10]", fillcolor="#61b1ea"] ;
1 -> 2 ;
3 [label="node #3\nentropy = 0.0\nsamples = 53\nvalue = [0, 53]", fillcolor="#399de5"] ;
1 -> 3 ;
4 [label="node #4\nDisfuncOrg_35_1 <= 0.5\nentropy = 0.688\nsamples = 425\nvalue = [78, 347]", fillcolor="#66b3eb"] ;
0 -> 4 [labeldistance=2.5, labelangle=-45, headlabel="False"] ;
5 [label="node #5\nDisfuncOrg_31_1 <= 0.5\nentropy = 1.0\nsamples = 34\nvalue = [17, 17]", fillcolor="#ffffff"] ;
4 -> 5 ;
6 [label="node #6\nDisfuncOrg_27_1 <= 0.5\nentropy = 0.932\nsamples = 23\nvalue = [8, 15]", fillcolor="#a3d1f3"] ;
5 -> 6 ;
7 [label="node #7\nentropy = 0.918\nsamples = 12\nvalue = [4, 8]", fillcolor="#9ccef2"] ;
6 -> 7 ;
8 [label="node #8\nentropy = 0.946\nsamples = 11\nvalue = [4, 7]", fillcolor="#aad5f4"] ;
6 -> 8 ;
9 [label="node #9\nentropy = 0.684\nsamples = 11\nvalue = [9, 2]", fillcolor="#eb9d65"] ;
5 -> 9 ;
10 [label="node #10\nDisfuncOrg_40_1 <= 0.5\nentropy = 0.625\nsamples = 391\nvalue = [61, 330]", fillcolor="#5eafea"] ;
4 -> 10 ;
11 [label="node #11\nDisfuncOrg_38_1 <= 0.5\nentropy = 0.089\nsamples = 89\nvalue = [1, 88]", fillcolor="#3b9ee5"] ;
10 -> 11 ;
12 [label="node #12\nentropy = 0.337\nsamples = 16\nvalue = [1, 15]", fillcolor="#46a4e7"] ;
11 -> 12 ;
13 [label="node #13\nentropy = 0.0\nsamples = 73\nvalue = [0, 73]", fillcolor="#399de5"] ;
11 -> 13 ;
14 [label="node #14\nentropy = 0.719\nsamples = 302\nvalue = [60, 242]", fillcolor="#6ab5eb"] ;
10 -> 14 ;
}
