digraph Tree {
node [shape=box, style="filled", color="black", fontname="helvetica"] ;
edge [fontname="helvetica"] ;
0 [label="node #0\nprefix_21_23 <= 0.5\nentropy = 0.992\nsamples = 756211\nvalue = [337375, 418836]", fillcolor="#d8ecfa"] ;
1 [label="node #1\nprefix_2_1 <= 0.5\nentropy = 0.978\nsamples = 663457\nvalue = [273570, 389887]", fillcolor="#c4e2f7"] ;
0 -> 1 [labeldistance=2.5, labelangle=45, headlabel="True"] ;
2 [label="node #2\nprefix_19_21 <= 0.5\nentropy = 0.96\nsamples = 595692\nvalue = [227813, 367879]", fillcolor="#b4daf5"] ;
1 -> 2 ;
3 [label="node #3\nprefix_17_19 <= 0.5\nentropy = 0.948\nsamples = 570857\nvalue = [209511, 361346]", fillcolor="#acd6f4"] ;
2 -> 3 ;
4 [label="node #4\nprefix_23_23 <= 0.5\nentropy = 0.942\nsamples = 559114\nvalue = [201056, 358058]", fillcolor="#a8d4f4"] ;
3 -> 4 ;
5 [label="node #5\nprefix_5_4 <= 0.5\nentropy = 0.935\nsamples = 528933\nvalue = [185718, 343215]", fillcolor="#a4d2f3"] ;
4 -> 5 ;
6 [label="node #6\nprefix_14_10 <= 0.5\nentropy = 0.947\nsamples = 453978\nvalue = [166047, 287931]", fillcolor="#abd6f4"] ;
5 -> 6 ;
7 [label="node #7\nprefix_19_2 <= 0.5\nentropy = 0.954\nsamples = 427926\nvalue = [160469, 267457]", fillcolor="#b0d8f5"] ;
6 -> 7 ;
8 [label="node #8\nprefix_20_11 <= 0.5\nentropy = 0.956\nsamples = 424988\nvalue = [160469, 264519]", fillcolor="#b1d8f5"] ;
7 -> 8 ;
9 [label="node #9\nprefix_16_2 <= 0.5\nentropy = 0.959\nsamples = 420373\nvalue = [160153, 260220]", fillcolor="#b3d9f5"] ;
8 -> 9 ;
10 [label="node #10\nprefix_19_9 <= 0.5\nentropy = 0.96\nsamples = 418165\nvalue = [160153, 258012]", fillcolor="#b4daf5"] ;
9 -> 10 ;
11 [label="node #11\nprefix_20_2 <= 0.5\nentropy = 0.962\nsamples = 412785\nvalue = [159452, 253333]", fillcolor="#b6dbf5"] ;
10 -> 11 ;
12 [label="node #12\nprefix_16_11 <= 0.5\nentropy = 0.963\nsamples = 411023\nvalue = [159452, 251571]", fillcolor="#b6dbf5"] ;
11 -> 12 ;
13 [label="node #13\nprefix_8_7 <= 0.5\nentropy = 0.967\nsamples = 396187\nvalue = [155865, 240322]", fillcolor="#b9ddf6"] ;
12 -> 13 ;
14 [label="node #14\nprefix_21_2 <= 0.5\nentropy = 0.96\nsamples = 350718\nvalue = [134269, 216449]", fillcolor="#b4daf5"] ;
13 -> 14 ;
15 [label="node #15\nprefix_19_13 <= 0.5\nentropy = 0.961\nsamples = 349365\nvalue = [134269, 215096]", fillcolor="#b5daf5"] ;
14 -> 15 ;
16 [label="node #16\nprefix_21_11 <= 0.5\nentropy = 0.963\nsamples = 343612\nvalue = [133176, 210436]", fillcolor="#b6dbf5"] ;
15 -> 16 ;
17 [label="node #17\nprefix_18_15 <= 0.5\nentropy = 0.965\nsamples = 341068\nvalue = [132925, 208143]", fillcolor="#b7dcf6"] ;
16 -> 17 ;
18 [label="node #18\nprefix_18_2 <= 0.5\nentropy = 0.958\nsamples = 308390\nvalue = [117003, 191387]", fillcolor="#b2d9f5"] ;
17 -> 18 ;
19 [label="node #19\nprefix_13_7 <= 0.5\nentropy = 0.958\nsamples = 307452\nvalue = [117003, 190449]", fillcolor="#b3d9f5"] ;
18 -> 19 ;
20 [label="node #20\nprefix_27_22 <= 0.5\nentropy = 0.961\nsamples = 301291\nvalue = [115681, 185610]", fillcolor="#b4daf5"] ;
19 -> 20 ;
21 [label="node #21\nprefix_21_18 <= 0.5\nentropy = 0.959\nsamples = 298812\nvalue = [114034, 184778]", fillcolor="#b3d9f5"] ;
20 -> 21 ;
22 [label="node #22\nprefix_16_8 <= 0.5\nentropy = 0.961\nsamples = 295022\nvalue = [113206, 181816]", fillcolor="#b4daf5"] ;
21 -> 22 ;
23 [label="node #23\nprefix_12_13 <= 0.5\nentropy = 0.962\nsamples = 292486\nvalue = [112728, 179758]", fillcolor="#b5daf5"] ;
22 -> 23 ;
24 [label="node #24\nprefix_9_7 <= 0.5\nentropy = 0.959\nsamples = 281302\nvalue = [107282, 174020]", fillcolor="#b3d9f5"] ;
23 -> 24 ;
25 [label="node #25\nprefix_2_2 <= 0.5\nentropy = 0.962\nsamples = 271626\nvalue = [104921, 166705]", fillcolor="#b6dbf5"] ;
24 -> 25 ;
26 [label="node #26\nprefix_8_5 <= 0.5\nentropy = 0.986\nsamples = 68663\nvalue = [29517, 39146]", fillcolor="#cee7f9"] ;
25 -> 26 ;
27 [label="node #27\nprefix_16_18 <= 0.5\nentropy = 0.987\nsamples = 68097\nvalue = [29459, 38638]", fillcolor="#d0e8f9"] ;
26 -> 27 ;
28 [label="node #28\nprefix_24_19 <= 0.5\nentropy = 0.986\nsamples = 67871\nvalue = [29266, 38605]", fillcolor="#cfe7f9"] ;
27 -> 28 ;
29 [label="node #29\nprefix_2_3 <= 0.5\nentropy = 0.987\nsamples = 67780\nvalue = [29266, 38514]", fillcolor="#cfe7f9"] ;
28 -> 29 ;
30 [label="node #30\nentropy = 0.976\nsamples = 25130\nvalue = [10273, 14857]", fillcolor="#c2e1f7"] ;
29 -> 30 ;
31 [label="node #31\nprefix_9_5 <= 0.5\nentropy = 0.991\nsamples = 42650\nvalue = [18993, 23657]", fillcolor="#d8ecfa"] ;
29 -> 31 ;
32 [label="node #32\nprefix_9_8 <= 0.5\nentropy = 0.991\nsamples = 42501\nvalue = [18884, 23617]", fillcolor="#d7ebfa"] ;
31 -> 32 ;
33 [label="node #33\nprefix_14_1 <= 0.5\nentropy = 0.99\nsamples = 41421\nvalue = [18299, 23122]", fillcolor="#d6ebfa"] ;
32 -> 33 ;
34 [label="node #34\nprefix_18_17 <= 0.5\nentropy = 0.99\nsamples = 41349\nvalue = [18241, 23108]", fillcolor="#d5eafa"] ;
33 -> 34 ;
35 [label="node #35\nprefix_14_12 <= 0.5\nentropy = 0.99\nsamples = 41140\nvalue = [18209, 22931]", fillcolor="#d6ebfa"] ;
34 -> 35 ;
36 [label="node #36\nprefix_6_4 <= 0.5\nentropy = 0.99\nsamples = 41117\nvalue = [18186, 22931]", fillcolor="#d6ebfa"] ;
35 -> 36 ;
37 [label="node #37\nprefix_17_1 <= 0.5\nentropy = 0.99\nsamples = 41094\nvalue = [18186, 22908]", fillcolor="#d6ebfa"] ;
36 -> 37 ;
38 [label="node #38\nprefix_13_14 <= 0.5\nentropy = 0.99\nsamples = 41043\nvalue = [18146, 22897]", fillcolor="#d6ebfa"] ;
37 -> 38 ;
39 [label="node #39\nprefix_9_2 <= 0.5\nentropy = 0.991\nsamples = 40625\nvalue = [18016, 22609]", fillcolor="#d7ebfa"] ;
38 -> 39 ;
40 [label="node #40\nprefix_14_2 <= 0.5\nentropy = 0.991\nsamples = 40604\nvalue = [18016, 22588]", fillcolor="#d7ebfa"] ;
39 -> 40 ;
41 [label="node #41\nprefix_9_1 <= 0.5\nentropy = 0.991\nsamples = 40584\nvalue = [18016, 22568]", fillcolor="#d7ebfa"] ;
40 -> 41 ;
42 [label="node #42\nprefix_8_4 <= 0.5\nentropy = 0.991\nsamples = 40481\nvalue = [17992, 22489]", fillcolor="#d7ebfa"] ;
41 -> 42 ;
43 [label="node #43\nprefix_14_7 <= 0.5\nentropy = 0.991\nsamples = 40070\nvalue = [17771, 22299]", fillcolor="#d7ebfa"] ;
42 -> 43 ;
44 [label="node #44\nprefix_9_9 <= 0.5\nentropy = 0.991\nsamples = 40025\nvalue = [17763, 22262]", fillcolor="#d7ebfa"] ;
43 -> 44 ;
45 [label="node #45\nprefix_8_2 <= 0.5\nentropy = 0.991\nsamples = 39941\nvalue = [17709, 22232]", fillcolor="#d7ebfa"] ;
44 -> 45 ;
46 [label="node #46\nprefix_13_2 <= 0.5\nentropy = 0.991\nsamples = 39930\nvalue = [17709, 22221]", fillcolor="#d7ebfa"] ;
45 -> 46 ;
47 [label="node #47\nprefix_27_11 <= 0.5\nentropy = 0.991\nsamples = 39920\nvalue = [17709, 22211]", fillcolor="#d7ebfa"] ;
46 -> 47 ;
48 [label="node #48\nprefix_30_23 <= 0.5\nentropy = 0.991\nsamples = 39910\nvalue = [17709, 22201]", fillcolor="#d7ebfa"] ;
47 -> 48 ;
49 [label="node #49\nprefix_7_1 <= 0.5\nentropy = 0.991\nsamples = 39903\nvalue = [17702, 22201]", fillcolor="#d7ebfa"] ;
48 -> 49 ;
50 [label="node #50\nprefix_12_10 <= 0.5\nentropy = 0.991\nsamples = 39839\nvalue = [17662, 22177]", fillcolor="#d7ebfa"] ;
49 -> 50 ;
51 [label="node #51\nprefix_13_11 <= 0.5\nentropy = 0.991\nsamples = 39819\nvalue = [17660, 22159]", fillcolor="#d7ebfa"] ;
50 -> 51 ;
52 [label="node #52\nprefix_13_13 <= 0.5\nentropy = 0.991\nsamples = 39814\nvalue = [17655, 22159]", fillcolor="#d7ebfa"] ;
51 -> 52 ;
53 [label="node #53\nprefix_9_6 <= 0.5\nentropy = 0.99\nsamples = 38899\nvalue = [17209, 21690]", fillcolor="#d6ebfa"] ;
52 -> 53 ;
54 [label="node #54\nprefix_7_3 <= 0.5\nentropy = 0.991\nsamples = 38593\nvalue = [17101, 21492]", fillcolor="#d7ebfa"] ;
53 -> 54 ;
55 [label="node #55\nprefix_10_6 <= 0.5\nentropy = 0.99\nsamples = 37834\nvalue = [16692, 21142]", fillcolor="#d5eafa"] ;
54 -> 55 ;
56 [label="node #56\nprefix_13_1 <= 0.5\nentropy = 0.99\nsamples = 37812\nvalue = [16690, 21122]", fillcolor="#d5eafa"] ;
55 -> 56 ;
57 [label="node #57\nprefix_9_4 <= 0.5\nentropy = 0.99\nsamples = 37806\nvalue = [16690, 21116]", fillcolor="#d5eafa"] ;
56 -> 57 ;
58 [label="node #58\nprefix_7_6 <= 0.5\nentropy = 0.99\nsamples = 37800\nvalue = [16690, 21110]", fillcolor="#d6eafa"] ;
57 -> 58 ;
59 [label="node #59\nprefix_11_6 <= 0.5\nentropy = 0.99\nsamples = 36878\nvalue = [16318, 20560]", fillcolor="#d6ebfa"] ;
58 -> 59 ;
60 [label="node #60\nprefix_6_1 <= 0.5\nentropy = 0.99\nsamples = 36871\nvalue = [16311, 20560]", fillcolor="#d6ebfa"] ;
59 -> 60 ;
61 [label="node #61\nprefix_15_14 <= 0.5\nentropy = 0.99\nsamples = 36663\nvalue = [16202, 20461]", fillcolor="#d6ebfa"] ;
60 -> 61 ;
62 [label="node #62\nprefix_11_2 <= 0.5\nentropy = 0.99\nsamples = 36659\nvalue = [16202, 20457]", fillcolor="#d6ebfa"] ;
61 -> 62 ;
63 [label="node #63\nprefix_10_10 <= 0.5\nentropy = 0.99\nsamples = 36655\nvalue = [16202, 20453]", fillcolor="#d6ebfa"] ;
62 -> 63 ;
64 [label="node #64\nprefix_8_8 <= 0.5\nentropy = 0.99\nsamples = 36653\nvalue = [16200, 20453]", fillcolor="#d6ebfa"] ;
63 -> 64 ;
65 [label="node #65\nprefix_13_6 <= 0.5\nentropy = 0.99\nsamples = 35875\nvalue = [15837, 20038]", fillcolor="#d5eafa"] ;
64 -> 65 ;
66 [label="node #66\nprefix_10_9 <= 0.5\nentropy = 0.99\nsamples = 35873\nvalue = [15837, 20036]", fillcolor="#d6eafa"] ;
65 -> 66 ;
67 [label="node #67\nprefix_11_9 <= 0.5\nentropy = 0.99\nsamples = 35829\nvalue = [15821, 20008]", fillcolor="#d6eafa"] ;
66 -> 67 ;
68 [label="node #68\nprefix_6_5 <= 0.5\nentropy = 0.99\nsamples = 35811\nvalue = [15811, 20000]", fillcolor="#d6eafa"] ;
67 -> 68 ;
69 [label="node #69\nprefix_5_3 <= 0.5\nentropy = 0.99\nsamples = 35375\nvalue = [15609, 19766]", fillcolor="#d5eafa"] ;
68 -> 69 ;
70 [label="node #70\nprefix_6_3 <= 0.5\nentropy = 0.99\nsamples = 35013\nvalue = [15438, 19575]", fillcolor="#d5eafa"] ;
69 -> 70 ;
71 [label="node #71\nprefix_5_1 <= 0.5\nentropy = 0.99\nsamples = 23890\nvalue = [10565, 13325]", fillcolor="#d6ebfa"] ;
70 -> 71 ;
72 [label="node #72\nprefix_4_1 <= 0.5\nentropy = 0.991\nsamples = 18189\nvalue = [8052, 10137]", fillcolor="#d6ebfa"] ;
71 -> 72 ;
73 [label="node #73\nprefix_3_1 <= 0.5\nentropy = 0.991\nsamples = 12126\nvalue = [5368, 6758]", fillcolor="#d6ebfa"] ;
72 -> 73 ;
74 [label="node #74\nentropy = 0.991\nsamples = 6063\nvalue = [2684, 3379]", fillcolor="#d6ebfa"] ;
73 -> 74 ;
75 [label="node #75\nentropy = 0.991\nsamples = 6063\nvalue = [2684, 3379]", fillcolor="#d6ebfa"] ;
73 -> 75 ;
76 [label="node #76\nentropy = 0.991\nsamples = 6063\nvalue = [2684, 3379]", fillcolor="#d6ebfa"] ;
72 -> 76 ;
77 [label="node #77\nentropy = 0.99\nsamples = 5701\nvalue = [2513, 3188]", fillcolor="#d5eaf9"] ;
71 -> 77 ;
78 [label="node #78\nprefix_10_13 <= 0.5\nentropy = 0.989\nsamples = 11123\nvalue = [4873, 6250]", fillcolor="#d3e9f9"] ;
70 -> 78 ;
79 [label="node #79\nprefix_8_10 <= 0.5\nentropy = 0.989\nsamples = 11043\nvalue = [4835, 6208]", fillcolor="#d3e9f9"] ;
78 -> 79 ;
80 [label="node #80\nprefix_7_4 <= 0.5\nentropy = 0.989\nsamples = 10862\nvalue = [4758, 6104]", fillcolor="#d3e9f9"] ;
79 -> 80 ;
81 [label="node #81\nentropy = 0.989\nsamples = 5431\nvalue = [2379, 3052]", fillcolor="#d3e9f9"] ;
80 -> 81 ;
82 [label="node #82\nentropy = 0.989\nsamples = 5431\nvalue = [2379, 3052]", fillcolor="#d3e9f9"] ;
80 -> 82 ;
83 [label="node #83\nprefix_10_5 <= 0.5\nentropy = 0.984\nsamples = 181\nvalue = [77, 104]", fillcolor="#cce6f8"] ;
79 -> 83 ;
84 [label="node #84\nprefix_9_11 <= 0.5\nentropy = 0.984\nsamples = 179\nvalue = [76, 103]", fillcolor="#cbe5f8"] ;
83 -> 84 ;
85 [label="node #85\nentropy = 0.982\nsamples = 126\nvalue = [53, 73]", fillcolor="#c9e4f8"] ;
84 -> 85 ;
86 [label="node #86\nentropy = 0.987\nsamples = 53\nvalue = [23, 30]", fillcolor="#d1e8f9"] ;
84 -> 86 ;
87 [label="node #87\nentropy = 1.0\nsamples = 2\nvalue = [1, 1]", fillcolor="#ffffff"] ;
83 -> 87 ;
88 [label="node #88\nprefix_13_10 <= 0.5\nentropy = 0.998\nsamples = 80\nvalue = [38, 42]", fillcolor="#ecf6fd"] ;
78 -> 88 ;
89 [label="node #89\nprefix_11_13 <= 0.5\nentropy = 0.997\nsamples = 60\nvalue = [28, 32]", fillcolor="#e6f3fc"] ;
88 -> 89 ;
90 [label="node #90\nentropy = 0.996\nsamples = 28\nvalue = [13, 15]", fillcolor="#e5f2fc"] ;
89 -> 90 ;
91 [label="node #91\nprefix_12_14 <= 0.5\nentropy = 0.997\nsamples = 32\nvalue = [15, 17]", fillcolor="#e8f3fc"] ;
89 -> 91 ;
92 [label="node #92\nentropy = 0.998\nsamples = 17\nvalue = [8, 9]", fillcolor="#e9f4fc"] ;
91 -> 92 ;
93 [label="node #93\nentropy = 0.997\nsamples = 15\nvalue = [7, 8]", fillcolor="#e6f3fc"] ;
91 -> 93 ;
94 [label="node #94\nprefix_15_13 <= 0.5\nentropy = 1.0\nsamples = 20\nvalue = [10, 10]", fillcolor="#ffffff"] ;
88 -> 94 ;
95 [label="node #95\nprefix_14_14 <= 0.5\nentropy = 1.0\nsamples = 8\nvalue = [4, 4]", fillcolor="#ffffff"] ;
94 -> 95 ;
96 [label="node #96\nentropy = 1.0\nsamples = 4\nvalue = [2, 2]", fillcolor="#ffffff"] ;
95 -> 96 ;
97 [label="node #97\nentropy = 1.0\nsamples = 4\nvalue = [2, 2]", fillcolor="#ffffff"] ;
95 -> 97 ;
98 [label="node #98\nprefix_16_14 <= 0.5\nentropy = 1.0\nsamples = 12\nvalue = [6, 6]", fillcolor="#ffffff"] ;
94 -> 98 ;
99 [label="node #99\nentropy = 1.0\nsamples = 4\nvalue = [2, 2]", fillcolor="#ffffff"] ;
98 -> 99 ;
100 [label="node #100\nprefix_17_3 <= 0.5\nentropy = 1.0\nsamples = 8\nvalue = [4, 4]", fillcolor="#ffffff"] ;
98 -> 100 ;
101 [label="node #101\nentropy = 1.0\nsamples = 4\nvalue = [2, 2]", fillcolor="#ffffff"] ;
100 -> 101 ;
102 [label="node #102\nentropy = 1.0\nsamples = 4\nvalue = [2, 2]", fillcolor="#ffffff"] ;
100 -> 102 ;
103 [label="node #103\nentropy = 0.998\nsamples = 362\nvalue = [171, 191]", fillcolor="#eaf5fc"] ;
69 -> 103 ;
104 [label="node #104\nprefix_5_1 <= 0.5\nentropy = 0.996\nsamples = 436\nvalue = [202, 234]", fillcolor="#e4f2fb"] ;
68 -> 104 ;
105 [label="node #105\nprefix_7_5 <= 0.5\nentropy = 0.961\nsamples = 159\nvalue = [61, 98]", fillcolor="#b4daf5"] ;
104 -> 105 ;
106 [label="node #106\nentropy = 0.973\nsamples = 151\nvalue = [61, 90]", fillcolor="#bfdff7"] ;
105 -> 106 ;
107 [label="node #107\nentropy = 0.0\nsamples = 8\nvalue = [0, 8]", fillcolor="#399de5"] ;
105 -> 107 ;
108 [label="node #108\nprefix_7_5 <= 0.5\nentropy = 1.0\nsamples = 277\nvalue = [141, 136]", fillcolor="#fefbf8"] ;
104 -> 108 ;
109 [label="node #109\nentropy = 1.0\nsamples = 270\nvalue = [134, 136]", fillcolor="#fcfeff"] ;
108 -> 109 ;
110 [label="node #110\nentropy = 0.0\nsamples = 7\nvalue = [7, 0]", fillcolor="#e58139"] ;
108 -> 110 ;
111 [label="node #111\nprefix_12_14 <= 0.5\nentropy = 0.991\nsamples = 18\nvalue = [10, 8]", fillcolor="#fae6d7"] ;
67 -> 111 ;
112 [label="node #112\nentropy = 0.991\nsamples = 9\nvalue = [5, 4]", fillcolor="#fae6d7"] ;
111 -> 112 ;
113 [label="node #113\nentropy = 0.991\nsamples = 9\nvalue = [5, 4]", fillcolor="#fae6d7"] ;
111 -> 113 ;
114 [label="node #114\nprefix_11_13 <= 0.5\nentropy = 0.946\nsamples = 44\nvalue = [16, 28]", fillcolor="#aad5f4"] ;
66 -> 114 ;
115 [label="node #115\nentropy = 0.946\nsamples = 22\nvalue = [8, 14]", fillcolor="#aad5f4"] ;
114 -> 115 ;
116 [label="node #116\nentropy = 0.946\nsamples = 22\nvalue = [8, 14]", fillcolor="#aad5f4"] ;
114 -> 116 ;
117 [label="node #117\nentropy = 0.0\nsamples = 2\nvalue = [0, 2]", fillcolor="#399de5"] ;
65 -> 117 ;
118 [label="node #118\nprefix_13_6 <= 0.5\nentropy = 0.997\nsamples = 778\nvalue = [363, 415]", fillcolor="#e6f3fc"] ;
64 -> 118 ;
119 [label="node #119\nprefix_9_11 <= 0.5\nentropy = 0.997\nsamples = 770\nvalue = [360, 410]", fillcolor="#e7f3fc"] ;
118 -> 119 ;
120 [label="node #120\nentropy = 0.997\nsamples = 154\nvalue = [72, 82]", fillcolor="#e7f3fc"] ;
119 -> 120 ;
121 [label="node #121\nprefix_12_3 <= 0.5\nentropy = 0.997\nsamples = 616\nvalue = [288, 328]", fillcolor="#e7f3fc"] ;
119 -> 121 ;
122 [label="node #122\nprefix_11_12 <= 0.5\nentropy = 0.997\nsamples = 462\nvalue = [216, 246]", fillcolor="#e7f3fc"] ;
121 -> 122 ;
123 [label="node #123\nprefix_10_12 <= 0.5\nentropy = 0.997\nsamples = 308\nvalue = [144, 164]", fillcolor="#e7f3fc"] ;
122 -> 123 ;
124 [label="node #124\nentropy = 0.997\nsamples = 154\nvalue = [72, 82]", fillcolor="#e7f3fc"] ;
123 -> 124 ;
125 [label="node #125\nentropy = 0.997\nsamples = 154\nvalue = [72, 82]", fillcolor="#e7f3fc"] ;
123 -> 125 ;
126 [label="node #126\nentropy = 0.997\nsamples = 154\nvalue = [72, 82]", fillcolor="#e7f3fc"] ;
122 -> 126 ;
127 [label="node #127\nentropy = 0.997\nsamples = 154\nvalue = [72, 82]", fillcolor="#e7f3fc"] ;
121 -> 127 ;
128 [label="node #128\nentropy = 0.954\nsamples = 8\nvalue = [3, 5]", fillcolor="#b0d8f5"] ;
118 -> 128 ;
129 [label="node #129\nentropy = 0.0\nsamples = 2\nvalue = [2, 0]", fillcolor="#e58139"] ;
63 -> 129 ;
130 [label="node #130\nentropy = 0.0\nsamples = 4\nvalue = [0, 4]", fillcolor="#399de5"] ;
62 -> 130 ;
131 [label="node #131\nentropy = 0.0\nsamples = 4\nvalue = [0, 4]", fillcolor="#399de5"] ;
61 -> 131 ;
132 [label="node #132\nentropy = 0.998\nsamples = 208\nvalue = [109, 99]", fillcolor="#fdf3ed"] ;
60 -> 132 ;
133 [label="node #133\nentropy = 0.0\nsamples = 7\nvalue = [7, 0]", fillcolor="#e58139"] ;
59 -> 133 ;
134 [label="node #134\nprefix_18_8 <= 0.5\nentropy = 0.973\nsamples = 922\nvalue = [372, 550]", fillcolor="#bfdff7"] ;
58 -> 134 ;
135 [label="node #135\nprefix_13_10 <= 0.5\nentropy = 0.974\nsamples = 919\nvalue = [372, 547]", fillcolor="#c0e0f7"] ;
134 -> 135 ;
136 [label="node #136\nprefix_11_1 <= 0.5\nentropy = 0.968\nsamples = 814\nvalue = [322, 492]", fillcolor="#bbddf6"] ;
135 -> 136 ;
137 [label="node #137\nprefix_12_7 <= 0.5\nentropy = 0.965\nsamples = 779\nvalue = [304, 475]", fillcolor="#b8dcf6"] ;
136 -> 137 ;
138 [label="node #138\nprefix_11_13 <= 0.5\nentropy = 0.966\nsamples = 775\nvalue = [304, 471]", fillcolor="#b9dcf6"] ;
137 -> 138 ;
139 [label="node #139\nprefix_10_1 <= 0.5\nentropy = 0.97\nsamples = 659\nvalue = [262, 397]", fillcolor="#bcdef6"] ;
138 -> 139 ;
140 [label="node #140\nprefix_8_1 <= 0.5\nentropy = 0.968\nsamples = 611\nvalue = [241, 370]", fillcolor="#baddf6"] ;
139 -> 140 ;
141 [label="node #141\nprefix_6_5 <= 0.5\nentropy = 0.966\nsamples = 586\nvalue = [230, 356]", fillcolor="#b9dcf6"] ;
140 -> 141 ;
142 [label="node #142\nprefix_11_6 <= 0.5\nentropy = 0.943\nsamples = 25\nvalue = [9, 16]", fillcolor="#a8d4f4"] ;
141 -> 142 ;
143 [label="node #143\nprefix_8_10 <= 0.5\nentropy = 0.985\nsamples = 21\nvalue = [9, 12]", fillcolor="#cee6f8"] ;
142 -> 143 ;
144 [label="node #144\nentropy = 0.954\nsamples = 8\nvalue = [5, 3]", fillcolor="#f5cdb0"] ;
143 -> 144 ;
145 [label="node #145\nprefix_9_11 <= 0.5\nentropy = 0.89\nsamples = 13\nvalue = [4, 9]", fillcolor="#91c9f1"] ;
143 -> 145 ;
146 [label="node #146\nentropy = 0.971\nsamples = 5\nvalue = [2, 3]", fillcolor="#bddef6"] ;
145 -> 146 ;
147 [label="node #147\nprefix_10_13 <= 0.5\nentropy = 0.811\nsamples = 8\nvalue = [2, 6]", fillcolor="#7bbeee"] ;
145 -> 147 ;
148 [label="node #148\nentropy = 0.811\nsamples = 4\nvalue = [1, 3]", fillcolor="#7bbeee"] ;
147 -> 148 ;
149 [label="node #149\nentropy = 0.811\nsamples = 4\nvalue = [1, 3]", fillcolor="#7bbeee"] ;
147 -> 149 ;
150 [label="node #150\nentropy = 0.0\nsamples = 4\nvalue = [0, 4]", fillcolor="#399de5"] ;
142 -> 150 ;
151 [label="node #151\nprefix_11_6 <= 0.5\nentropy = 0.967\nsamples = 561\nvalue = [221, 340]", fillcolor="#baddf6"] ;
141 -> 151 ;
152 [label="node #152\nprefix_10_13 <= 0.5\nentropy = 0.966\nsamples = 543\nvalue = [213, 330]", fillcolor="#b9dcf6"] ;
151 -> 152 ;
153 [label="node #153\nprefix_9_11 <= 0.5\nentropy = 0.965\nsamples = 463\nvalue = [181, 282]", fillcolor="#b8dcf6"] ;
152 -> 153 ;
154 [label="node #154\nprefix_5_1 <= 0.5\nentropy = 0.965\nsamples = 361\nvalue = [141, 220]", fillcolor="#b8dcf6"] ;
153 -> 154 ;
155 [label="node #155\nprefix_8_10 <= 0.5\nentropy = 0.961\nsamples = 190\nvalue = [73, 117]", fillcolor="#b5daf5"] ;
154 -> 155 ;
156 [label="node #156\nentropy = 0.966\nsamples = 107\nvalue = [42, 65]", fillcolor="#b9dcf6"] ;
155 -> 156 ;
157 [label="node #157\nentropy = 0.953\nsamples = 83\nvalue = [31, 52]", fillcolor="#afd7f4"] ;
155 -> 157 ;
158 [label="node #158\nprefix_8_10 <= 0.5\nentropy = 0.97\nsamples = 171\nvalue = [68, 103]", fillcolor="#bcdef6"] ;
154 -> 158 ;
159 [label="node #159\nentropy = 0.965\nsamples = 100\nvalue = [39, 61]", fillcolor="#b8dcf6"] ;
158 -> 159 ;
160 [label="node #160\nentropy = 0.976\nsamples = 71\nvalue = [29, 42]", fillcolor="#c2e1f7"] ;
158 -> 160 ;
161 [label="node #161\nprefix_5_1 <= 0.5\nentropy = 0.966\nsamples = 102\nvalue = [40, 62]", fillcolor="#b9dcf6"] ;
153 -> 161 ;
162 [label="node #162\nentropy = 0.976\nsamples = 61\nvalue = [25, 36]", fillcolor="#c2e1f7"] ;
161 -> 162 ;
163 [label="node #163\nentropy = 0.947\nsamples = 41\nvalue = [15, 26]", fillcolor="#abd6f4"] ;
161 -> 163 ;
164 [label="node #164\nprefix_5_1 <= 0.5\nentropy = 0.971\nsamples = 80\nvalue = [32, 48]", fillcolor="#bddef6"] ;
152 -> 164 ;
165 [label="node #165\nentropy = 0.971\nsamples = 45\nvalue = [18, 27]", fillcolor="#bddef6"] ;
164 -> 165 ;
166 [label="node #166\nentropy = 0.971\nsamples = 35\nvalue = [14, 21]", fillcolor="#bddef6"] ;
164 -> 166 ;
167 [label="node #167\nprefix_12_8 <= 0.5\nentropy = 0.991\nsamples = 18\nvalue = [8, 10]", fillcolor="#d7ebfa"] ;
151 -> 167 ;
168 [label="node #168\nentropy = 0.991\nsamples = 9\nvalue = [4, 5]", fillcolor="#d7ebfa"] ;
167 -> 168 ;
169 [label="node #169\nentropy = 0.991\nsamples = 9\nvalue = [4, 5]", fillcolor="#d7ebfa"] ;
167 -> 169 ;
170 [label="node #170\nprefix_9_11 <= 0.5\nentropy = 0.99\nsamples = 25\nvalue = [11, 14]", fillcolor="#d5eaf9"] ;
140 -> 170 ;
171 [label="node #171\nentropy = 0.995\nsamples = 24\nvalue = [11, 13]", fillcolor="#e1f0fb"] ;
170 -> 171 ;
172 [label="node #172\nentropy = 0.0\nsamples = 1\nvalue = [0, 1]", fillcolor="#399de5"] ;
170 -> 172 ;
173 [label="node #173\nprefix_12_8 <= 0.5\nentropy = 0.989\nsamples = 48\nvalue = [21, 27]", fillcolor="#d3e9f9"] ;
139 -> 173 ;
174 [label="node #174\nprefix_11_6 <= 0.5\nentropy = 0.989\nsamples = 32\nvalue = [14, 18]", fillcolor="#d3e9f9"] ;
173 -> 174 ;
175 [label="node #175\nentropy = 0.989\nsamples = 16\nvalue = [7, 9]", fillcolor="#d3e9f9"] ;
174 -> 175 ;
176 [label="node #176\nentropy = 0.989\nsamples = 16\nvalue = [7, 9]", fillcolor="#d3e9f9"] ;
174 -> 176 ;
177 [label="node #177\nentropy = 0.989\nsamples = 16\nvalue = [7, 9]", fillcolor="#d3e9f9"] ;
173 -> 177 ;
178 [label="node #178\nprefix_6_1 <= 0.5\nentropy = 0.944\nsamples = 116\nvalue = [42, 74]", fillcolor="#a9d5f4"] ;
138 -> 178 ;
179 [label="node #179\nprefix_5_3 <= 0.5\nentropy = 0.949\nsamples = 114\nvalue = [42, 72]", fillcolor="#acd6f4"] ;
178 -> 179 ;
180 [label="node #180\nprefix_12_14 <= 0.5\nentropy = 0.971\nsamples = 50\nvalue = [20, 30]", fillcolor="#bddef6"] ;
179 -> 180 ;
181 [label="node #181\nentropy = 0.961\nsamples = 26\nvalue = [10, 16]", fillcolor="#b5daf5"] ;
180 -> 181 ;
182 [label="node #182\nentropy = 0.98\nsamples = 24\nvalue = [10, 14]", fillcolor="#c6e3f8"] ;
180 -> 182 ;
183 [label="node #183\nprefix_12_1 <= 0.5\nentropy = 0.928\nsamples = 64\nvalue = [22, 42]", fillcolor="#a1d0f3"] ;
179 -> 183 ;
184 [label="node #184\nprefix_12_14 <= 0.5\nentropy = 0.93\nsamples = 55\nvalue = [19, 36]", fillcolor="#a2d1f3"] ;
183 -> 184 ;
185 [label="node #185\nentropy = 0.928\nsamples = 32\nvalue = [11, 21]", fillcolor="#a1d0f3"] ;
184 -> 185 ;
186 [label="node #186\nentropy = 0.932\nsamples = 23\nvalue = [8, 15]", fillcolor="#a3d1f3"] ;
184 -> 186 ;
187 [label="node #187\nentropy = 0.918\nsamples = 9\nvalue = [3, 6]", fillcolor="#9ccef2"] ;
183 -> 187 ;
188 [label="node #188\nentropy = 0.0\nsamples = 2\nvalue = [0, 2]", fillcolor="#399de5"] ;
178 -> 188 ;
189 [label="node #189\nentropy = 0.0\nsamples = 4\nvalue = [0, 4]", fillcolor="#399de5"] ;
137 -> 189 ;
190 [label="node #190\nprefix_12_14 <= 0.5\nentropy = 0.999\nsamples = 35\nvalue = [18, 17]", fillcolor="#fef8f4"] ;
136 -> 190 ;
191 [label="node #191\nprefix_12_7 <= 0.5\nentropy = 0.999\nsamples = 31\nvalue = [15, 16]", fillcolor="#f3f9fd"] ;
190 -> 191 ;
192 [label="node #192\nentropy = 0.996\nsamples = 13\nvalue = [7, 6]", fillcolor="#fbede3"] ;
191 -> 192 ;
193 [label="node #193\nprefix_13_8 <= 0.5\nentropy = 0.991\nsamples = 18\nvalue = [8, 10]", fillcolor="#d7ebfa"] ;
191 -> 193 ;
194 [label="node #194\nentropy = 0.991\nsamples = 9\nvalue = [4, 5]", fillcolor="#d7ebfa"] ;
193 -> 194 ;
195 [label="node #195\nentropy = 0.991\nsamples = 9\nvalue = [4, 5]", fillcolor="#d7ebfa"] ;
193 -> 195 ;
196 [label="node #196\nentropy = 0.811\nsamples = 4\nvalue = [3, 1]", fillcolor="#eeab7b"] ;
190 -> 196 ;
197 [label="node #197\nprefix_6_1 <= 0.5\nentropy = 0.998\nsamples = 105\nvalue = [50, 55]", fillcolor="#edf6fd"] ;
135 -> 197 ;
198 [label="node #198\nprefix_17_3 <= 0.5\nentropy = 1.0\nsamples = 100\nvalue = [50, 50]", fillcolor="#ffffff"] ;
197 -> 198 ;
199 [label="node #199\nprefix_5_3 <= 0.5\nentropy = 1.0\nsamples = 80\nvalue = [40, 40]", fillcolor="#ffffff"] ;
198 -> 199 ;
200 [label="node #200\nprefix_15_13 <= 0.5\nentropy = 1.0\nsamples = 32\nvalue = [16, 16]", fillcolor="#ffffff"] ;
199 -> 200 ;
201 [label="node #201\nprefix_14_14 <= 0.5\nentropy = 1.0\nsamples = 16\nvalue = [8, 8]", fillcolor="#ffffff"] ;
200 -> 201 ;
202 [label="node #202\nentropy = 1.0\nsamples = 8\nvalue = [4, 4]", fillcolor="#ffffff"] ;
201 -> 202 ;
203 [label="node #203\nentropy = 1.0\nsamples = 8\nvalue = [4, 4]", fillcolor="#ffffff"] ;
201 -> 203 ;
204 [label="node #204\nprefix_16_14 <= 0.5\nentropy = 1.0\nsamples = 16\nvalue = [8, 8]", fillcolor="#ffffff"] ;
200 -> 204 ;
205 [label="node #205\nentropy = 1.0\nsamples = 8\nvalue = [4, 4]", fillcolor="#ffffff"] ;
204 -> 205 ;
206 [label="node #206\nentropy = 1.0\nsamples = 8\nvalue = [4, 4]", fillcolor="#ffffff"] ;
204 -> 206 ;
207 [label="node #207\nprefix_15_13 <= 0.5\nentropy = 1.0\nsamples = 48\nvalue = [24, 24]", fillcolor="#ffffff"] ;
199 -> 207 ;
208 [label="node #208\nprefix_14_14 <= 0.5\nentropy = 1.0\nsamples = 24\nvalue = [12, 12]", fillcolor="#ffffff"] ;
207 -> 208 ;
209 [label="node #209\nentropy = 1.0\nsamples = 12\nvalue = [6, 6]", fillcolor="#ffffff"] ;
208 -> 209 ;
210 [label="node #210\nentropy = 1.0\nsamples = 12\nvalue = [6, 6]", fillcolor="#ffffff"] ;
208 -> 210 ;
211 [label="node #211\nprefix_16_14 <= 0.5\nentropy = 1.0\nsamples = 24\nvalue = [12, 12]", fillcolor="#ffffff"] ;
207 -> 211 ;
212 [label="node #212\nentropy = 1.0\nsamples = 12\nvalue = [6, 6]", fillcolor="#ffffff"] ;
211 -> 212 ;
213 [label="node #213\nentropy = 1.0\nsamples = 12\nvalue = [6, 6]", fillcolor="#ffffff"] ;
211 -> 213 ;
214 [label="node #214\nprefix_5_1 <= 0.5\nentropy = 1.0\nsamples = 20\nvalue = [10, 10]", fillcolor="#ffffff"] ;
198 -> 214 ;
215 [label="node #215\nentropy = 1.0\nsamples = 12\nvalue = [6, 6]", fillcolor="#ffffff"] ;
214 -> 215 ;
216 [label="node #216\nentropy = 1.0\nsamples = 8\nvalue = [4, 4]", fillcolor="#ffffff"] ;
214 -> 216 ;
217 [label="node #217\nentropy = 0.0\nsamples = 5\nvalue = [0, 5]", fillcolor="#399de5"] ;
197 -> 217 ;
218 [label="node #218\nentropy = 0.0\nsamples = 3\nvalue = [0, 3]", fillcolor="#399de5"] ;
134 -> 218 ;
219 [label="node #219\nentropy = 0.0\nsamples = 6\nvalue = [0, 6]", fillcolor="#399de5"] ;
57 -> 219 ;
220 [label="node #220\nentropy = 0.0\nsamples = 6\nvalue = [0, 6]", fillcolor="#399de5"] ;
56 -> 220 ;
221 [label="node #221\nprefix_5_3 <= 0.5\nentropy = 0.439\nsamples = 22\nvalue = [2, 20]", fillcolor="#4da7e8"] ;
55 -> 221 ;
222 [label="node #222\nprefix_12_7 <= 0.5\nentropy = 0.592\nsamples = 14\nvalue = [2, 12]", fillcolor="#5aade9"] ;
221 -> 222 ;
223 [label="node #223\nprefix_11_7 <= 0.5\nentropy = 0.65\nsamples = 12\nvalue = [2, 10]", fillcolor="#61b1ea"] ;
222 -> 223 ;
224 [label="node #224\nentropy = 0.65\nsamples = 6\nvalue = [1, 5]", fillcolor="#61b1ea"] ;
223 -> 224 ;
225 [label="node #225\nentropy = 0.65\nsamples = 6\nvalue = [1, 5]", fillcolor="#61b1ea"] ;
223 -> 225 ;
226 [label="node #226\nentropy = 0.0\nsamples = 2\nvalue = [0, 2]", fillcolor="#399de5"] ;
222 -> 226 ;
227 [label="node #227\nentropy = 0.0\nsamples = 8\nvalue = [0, 8]", fillcolor="#399de5"] ;
221 -> 227 ;
228 [label="node #228\nprefix_10_6 <= 0.5\nentropy = 0.996\nsamples = 759\nvalue = [409, 350]", fillcolor="#fbede2"] ;
54 -> 228 ;
229 [label="node #229\nprefix_10_13 <= 0.5\nentropy = 0.997\nsamples = 751\nvalue = [401, 350]", fillcolor="#fcefe6"] ;
228 -> 229 ;
230 [label="node #230\nprefix_10_10 <= 0.5\nentropy = 0.996\nsamples = 748\nvalue = [401, 347]", fillcolor="#fbeee4"] ;
229 -> 230 ;
231 [label="node #231\nprefix_10_9 <= 0.5\nentropy = 0.996\nsamples = 746\nvalue = [399, 347]", fillcolor="#fcefe5"] ;
230 -> 231 ;
232 [label="node #232\nprefix_6_5 <= 0.5\nentropy = 0.996\nsamples = 740\nvalue = [397, 343]", fillcolor="#fbeee4"] ;
231 -> 232 ;
233 [label="node #233\nprefix_9_11 <= 0.5\nentropy = 0.999\nsamples = 405\nvalue = [211, 194]", fillcolor="#fdf5ef"] ;
232 -> 233 ;
234 [label="node #234\nprefix_8_6 <= 0.5\nentropy = 0.999\nsamples = 400\nvalue = [208, 192]", fillcolor="#fdf5f0"] ;
233 -> 234 ;
235 [label="node #235\nentropy = 0.999\nsamples = 200\nvalue = [104, 96]", fillcolor="#fdf5f0"] ;
234 -> 235 ;
236 [label="node #236\nentropy = 0.999\nsamples = 200\nvalue = [104, 96]", fillcolor="#fdf5f0"] ;
234 -> 236 ;
237 [label="node #237\nentropy = 0.971\nsamples = 5\nvalue = [3, 2]", fillcolor="#f6d5bd"] ;
233 -> 237 ;
238 [label="node #238\nprefix_9_11 <= 0.5\nentropy = 0.991\nsamples = 335\nvalue = [186, 149]", fillcolor="#fae6d8"] ;
232 -> 238 ;
239 [label="node #239\nprefix_8_6 <= 0.5\nentropy = 0.991\nsamples = 334\nvalue = [186, 148]", fillcolor="#fae5d7"] ;
238 -> 239 ;
240 [label="node #240\nentropy = 0.991\nsamples = 167\nvalue = [93, 74]", fillcolor="#fae5d7"] ;
239 -> 240 ;
241 [label="node #241\nentropy = 0.991\nsamples = 167\nvalue = [93, 74]", fillcolor="#fae5d7"] ;
239 -> 241 ;
242 [label="node #242\nentropy = 0.0\nsamples = 1\nvalue = [0, 1]", fillcolor="#399de5"] ;
238 -> 242 ;
243 [label="node #243\nprefix_6_5 <= 0.5\nentropy = 0.918\nsamples = 6\nvalue = [2, 4]", fillcolor="#9ccef2"] ;
231 -> 243 ;
244 [label="node #244\nprefix_11_13 <= 0.5\nentropy = 1.0\nsamples = 4\nvalue = [2, 2]", fillcolor="#ffffff"] ;
243 -> 244 ;
245 [label="node #245\nentropy = 1.0\nsamples = 2\nvalue = [1, 1]", fillcolor="#ffffff"] ;
244 -> 245 ;
246 [label="node #246\nentropy = 1.0\nsamples = 2\nvalue = [1, 1]", fillcolor="#ffffff"] ;
244 -> 246 ;
247 [label="node #247\nentropy = 0.0\nsamples = 2\nvalue = [0, 2]", fillcolor="#399de5"] ;
243 -> 247 ;
248 [label="node #248\nentropy = 0.0\nsamples = 2\nvalue = [2, 0]", fillcolor="#e58139"] ;
230 -> 248 ;
249 [label="node #249\nentropy = 0.0\nsamples = 3\nvalue = [0, 3]", fillcolor="#399de5"] ;
229 -> 249 ;
250 [label="node #250\nentropy = 0.0\nsamples = 8\nvalue = [8, 0]", fillcolor="#e58139"] ;
228 -> 250 ;
251 [label="node #251\nprefix_7_3 <= 0.5\nentropy = 0.937\nsamples = 306\nvalue = [108, 198]", fillcolor="#a5d2f3"] ;
53 -> 251 ;
252 [label="node #252\nprefix_11_6 <= 0.5\nentropy = 0.997\nsamples = 231\nvalue = [108, 123]", fillcolor="#e7f3fc"] ;
251 -> 252 ;
253 [label="node #253\nprefix_6_1 <= 0.5\nentropy = 1.0\nsamples = 220\nvalue = [108, 112]", fillcolor="#f8fcfe"] ;
252 -> 253 ;
254 [label="node #254\nprefix_11_5 <= 0.5\nentropy = 0.999\nsamples = 216\nvalue = [104, 112]", fillcolor="#f1f8fd"] ;
253 -> 254 ;
255 [label="node #255\nprefix_6_5 <= 0.5\nentropy = 0.999\nsamples = 214\nvalue = [104, 110]", fillcolor="#f4fafe"] ;
254 -> 255 ;
256 [label="node #256\nprefix_10_7 <= 0.5\nentropy = 0.918\nsamples = 12\nvalue = [4, 8]", fillcolor="#9ccef2"] ;
255 -> 256 ;
257 [label="node #257\nentropy = 0.918\nsamples = 3\nvalue = [1, 2]", fillcolor="#9ccef2"] ;
256 -> 257 ;
258 [label="node #258\nprefix_11_9 <= 0.5\nentropy = 0.918\nsamples = 9\nvalue = [3, 6]", fillcolor="#9ccef2"] ;
256 -> 258 ;
259 [label="node #259\nentropy = 0.918\nsamples = 3\nvalue = [1, 2]", fillcolor="#9ccef2"] ;
258 -> 259 ;
260 [label="node #260\nprefix_12_14 <= 0.5\nentropy = 0.918\nsamples = 6\nvalue = [2, 4]", fillcolor="#9ccef2"] ;
258 -> 260 ;
261 [label="node #261\nentropy = 0.918\nsamples = 3\nvalue = [1, 2]", fillcolor="#9ccef2"] ;
260 -> 261 ;
262 [label="node #262\nentropy = 0.918\nsamples = 3\nvalue = [1, 2]", fillcolor="#9ccef2"] ;
260 -> 262 ;
263 [label="node #263\nprefix_11_9 <= 0.5\nentropy = 1.0\nsamples = 202\nvalue = [100, 102]", fillcolor="#fbfdfe"] ;
255 -> 263 ;
264 [label="node #264\nprefix_11_10 <= 0.5\nentropy = 0.998\nsamples = 110\nvalue = [52, 58]", fillcolor="#ebf5fc"] ;
263 -> 264 ;
265 [label="node #265\nprefix_8_1 <= 0.5\nentropy = 0.998\nsamples = 106\nvalue = [50, 56]", fillcolor="#eaf4fc"] ;
264 -> 265 ;
266 [label="node #266\nprefix_10_7 <= 0.5\nentropy = 0.997\nsamples = 60\nvalue = [28, 32]", fillcolor="#e6f3fc"] ;
265 -> 266 ;
267 [label="node #267\nentropy = 0.997\nsamples = 30\nvalue = [14, 16]", fillcolor="#e6f3fc"] ;
266 -> 267 ;
268 [label="node #268\nentropy = 0.997\nsamples = 30\nvalue = [14, 16]", fillcolor="#e6f3fc"] ;
266 -> 268 ;
269 [label="node #269\nprefix_10_7 <= 0.5\nentropy = 0.999\nsamples = 46\nvalue = [22, 24]", fillcolor="#eff7fd"] ;
265 -> 269 ;
270 [label="node #270\nentropy = 0.999\nsamples = 23\nvalue = [11, 12]", fillcolor="#eff7fd"] ;
269 -> 270 ;
271 [label="node #271\nentropy = 0.999\nsamples = 23\nvalue = [11, 12]", fillcolor="#eff7fd"] ;
269 -> 271 ;
272 [label="node #272\nprefix_12_14 <= 0.5\nentropy = 1.0\nsamples = 4\nvalue = [2, 2]", fillcolor="#ffffff"] ;
264 -> 272 ;
273 [label="node #273\nentropy = 1.0\nsamples = 2\nvalue = [1, 1]", fillcolor="#ffffff"] ;
272 -> 273 ;
274 [label="node #274\nentropy = 1.0\nsamples = 2\nvalue = [1, 1]", fillcolor="#ffffff"] ;
272 -> 274 ;
275 [label="node #275\nprefix_8_1 <= 0.5\nentropy = 0.999\nsamples = 92\nvalue = [48, 44]", fillcolor="#fdf5ef"] ;
263 -> 275 ;
276 [label="node #276\nprefix_12_14 <= 0.5\nentropy = 0.995\nsamples = 48\nvalue = [26, 22]", fillcolor="#fbece1"] ;
275 -> 276 ;
277 [label="node #277\nentropy = 0.995\nsamples = 24\nvalue = [13, 11]", fillcolor="#fbece1"] ;
276 -> 277 ;
278 [label="node #278\nentropy = 0.995\nsamples = 24\nvalue = [13, 11]", fillcolor="#fbece1"] ;
276 -> 278 ;
279 [label="node #279\nprefix_12_14 <= 0.5\nentropy = 1.0\nsamples = 44\nvalue = [22, 22]", fillcolor="#ffffff"] ;
275 -> 279 ;
280 [label="node #280\nentropy = 1.0\nsamples = 22\nvalue = [11, 11]", fillcolor="#ffffff"] ;
279 -> 280 ;
281 [label="node #281\nentropy = 1.0\nsamples = 22\nvalue = [11, 11]", fillcolor="#ffffff"] ;
279 -> 281 ;
282 [label="node #282\nentropy = 0.0\nsamples = 2\nvalue = [0, 2]", fillcolor="#399de5"] ;
254 -> 282 ;
283 [label="node #283\nentropy = 0.0\nsamples = 4\nvalue = [4, 0]", fillcolor="#e58139"] ;
253 -> 283 ;
284 [label="node #284\nentropy = 0.0\nsamples = 11\nvalue = [0, 11]", fillcolor="#399de5"] ;
252 -> 284 ;
285 [label="node #285\nentropy = 0.0\nsamples = 75\nvalue = [0, 75]", fillcolor="#399de5"] ;
251 -> 285 ;
286 [label="node #286\nprefix_8_6 <= 0.5\nentropy = 1.0\nsamples = 915\nvalue = [446, 469]", fillcolor="#f5fafe"] ;
52 -> 286 ;
287 [label="node #287\nprefix_17_11 <= 0.5\nentropy = 1.0\nsamples = 883\nvalue = [446, 437]", fillcolor="#fefcfb"] ;
286 -> 287 ;
288 [label="node #288\nprefix_15_17 <= 0.5\nentropy = 0.997\nsamples = 760\nvalue = [403, 357]", fillcolor="#fcf1e8"] ;
287 -> 288 ;
289 [label="node #289\nprefix_15_13 <= 0.5\nentropy = 1.0\nsamples = 631\nvalue = [316, 315]", fillcolor="#fffffe"] ;
288 -> 289 ;
290 [label="node #290\nprefix_17_8 <= 0.5\nentropy = 0.999\nsamples = 576\nvalue = [299, 277]", fillcolor="#fdf6f0"] ;
289 -> 290 ;
291 [label="node #291\nprefix_6_1 <= 0.5\nentropy = 0.998\nsamples = 570\nvalue = [299, 271]", fillcolor="#fdf3ec"] ;
290 -> 291 ;
292 [label="node #292\nprefix_17_2 <= 0.5\nentropy = 0.999\nsamples = 565\nvalue = [294, 271]", fillcolor="#fdf5f0"] ;
291 -> 292 ;
293 [label="node #293\nprefix_15_7 <= 0.5\nentropy = 0.998\nsamples = 561\nvalue = [294, 267]", fillcolor="#fdf3ed"] ;
292 -> 293 ;
294 [label="node #294\nprefix_14_5 <= 0.5\nentropy = 0.998\nsamples = 558\nvalue = [294, 264]", fillcolor="#fcf2eb"] ;
293 -> 294 ;
295 [label="node #295\nprefix_17_15 <= 0.5\nentropy = 0.997\nsamples = 555\nvalue = [294, 261]", fillcolor="#fcf1e9"] ;
294 -> 295 ;
296 [label="node #296\nprefix_14_17 <= 0.5\nentropy = 0.998\nsamples = 497\nvalue = [260, 237]", fillcolor="#fdf4ed"] ;
295 -> 296 ;
297 [label="node #297\nprefix_10_13 <= 0.5\nentropy = 0.999\nsamples = 455\nvalue = [235, 220]", fillcolor="#fdf7f2"] ;
296 -> 297 ;
298 [label="node #298\nprefix_6_3 <= 0.5\nentropy = 1.0\nsamples = 419\nvalue = [215, 204]", fillcolor="#fef9f5"] ;
297 -> 298 ;
299 [label="node #299\nprefix_16_7 <= 0.5\nentropy = 0.998\nsamples = 191\nvalue = [100, 91]", fillcolor="#fdf4ed"] ;
298 -> 299 ;
300 [label="node #300\nprefix_8_1 <= 0.5\nentropy = 0.998\nsamples = 190\nvalue = [100, 90]", fillcolor="#fcf2eb"] ;
299 -> 300 ;
301 [label="node #301\nprefix_11_9 <= 0.5\nentropy = 0.994\nsamples = 103\nvalue = [56, 47]", fillcolor="#fbebdf"] ;
300 -> 301 ;
302 [label="node #302\nprefix_14_13 <= 0.5\nentropy = 1.0\nsamples = 8\nvalue = [4, 4]", fillcolor="#ffffff"] ;
301 -> 302 ;
303 [label="node #303\nentropy = 1.0\nsamples = 2\nvalue = [1, 1]", fillcolor="#ffffff"] ;
302 -> 303 ;
304 [label="node #304\nprefix_16_14 <= 0.5\nentropy = 1.0\nsamples = 6\nvalue = [3, 3]", fillcolor="#ffffff"] ;
302 -> 304 ;
305 [label="node #305\nprefix_15_3 <= 0.5\nentropy = 1.0\nsamples = 4\nvalue = [2, 2]", fillcolor="#ffffff"] ;
304 -> 305 ;
306 [label="node #306\nentropy = 1.0\nsamples = 2\nvalue = [1, 1]", fillcolor="#ffffff"] ;
305 -> 306 ;
307 [label="node #307\nentropy = 1.0\nsamples = 2\nvalue = [1, 1]", fillcolor="#ffffff"] ;
305 -> 307 ;
308 [label="node #308\nentropy = 1.0\nsamples = 2\nvalue = [1, 1]", fillcolor="#ffffff"] ;
304 -> 308 ;
309 [label="node #309\nprefix_16_14 <= 0.5\nentropy = 0.994\nsamples = 95\nvalue = [52, 43]", fillcolor="#fae9dd"] ;
301 -> 309 ;
310 [label="node #310\nprefix_14_13 <= 0.5\nentropy = 0.995\nsamples = 72\nvalue = [39, 33]", fillcolor="#fbece1"] ;
309 -> 310 ;
311 [label="node #311\nentropy = 0.995\nsamples = 24\nvalue = [13, 11]", fillcolor="#fbece1"] ;
310 -> 311 ;
312 [label="node #312\nprefix_15_3 <= 0.5\nentropy = 0.995\nsamples = 48\nvalue = [26, 22]", fillcolor="#fbece1"] ;
310 -> 312 ;
313 [label="node #313\nentropy = 0.995\nsamples = 24\nvalue = [13, 11]", fillcolor="#fbece1"] ;
312 -> 313 ;
314 [label="node #314\nentropy = 0.995\nsamples = 24\nvalue = [13, 11]", fillcolor="#fbece1"] ;
312 -> 314 ;
315 [label="node #315\nentropy = 0.988\nsamples = 23\nvalue = [13, 10]", fillcolor="#f9e2d1"] ;
309 -> 315 ;
316 [label="node #316\nprefix_16_14 <= 0.5\nentropy = 1.0\nsamples = 87\nvalue = [44, 43]", fillcolor="#fefcfa"] ;
300 -> 316 ;
317 [label="node #317\nprefix_15_3 <= 0.5\nentropy = 1.0\nsamples = 66\nvalue = [33, 33]", fillcolor="#ffffff"] ;
316 -> 317 ;
318 [label="node #318\nprefix_14_13 <= 0.5\nentropy = 1.0\nsamples = 44\nvalue = [22, 22]", fillcolor="#ffffff"] ;
317 -> 318 ;
319 [label="node #319\nentropy = 1.0\nsamples = 22\nvalue = [11, 11]", fillcolor="#ffffff"] ;
318 -> 319 ;
320 [label="node #320\nentropy = 1.0\nsamples = 22\nvalue = [11, 11]", fillcolor="#ffffff"] ;
318 -> 320 ;
321 [label="node #321\nentropy = 1.0\nsamples = 22\nvalue = [11, 11]", fillcolor="#ffffff"] ;
317 -> 321 ;
322 [label="node #322\nentropy = 0.998\nsamples = 21\nvalue = [11, 10]", fillcolor="#fdf4ed"] ;
316 -> 322 ;
323 [label="node #323\nentropy = 0.0\nsamples = 1\nvalue = [0, 1]", fillcolor="#399de5"] ;
299 -> 323 ;
324 [label="node #324\nprefix_16_14 <= 0.5\nentropy = 1.0\nsamples = 228\nvalue = [115, 113]", fillcolor="#fffdfc"] ;
298 -> 324 ;
325 [label="node #325\nprefix_16_7 <= 0.5\nentropy = 1.0\nsamples = 226\nvalue = [115, 111]", fillcolor="#fefbf8"] ;
324 -> 325 ;
326 [label="node #326\nprefix_8_8 <= 0.5\nentropy = 1.0\nsamples = 225\nvalue = [114, 111]", fillcolor="#fefcfa"] ;
325 -> 326 ;
327 [label="node #327\nprefix_15_3 <= 0.5\nentropy = 0.918\nsamples = 9\nvalue = [3, 6]", fillcolor="#9ccef2"] ;
326 -> 327 ;
328 [label="node #328\nprefix_14_13 <= 0.5\nentropy = 0.918\nsamples = 6\nvalue = [2, 4]", fillcolor="#9ccef2"] ;
327 -> 328 ;
329 [label="node #329\nentropy = 0.918\nsamples = 3\nvalue = [1, 2]", fillcolor="#9ccef2"] ;
328 -> 329 ;
330 [label="node #330\nentropy = 0.918\nsamples = 3\nvalue = [1, 2]", fillcolor="#9ccef2"] ;
328 -> 330 ;
331 [label="node #331\nentropy = 0.918\nsamples = 3\nvalue = [1, 2]", fillcolor="#9ccef2"] ;
327 -> 331 ;
332 [label="node #332\nprefix_14_13 <= 0.5\nentropy = 0.999\nsamples = 216\nvalue = [111, 105]", fillcolor="#fef8f4"] ;
326 -> 332 ;
333 [label="node #333\nentropy = 1.0\nsamples = 136\nvalue = [68, 68]", fillcolor="#ffffff"] ;
332 -> 333 ;
334 [label="node #334\nentropy = 0.996\nsamples = 80\nvalue = [43, 37]", fillcolor="#fbede3"] ;
332 -> 334 ;
335 [label="node #335\nentropy = 0.0\nsamples = 1\nvalue = [1, 0]", fillcolor="#e58139"] ;
325 -> 335 ;
336 [label="node #336\nentropy = 0.0\nsamples = 2\nvalue = [0, 2]", fillcolor="#399de5"] ;
324 -> 336 ;
337 [label="node #337\nprefix_16_14 <= 0.5\nentropy = 0.991\nsamples = 36\nvalue = [20, 16]", fillcolor="#fae6d7"] ;
297 -> 337 ;
338 [label="node #338\nprefix_14_13 <= 0.5\nentropy = 0.991\nsamples = 27\nvalue = [15, 12]", fillcolor="#fae6d7"] ;
337 -> 338 ;
339 [label="node #339\nentropy = 0.991\nsamples = 9\nvalue = [5, 4]", fillcolor="#fae6d7"] ;
338 -> 339 ;
340 [label="node #340\nprefix_15_3 <= 0.5\nentropy = 0.991\nsamples = 18\nvalue = [10, 8]", fillcolor="#fae6d7"] ;
338 -> 340 ;
341 [label="node #341\nentropy = 0.991\nsamples = 9\nvalue = [5, 4]", fillcolor="#fae6d7"] ;
340 -> 341 ;
342 [label="node #342\nentropy = 0.991\nsamples = 9\nvalue = [5, 4]", fillcolor="#fae6d7"] ;
340 -> 342 ;
343 [label="node #343\nentropy = 0.991\nsamples = 9\nvalue = [5, 4]", fillcolor="#fae6d7"] ;
337 -> 343 ;
344 [label="node #344\nentropy = 0.974\nsamples = 42\nvalue = [25, 17]", fillcolor="#f7d7c0"] ;
296 -> 344 ;
345 [label="node #345\nprefix_16_14 <= 0.5\nentropy = 0.978\nsamples = 58\nvalue = [34, 24]", fillcolor="#f7dac5"] ;
295 -> 345 ;
346 [label="node #346\nentropy = 0.0\nsamples = 1\nvalue = [1, 0]", fillcolor="#e58139"] ;
345 -> 346 ;
347 [label="node #347\nprefix_18_20 <= 0.5\nentropy = 0.982\nsamples = 57\nvalue = [33, 24]", fillcolor="#f8ddc9"] ;
345 -> 347 ;
348 [label="node #348\nprefix_8_1 <= 0.5\nentropy = 0.987\nsamples = 53\nvalue = [30, 23]", fillcolor="#f9e2d1"] ;
347 -> 348 ;
349 [label="node #349\nprefix_6_5 <= 0.5\nentropy = 0.995\nsamples = 35\nvalue = [19, 16]", fillcolor="#fbebe0"] ;
348 -> 349 ;
350 [label="node #350\nprefix_9_6 <= 0.5\nentropy = 1.0\nsamples = 10\nvalue = [5, 5]", fillcolor="#ffffff"] ;
349 -> 350 ;
351 [label="node #351\nentropy = 0.991\nsamples = 9\nvalue = [5, 4]", fillcolor="#fae6d7"] ;
350 -> 351 ;
352 [label="node #352\nentropy = 0.0\nsamples = 1\nvalue = [0, 1]", fillcolor="#399de5"] ;
350 -> 352 ;
353 [label="node #353\nprefix_11_9 <= 0.5\nentropy = 0.99\nsamples = 25\nvalue = [14, 11]", fillcolor="#f9e4d5"] ;
349 -> 353 ;
354 [label="node #354\nentropy = 1.0\nsamples = 2\nvalue = [1, 1]", fillcolor="#ffffff"] ;
353 -> 354 ;
355 [label="node #355\nentropy = 0.988\nsamples = 23\nvalue = [13, 10]", fillcolor="#f9e2d1"] ;
353 -> 355 ;
356 [label="node #356\nentropy = 0.964\nsamples = 18\nvalue = [11, 7]", fillcolor="#f6d1b7"] ;
348 -> 356 ;
357 [label="node #357\nprefix_8_10 <= 0.5\nentropy = 0.811\nsamples = 4\nvalue = [3, 1]", fillcolor="#eeab7b"] ;
347 -> 357 ;
358 [label="node #358\nentropy = 1.0\nsamples = 2\nvalue = [1, 1]", fillcolor="#ffffff"] ;
357 -> 358 ;
359 [label="node #359\nentropy = 0.0\nsamples = 2\nvalue = [2, 0]", fillcolor="#e58139"] ;
357 -> 359 ;
360 [label="node #360\nentropy = 0.0\nsamples = 3\nvalue = [0, 3]", fillcolor="#399de5"] ;
294 -> 360 ;
361 [label="node #361\nentropy = 0.0\nsamples = 3\nvalue = [0, 3]", fillcolor="#399de5"] ;
293 -> 361 ;
362 [label="node #362\nentropy = 0.0\nsamples = 4\nvalue = [0, 4]", fillcolor="#399de5"] ;
292 -> 362 ;
363 [label="node #363\nentropy = 0.0\nsamples = 5\nvalue = [5, 0]", fillcolor="#e58139"] ;
291 -> 363 ;
364 [label="node #364\nentropy = 0.0\nsamples = 6\nvalue = [0, 6]", fillcolor="#399de5"] ;
290 -> 364 ;
365 [label="node #365\nprefix_16_7 <= 0.5\nentropy = 0.892\nsamples = 55\nvalue = [17, 38]", fillcolor="#92c9f1"] ;
289 -> 365 ;
366 [label="node #366\nprefix_16_14 <= 0.5\nentropy = 0.84\nsamples = 52\nvalue = [14, 38]", fillcolor="#82c1ef"] ;
365 -> 366 ;
367 [label="node #367\nentropy = 0.672\nsamples = 34\nvalue = [6, 28]", fillcolor="#63b2eb"] ;
366 -> 367 ;
368 [label="node #368\nprefix_18_8 <= 0.5\nentropy = 0.991\nsamples = 18\nvalue = [8, 10]", fillcolor="#d7ebfa"] ;
366 -> 368 ;
369 [label="node #369\nprefix_17_15 <= 0.5\nentropy = 0.997\nsamples = 15\nvalue = [8, 7]", fillcolor="#fcefe6"] ;
368 -> 369 ;
370 [label="node #370\nentropy = 1.0\nsamples = 10\nvalue = [5, 5]", fillcolor="#ffffff"] ;
369 -> 370 ;
371 [label="node #371\nentropy = 0.971\nsamples = 5\nvalue = [3, 2]", fillcolor="#f6d5bd"] ;
369 -> 371 ;
372 [label="node #372\nentropy = 0.0\nsamples = 3\nvalue = [0, 3]", fillcolor="#399de5"] ;
368 -> 372 ;
373 [label="node #373\nentropy = 0.0\nsamples = 3\nvalue = [3, 0]", fillcolor="#e58139"] ;
365 -> 373 ;
374 [label="node #374\nprefix_14_17 <= 0.5\nentropy = 0.91\nsamples = 129\nvalue = [87, 42]", fillcolor="#f2be99"] ;
288 -> 374 ;
375 [label="node #375\nentropy = 0.675\nsamples = 45\nvalue = [37, 8]", fillcolor="#eb9c64"] ;
374 -> 375 ;
376 [label="node #376\nprefix_16_6 <= 0.5\nentropy = 0.974\nsamples = 84\nvalue = [50, 34]", fillcolor="#f7d7c0"] ;
374 -> 376 ;
377 [label="node #377\nentropy = 0.974\nsamples = 42\nvalue = [25, 17]", fillcolor="#f7d7c0"] ;
376 -> 377 ;
378 [label="node #378\nentropy = 0.974\nsamples = 42\nvalue = [25, 17]", fillcolor="#f7d7c0"] ;
376 -> 378 ;
379 [label="node #379\nprefix_32_22 <= 0.5\nentropy = 0.934\nsamples = 123\nvalue = [43, 80]", fillcolor="#a3d2f3"] ;
287 -> 379 ;
380 [label="node #380\nprefix_33_11 <= 0.5\nentropy = 0.946\nsamples = 118\nvalue = [43, 75]", fillcolor="#abd5f4"] ;
379 -> 380 ;
381 [label="node #381\nprefix_18_5 <= 0.5\nentropy = 0.956\nsamples = 114\nvalue = [43, 71]", fillcolor="#b1d8f5"] ;
380 -> 381 ;
382 [label="node #382\nprefix_36_22 <= 0.5\nentropy = 0.963\nsamples = 111\nvalue = [43, 68]", fillcolor="#b6dbf5"] ;
381 -> 382 ;
383 [label="node #383\nprefix_26_22 <= 0.5\nentropy = 0.959\nsamples = 110\nvalue = [42, 68]", fillcolor="#b3daf5"] ;
382 -> 383 ;
384 [label="node #384\nprefix_36_18 <= 0.5\nentropy = 0.955\nsamples = 109\nvalue = [41, 68]", fillcolor="#b0d8f5"] ;
383 -> 384 ;
385 [label="node #385\nprefix_19_17 <= 0.5\nentropy = 0.958\nsamples = 108\nvalue = [41, 67]", fillcolor="#b2d9f5"] ;
384 -> 385 ;
386 [label="node #386\nprefix_18_20 <= 0.5\nentropy = 0.863\nsamples = 21\nvalue = [6, 15]", fillcolor="#88c4ef"] ;
385 -> 386 ;
387 [label="node #387\nentropy = 0.845\nsamples = 11\nvalue = [3, 8]", fillcolor="#83c2ef"] ;
386 -> 387 ;
388 [label="node #388\nentropy = 0.881\nsamples = 10\nvalue = [3, 7]", fillcolor="#8ec7f0"] ;
386 -> 388 ;
389 [label="node #389\nprefix_26_19 <= 0.5\nentropy = 0.972\nsamples = 87\nvalue = [35, 52]", fillcolor="#bedff6"] ;
385 -> 389 ;
390 [label="node #390\nprefix_22_19 <= 0.5\nentropy = 0.985\nsamples = 49\nvalue = [21, 28]", fillcolor="#cee6f8"] ;
389 -> 390 ;
391 [label="node #391\nprefix_21_6 <= 0.5\nentropy = 0.985\nsamples = 21\nvalue = [9, 12]", fillcolor="#cee6f8"] ;
390 -> 391 ;
392 [label="node #392\nprefix_20_19 <= 0.5\nentropy = 0.985\nsamples = 14\nvalue = [6, 8]", fillcolor="#cee6f8"] ;
391 -> 392 ;
393 [label="node #393\nentropy = 0.985\nsamples = 7\nvalue = [3, 4]", fillcolor="#cee6f8"] ;
392 -> 393 ;
394 [label="node #394\nentropy = 0.985\nsamples = 7\nvalue = [3, 4]", fillcolor="#cee6f8"] ;
392 -> 394 ;
395 [label="node #395\nentropy = 0.985\nsamples = 7\nvalue = [3, 4]", fillcolor="#cee6f8"] ;
391 -> 395 ;
396 [label="node #396\nprefix_23_19 <= 0.5\nentropy = 0.985\nsamples = 28\nvalue = [12, 16]", fillcolor="#cee6f8"] ;
390 -> 396 ;
397 [label="node #397\nentropy = 0.985\nsamples = 7\nvalue = [3, 4]", fillcolor="#cee6f8"] ;
396 -> 397 ;
398 [label="node #398\nprefix_24_18 <= 0.5\nentropy = 0.985\nsamples = 21\nvalue = [9, 12]", fillcolor="#cee6f8"] ;
396 -> 398 ;
399 [label="node #399\nentropy = 0.985\nsamples = 7\nvalue = [3, 4]", fillcolor="#cee6f8"] ;
398 -> 399 ;
400 [label="node #400\nprefix_25_18 <= 0.5\nentropy = 0.985\nsamples = 14\nvalue = [6, 8]", fillcolor="#cee6f8"] ;
398 -> 400 ;
401 [label="node #401\nentropy = 0.985\nsamples = 7\nvalue = [3, 4]", fillcolor="#cee6f8"] ;
400 -> 401 ;
402 [label="node #402\nentropy = 0.985\nsamples = 7\nvalue = [3, 4]", fillcolor="#cee6f8"] ;
400 -> 402 ;
403 [label="node #403\nprefix_33_19 <= 0.5\nentropy = 0.949\nsamples = 38\nvalue = [14, 24]", fillcolor="#acd6f4"] ;
389 -> 403 ;
404 [label="node #404\nprefix_30_19 <= 0.5\nentropy = 0.928\nsamples = 32\nvalue = [11, 21]", fillcolor="#a1d0f3"] ;
403 -> 404 ;
405 [label="node #405\nprefix_27_19 <= 0.5\nentropy = 0.959\nsamples = 21\nvalue = [8, 13]", fillcolor="#b3d9f5"] ;
404 -> 405 ;
406 [label="node #406\nentropy = 0.918\nsamples = 6\nvalue = [2, 4]", fillcolor="#9ccef2"] ;
405 -> 406 ;
407 [label="node #407\nprefix_28_18 <= 0.5\nentropy = 0.971\nsamples = 15\nvalue = [6, 9]", fillcolor="#bddef6"] ;
405 -> 407 ;
408 [label="node #408\nentropy = 0.971\nsamples = 5\nvalue = [2, 3]", fillcolor="#bddef6"] ;
407 -> 408 ;
409 [label="node #409\nprefix_29_18 <= 0.5\nentropy = 0.971\nsamples = 10\nvalue = [4, 6]", fillcolor="#bddef6"] ;
407 -> 409 ;
410 [label="node #410\nentropy = 0.971\nsamples = 5\nvalue = [2, 3]", fillcolor="#bddef6"] ;
409 -> 410 ;
411 [label="node #411\nentropy = 0.971\nsamples = 5\nvalue = [2, 3]", fillcolor="#bddef6"] ;
409 -> 411 ;
412 [label="node #412\nprefix_32_18 <= 0.5\nentropy = 0.845\nsamples = 11\nvalue = [3, 8]", fillcolor="#83c2ef"] ;
404 -> 412 ;
413 [label="node #413\nprefix_31_19 <= 0.5\nentropy = 0.811\nsamples = 8\nvalue = [2, 6]", fillcolor="#7bbeee"] ;
412 -> 413 ;
414 [label="node #414\nentropy = 0.811\nsamples = 4\nvalue = [1, 3]", fillcolor="#7bbeee"] ;
413 -> 414 ;
415 [label="node #415\nentropy = 0.811\nsamples = 4\nvalue = [1, 3]", fillcolor="#7bbeee"] ;
413 -> 415 ;
416 [label="node #416\nentropy = 0.918\nsamples = 3\nvalue = [1, 2]", fillcolor="#9ccef2"] ;
412 -> 416 ;
417 [label="node #417\nprefix_34_19 <= 0.5\nentropy = 1.0\nsamples = 6\nvalue = [3, 3]", fillcolor="#ffffff"] ;
403 -> 417 ;
418 [label="node #418\nentropy = 1.0\nsamples = 2\nvalue = [1, 1]", fillcolor="#ffffff"] ;
417 -> 418 ;
419 [label="node #419\nprefix_35_18 <= 0.5\nentropy = 1.0\nsamples = 4\nvalue = [2, 2]", fillcolor="#ffffff"] ;
417 -> 419 ;
420 [label="node #420\nentropy = 1.0\nsamples = 2\nvalue = [1, 1]", fillcolor="#ffffff"] ;
419 -> 420 ;
421 [label="node #421\nentropy = 1.0\nsamples = 2\nvalue = [1, 1]", fillcolor="#ffffff"] ;
419 -> 421 ;
422 [label="node #422\nentropy = 0.0\nsamples = 1\nvalue = [0, 1]", fillcolor="#399de5"] ;
384 -> 422 ;
423 [label="node #423\nentropy = 0.0\nsamples = 1\nvalue = [1, 0]", fillcolor="#e58139"] ;
383 -> 423 ;
424 [label="node #424\nentropy = 0.0\nsamples = 1\nvalue = [1, 0]", fillcolor="#e58139"] ;
382 -> 424 ;
425 [label="node #425\nentropy = 0.0\nsamples = 3\nvalue = [0, 3]", fillcolor="#399de5"] ;
381 -> 425 ;
426 [label="node #426\nentropy = 0.0\nsamples = 4\nvalue = [0, 4]", fillcolor="#399de5"] ;
380 -> 426 ;
427 [label="node #427\nentropy = 0.0\nsamples = 5\nvalue = [0, 5]", fillcolor="#399de5"] ;
379 -> 427 ;
428 [label="node #428\nentropy = 0.0\nsamples = 32\nvalue = [0, 32]", fillcolor="#399de5"] ;
286 -> 428 ;
429 [label="node #429\nentropy = 0.0\nsamples = 5\nvalue = [5, 0]", fillcolor="#e58139"] ;
51 -> 429 ;
430 [label="node #430\nprefix_9_11 <= 0.5\nentropy = 0.469\nsamples = 20\nvalue = [2, 18]", fillcolor="#4fa8e8"] ;
50 -> 430 ;
431 [label="node #431\nentropy = 0.0\nsamples = 13\nvalue = [0, 13]", fillcolor="#399de5"] ;
430 -> 431 ;
432 [label="node #432\nprefix_6_3 <= 0.5\nentropy = 0.863\nsamples = 7\nvalue = [2, 5]", fillcolor="#88c4ef"] ;
430 -> 432 ;
433 [label="node #433\nentropy = 0.722\nsamples = 5\nvalue = [1, 4]", fillcolor="#6ab6ec"] ;
432 -> 433 ;
434 [label="node #434\nentropy = 1.0\nsamples = 2\nvalue = [1, 1]", fillcolor="#ffffff"] ;
432 -> 434 ;
435 [label="node #435\nprefix_8_10 <= 0.5\nentropy = 0.954\nsamples = 64\nvalue = [40, 24]", fillcolor="#f5cdb0"] ;
49 -> 435 ;
436 [label="node #436\nentropy = 0.99\nsamples = 43\nvalue = [19, 24]", fillcolor="#d6ebfa"] ;
435 -> 436 ;
437 [label="node #437\nentropy = 0.0\nsamples = 21\nvalue = [21, 0]", fillcolor="#e58139"] ;
435 -> 437 ;
438 [label="node #438\nentropy = 0.0\nsamples = 7\nvalue = [7, 0]", fillcolor="#e58139"] ;
48 -> 438 ;
439 [label="node #439\nentropy = 0.0\nsamples = 10\nvalue = [0, 10]", fillcolor="#399de5"] ;
47 -> 439 ;
440 [label="node #440\nentropy = 0.0\nsamples = 10\nvalue = [0, 10]", fillcolor="#399de5"] ;
46 -> 440 ;
441 [label="node #441\nentropy = 0.0\nsamples = 11\nvalue = [0, 11]", fillcolor="#399de5"] ;
45 -> 441 ;
442 [label="node #442\nprefix_7_3 <= 0.5\nentropy = 0.94\nsamples = 84\nvalue = [54, 30]", fillcolor="#f3c7a7"] ;
44 -> 442 ;
443 [label="node #443\nprefix_10_13 <= 0.5\nentropy = 0.811\nsamples = 12\nvalue = [9, 3]", fillcolor="#eeab7b"] ;
442 -> 443 ;
444 [label="node #444\nentropy = 0.811\nsamples = 4\nvalue = [3, 1]", fillcolor="#eeab7b"] ;
443 -> 444 ;
445 [label="node #445\nprefix_11_12 <= 0.5\nentropy = 0.811\nsamples = 8\nvalue = [6, 2]", fillcolor="#eeab7b"] ;
443 -> 445 ;
446 [label="node #446\nentropy = 0.811\nsamples = 4\nvalue = [3, 1]", fillcolor="#eeab7b"] ;
445 -> 446 ;
447 [label="node #447\nentropy = 0.811\nsamples = 4\nvalue = [3, 1]", fillcolor="#eeab7b"] ;
445 -> 447 ;
448 [label="node #448\nprefix_6_1 <= 0.5\nentropy = 0.954\nsamples = 72\nvalue = [45, 27]", fillcolor="#f5cdb0"] ;
442 -> 448 ;
449 [label="node #449\nprefix_11_12 <= 0.5\nentropy = 0.946\nsamples = 33\nvalue = [21, 12]", fillcolor="#f4c9aa"] ;
448 -> 449 ;
450 [label="node #450\nprefix_10_13 <= 0.5\nentropy = 0.946\nsamples = 22\nvalue = [14, 8]", fillcolor="#f4c9aa"] ;
449 -> 450 ;
451 [label="node #451\nentropy = 0.946\nsamples = 11\nvalue = [7, 4]", fillcolor="#f4c9aa"] ;
450 -> 451 ;
452 [label="node #452\nentropy = 0.946\nsamples = 11\nvalue = [7, 4]", fillcolor="#f4c9aa"] ;
450 -> 452 ;
453 [label="node #453\nentropy = 0.946\nsamples = 11\nvalue = [7, 4]", fillcolor="#f4c9aa"] ;
449 -> 453 ;
454 [label="node #454\nprefix_10_13 <= 0.5\nentropy = 0.961\nsamples = 39\nvalue = [24, 15]", fillcolor="#f5d0b5"] ;
448 -> 454 ;
455 [label="node #455\nentropy = 0.961\nsamples = 13\nvalue = [8, 5]", fillcolor="#f5d0b5"] ;
454 -> 455 ;
456 [label="node #456\nprefix_11_12 <= 0.5\nentropy = 0.961\nsamples = 26\nvalue = [16, 10]", fillcolor="#f5d0b5"] ;
454 -> 456 ;
457 [label="node #457\nentropy = 0.961\nsamples = 13\nvalue = [8, 5]", fillcolor="#f5d0b5"] ;
456 -> 457 ;
458 [label="node #458\nentropy = 0.961\nsamples = 13\nvalue = [8, 5]", fillcolor="#f5d0b5"] ;
456 -> 458 ;
459 [label="node #459\nprefix_13_6 <= 0.5\nentropy = 0.675\nsamples = 45\nvalue = [8, 37]", fillcolor="#64b2eb"] ;
43 -> 459 ;
460 [label="node #460\nentropy = 0.0\nsamples = 25\nvalue = [0, 25]", fillcolor="#399de5"] ;
459 -> 460 ;
461 [label="node #461\nprefix_16_12 <= 0.5\nentropy = 0.971\nsamples = 20\nvalue = [8, 12]", fillcolor="#bddef6"] ;
459 -> 461 ;
462 [label="node #462\nprefix_11_13 <= 0.5\nentropy = 0.918\nsamples = 18\nvalue = [6, 12]", fillcolor="#9ccef2"] ;
461 -> 462 ;
463 [label="node #463\nprefix_15_8 <= 0.5\nentropy = 0.954\nsamples = 16\nvalue = [6, 10]", fillcolor="#b0d8f5"] ;
462 -> 463 ;
464 [label="node #464\nentropy = 0.954\nsamples = 8\nvalue = [3, 5]", fillcolor="#b0d8f5"] ;
463 -> 464 ;
465 [label="node #465\nentropy = 0.954\nsamples = 8\nvalue = [3, 5]", fillcolor="#b0d8f5"] ;
463 -> 465 ;
466 [label="node #466\nentropy = 0.0\nsamples = 2\nvalue = [0, 2]", fillcolor="#399de5"] ;
462 -> 466 ;
467 [label="node #467\nentropy = 0.0\nsamples = 2\nvalue = [2, 0]", fillcolor="#e58139"] ;
461 -> 467 ;
468 [label="node #468\nprefix_17_8 <= 0.5\nentropy = 0.996\nsamples = 411\nvalue = [221, 190]", fillcolor="#fbede3"] ;
42 -> 468 ;
469 [label="node #469\nprefix_11_6 <= 0.5\nentropy = 0.994\nsamples = 405\nvalue = [221, 184]", fillcolor="#fbeade"] ;
468 -> 469 ;
470 [label="node #470\nprefix_12_5 <= 0.5\nentropy = 0.993\nsamples = 402\nvalue = [221, 181]", fillcolor="#fae8db"] ;
469 -> 470 ;
471 [label="node #471\nprefix_9_11 <= 0.5\nentropy = 0.992\nsamples = 399\nvalue = [221, 178]", fillcolor="#fae6d8"] ;
470 -> 471 ;
472 [label="node #472\nprefix_18_20 <= 0.5\nentropy = 0.994\nsamples = 383\nvalue = [209, 174]", fillcolor="#fbeade"] ;
471 -> 472 ;
473 [label="node #473\nprefix_17_15 <= 0.5\nentropy = 0.994\nsamples = 382\nvalue = [208, 174]", fillcolor="#fbeadf"] ;
472 -> 473 ;
474 [label="node #474\nprefix_11_13 <= 0.5\nentropy = 0.996\nsamples = 349\nvalue = [188, 161]", fillcolor="#fbede3"] ;
473 -> 474 ;
475 [label="node #475\nprefix_11_9 <= 0.5\nentropy = 0.996\nsamples = 346\nvalue = [186, 160]", fillcolor="#fbede3"] ;
474 -> 475 ;
476 [label="node #476\nprefix_9_6 <= 0.5\nentropy = 0.997\nsamples = 124\nvalue = [66, 58]", fillcolor="#fcf0e7"] ;
475 -> 476 ;
477 [label="node #477\nentropy = 0.994\nsamples = 44\nvalue = [24, 20]", fillcolor="#fbeade"] ;
476 -> 477 ;
478 [label="node #478\nprefix_10_7 <= 0.5\nentropy = 0.998\nsamples = 80\nvalue = [42, 38]", fillcolor="#fdf3ec"] ;
476 -> 478 ;
479 [label="node #479\nentropy = 0.998\nsamples = 40\nvalue = [21, 19]", fillcolor="#fdf3ec"] ;
478 -> 479 ;
480 [label="node #480\nentropy = 0.998\nsamples = 40\nvalue = [21, 19]", fillcolor="#fdf3ec"] ;
478 -> 480 ;
481 [label="node #481\nprefix_12_14 <= 0.5\nentropy = 0.995\nsamples = 222\nvalue = [120, 102]", fillcolor="#fbece1"] ;
475 -> 481 ;
482 [label="node #482\nentropy = 0.995\nsamples = 37\nvalue = [20, 17]", fillcolor="#fbece1"] ;
481 -> 482 ;
483 [label="node #483\nprefix_13_13 <= 0.5\nentropy = 0.995\nsamples = 185\nvalue = [100, 85]", fillcolor="#fbece1"] ;
481 -> 483 ;
484 [label="node #484\nentropy = 0.995\nsamples = 37\nvalue = [20, 17]", fillcolor="#fbece1"] ;
483 -> 484 ;
485 [label="node #485\nprefix_14_13 <= 0.5\nentropy = 0.995\nsamples = 148\nvalue = [80, 68]", fillcolor="#fbece1"] ;
483 -> 485 ;
486 [label="node #486\nentropy = 0.995\nsamples = 37\nvalue = [20, 17]", fillcolor="#fbece1"] ;
485 -> 486 ;
487 [label="node #487\nprefix_16_14 <= 0.5\nentropy = 0.995\nsamples = 111\nvalue = [60, 51]", fillcolor="#fbece1"] ;
485 -> 487 ;
488 [label="node #488\nprefix_15_3 <= 0.5\nentropy = 0.995\nsamples = 74\nvalue = [40, 34]", fillcolor="#fbece1"] ;
487 -> 488 ;
489 [label="node #489\nentropy = 0.995\nsamples = 37\nvalue = [20, 17]", fillcolor="#fbece1"] ;
488 -> 489 ;
490 [label="node #490\nentropy = 0.995\nsamples = 37\nvalue = [20, 17]", fillcolor="#fbece1"] ;
488 -> 490 ;
491 [label="node #491\nentropy = 0.995\nsamples = 37\nvalue = [20, 17]", fillcolor="#fbece1"] ;
487 -> 491 ;
492 [label="node #492\nprefix_12_14 <= 0.5\nentropy = 0.918\nsamples = 3\nvalue = [2, 1]", fillcolor="#f2c09c"] ;
474 -> 492 ;
493 [label="node #493\nentropy = 1.0\nsamples = 2\nvalue = [1, 1]", fillcolor="#ffffff"] ;
492 -> 493 ;
494 [label="node #494\nentropy = 0.0\nsamples = 1\nvalue = [1, 0]", fillcolor="#e58139"] ;
492 -> 494 ;
495 [label="node #495\nentropy = 0.967\nsamples = 33\nvalue = [20, 13]", fillcolor="#f6d3ba"] ;
473 -> 495 ;
496 [label="node #496\nentropy = 0.0\nsamples = 1\nvalue = [1, 0]", fillcolor="#e58139"] ;
472 -> 496 ;
497 [label="node #497\nprefix_11_7 <= 0.5\nentropy = 0.811\nsamples = 16\nvalue = [12, 4]", fillcolor="#eeab7b"] ;
471 -> 497 ;
498 [label="node #498\nprefix_10_6 <= 0.5\nentropy = 0.811\nsamples = 8\nvalue = [6, 2]", fillcolor="#eeab7b"] ;
497 -> 498 ;
499 [label="node #499\nentropy = 0.811\nsamples = 4\nvalue = [3, 1]", fillcolor="#eeab7b"] ;
498 -> 499 ;
500 [label="node #500\nentropy = 0.811\nsamples = 4\nvalue = [3, 1]", fillcolor="#eeab7b"] ;
498 -> 500 ;
501 [label="node #501\nprefix_12_10 <= 0.5\nentropy = 0.811\nsamples = 8\nvalue = [6, 2]", fillcolor="#eeab7b"] ;
497 -> 501 ;
502 [label="node #502\nentropy = 0.811\nsamples = 4\nvalue = [3, 1]", fillcolor="#eeab7b"] ;
501 -> 502 ;
503 [label="node #503\nentropy = 0.811\nsamples = 4\nvalue = [3, 1]", fillcolor="#eeab7b"] ;
501 -> 503 ;
504 [label="node #504\nentropy = 0.0\nsamples = 3\nvalue = [0, 3]", fillcolor="#399de5"] ;
470 -> 504 ;
505 [label="node #505\nentropy = 0.0\nsamples = 3\nvalue = [0, 3]", fillcolor="#399de5"] ;
469 -> 505 ;
506 [label="node #506\nentropy = 0.0\nsamples = 6\nvalue = [0, 6]", fillcolor="#399de5"] ;
468 -> 506 ;
507 [label="node #507\nprefix_12_7 <= 0.5\nentropy = 0.783\nsamples = 103\nvalue = [24, 79]", fillcolor="#75bbed"] ;
41 -> 507 ;
508 [label="node #508\nprefix_10_13 <= 0.5\nentropy = 0.85\nsamples = 87\nvalue = [24, 63]", fillcolor="#84c2ef"] ;
507 -> 508 ;
509 [label="node #509\nprefix_12_10 <= 0.5\nentropy = 0.909\nsamples = 74\nvalue = [24, 50]", fillcolor="#98ccf1"] ;
508 -> 509 ;
510 [label="node #510\nprefix_10_6 <= 0.5\nentropy = 0.881\nsamples = 60\nvalue = [18, 42]", fillcolor="#8ec7f0"] ;
509 -> 510 ;
511 [label="node #511\nentropy = 0.845\nsamples = 22\nvalue = [6, 16]", fillcolor="#83c2ef"] ;
510 -> 511 ;
512 [label="node #512\nprefix_11_7 <= 0.5\nentropy = 0.9\nsamples = 38\nvalue = [12, 26]", fillcolor="#94caf1"] ;
510 -> 512 ;
513 [label="node #513\nentropy = 0.9\nsamples = 19\nvalue = [6, 13]", fillcolor="#94caf1"] ;
512 -> 513 ;
514 [label="node #514\nentropy = 0.9\nsamples = 19\nvalue = [6, 13]", fillcolor="#94caf1"] ;
512 -> 514 ;
515 [label="node #515\nentropy = 0.985\nsamples = 14\nvalue = [6, 8]", fillcolor="#cee6f8"] ;
509 -> 515 ;
516 [label="node #516\nentropy = 0.0\nsamples = 13\nvalue = [0, 13]", fillcolor="#399de5"] ;
508 -> 516 ;
517 [label="node #517\nentropy = 0.0\nsamples = 16\nvalue = [0, 16]", fillcolor="#399de5"] ;
507 -> 517 ;
518 [label="node #518\nentropy = 0.0\nsamples = 20\nvalue = [0, 20]", fillcolor="#399de5"] ;
40 -> 518 ;
519 [label="node #519\nentropy = 0.0\nsamples = 21\nvalue = [0, 21]", fillcolor="#399de5"] ;
39 -> 519 ;
520 [label="node #520\nprefix_8_6 <= 0.5\nentropy = 0.894\nsamples = 418\nvalue = [130, 288]", fillcolor="#92c9f1"] ;
38 -> 520 ;
521 [label="node #521\nprefix_7_6 <= 0.5\nentropy = 0.956\nsamples = 345\nvalue = [130, 215]", fillcolor="#b1d8f5"] ;
520 -> 521 ;
522 [label="node #522\nprefix_7_4 <= 0.5\nentropy = 0.887\nsamples = 69\nvalue = [48, 21]", fillcolor="#f0b890"] ;
521 -> 522 ;
523 [label="node #523\nentropy = 0.0\nsamples = 10\nvalue = [10, 0]", fillcolor="#e58139"] ;
522 -> 523 ;
524 [label="node #524\nprefix_15_7 <= 0.5\nentropy = 0.939\nsamples = 59\nvalue = [38, 21]", fillcolor="#f3c7a6"] ;
522 -> 524 ;
525 [label="node #525\nprefix_16_15 <= 0.5\nentropy = 0.906\nsamples = 56\nvalue = [38, 18]", fillcolor="#f1bd97"] ;
524 -> 525 ;
526 [label="node #526\nprefix_11_2 <= 0.5\nentropy = 0.937\nsamples = 51\nvalue = [33, 18]", fillcolor="#f3c6a5"] ;
525 -> 526 ;
527 [label="node #527\nprefix_8_4 <= 0.5\nentropy = 0.925\nsamples = 50\nvalue = [33, 17]", fillcolor="#f2c29f"] ;
526 -> 527 ;
528 [label="node #528\nprefix_12_14 <= 0.5\nentropy = 0.975\nsamples = 27\nvalue = [16, 11]", fillcolor="#f7d8c1"] ;
527 -> 528 ;
529 [label="node #529\nprefix_16_3 <= 0.5\nentropy = 1.0\nsamples = 10\nvalue = [5, 5]", fillcolor="#ffffff"] ;
528 -> 529 ;
530 [label="node #530\nprefix_15_13 <= 0.5\nentropy = 1.0\nsamples = 6\nvalue = [3, 3]", fillcolor="#ffffff"] ;
529 -> 530 ;
531 [label="node #531\nprefix_14_13 <= 0.5\nentropy = 1.0\nsamples = 4\nvalue = [2, 2]", fillcolor="#ffffff"] ;
530 -> 531 ;
532 [label="node #532\nentropy = 1.0\nsamples = 2\nvalue = [1, 1]", fillcolor="#ffffff"] ;
531 -> 532 ;
533 [label="node #533\nentropy = 1.0\nsamples = 2\nvalue = [1, 1]", fillcolor="#ffffff"] ;
531 -> 533 ;
534 [label="node #534\nentropy = 1.0\nsamples = 2\nvalue = [1, 1]", fillcolor="#ffffff"] ;
530 -> 534 ;
535 [label="node #535\nprefix_17_15 <= 0.5\nentropy = 1.0\nsamples = 4\nvalue = [2, 2]", fillcolor="#ffffff"] ;
529 -> 535 ;
536 [label="node #536\nentropy = 1.0\nsamples = 2\nvalue = [1, 1]", fillcolor="#ffffff"] ;
535 -> 536 ;
537 [label="node #537\nentropy = 1.0\nsamples = 2\nvalue = [1, 1]", fillcolor="#ffffff"] ;
535 -> 537 ;
538 [label="node #538\nprefix_15_14 <= 0.5\nentropy = 0.937\nsamples = 17\nvalue = [11, 6]", fillcolor="#f3c6a5"] ;
528 -> 538 ;
539 [label="node #539\nprefix_14_14 <= 0.5\nentropy = 0.961\nsamples = 13\nvalue = [8, 5]", fillcolor="#f5d0b5"] ;
538 -> 539 ;
540 [label="node #540\nentropy = 0.954\nsamples = 8\nvalue = [5, 3]", fillcolor="#f5cdb0"] ;
539 -> 540 ;
541 [label="node #541\nentropy = 0.971\nsamples = 5\nvalue = [3, 2]", fillcolor="#f6d5bd"] ;
539 -> 541 ;
542 [label="node #542\nentropy = 0.811\nsamples = 4\nvalue = [3, 1]", fillcolor="#eeab7b"] ;
538 -> 542 ;
543 [label="node #543\nprefix_10_6 <= 0.5\nentropy = 0.828\nsamples = 23\nvalue = [17, 6]", fillcolor="#eead7f"] ;
527 -> 543 ;
544 [label="node #544\nentropy = 0.0\nsamples = 1\nvalue = [1, 0]", fillcolor="#e58139"] ;
543 -> 544 ;
545 [label="node #545\nprefix_18_20 <= 0.5\nentropy = 0.845\nsamples = 22\nvalue = [16, 6]", fillcolor="#efb083"] ;
543 -> 545 ;
546 [label="node #546\nprefix_15_13 <= 0.5\nentropy = 0.811\nsamples = 20\nvalue = [15, 5]", fillcolor="#eeab7b"] ;
545 -> 546 ;
547 [label="node #547\nprefix_14_13 <= 0.5\nentropy = 0.811\nsamples = 8\nvalue = [6, 2]", fillcolor="#eeab7b"] ;
546 -> 547 ;
548 [label="node #548\nentropy = 0.811\nsamples = 4\nvalue = [3, 1]", fillcolor="#eeab7b"] ;
547 -> 548 ;
549 [label="node #549\nentropy = 0.811\nsamples = 4\nvalue = [3, 1]", fillcolor="#eeab7b"] ;
547 -> 549 ;
550 [label="node #550\nprefix_17_15 <= 0.5\nentropy = 0.811\nsamples = 12\nvalue = [9, 3]", fillcolor="#eeab7b"] ;
546 -> 550 ;
551 [label="node #551\nprefix_16_3 <= 0.5\nentropy = 0.811\nsamples = 8\nvalue = [6, 2]", fillcolor="#eeab7b"] ;
550 -> 551 ;
552 [label="node #552\nentropy = 0.811\nsamples = 4\nvalue = [3, 1]", fillcolor="#eeab7b"] ;
551 -> 552 ;
553 [label="node #553\nentropy = 0.811\nsamples = 4\nvalue = [3, 1]", fillcolor="#eeab7b"] ;
551 -> 553 ;
554 [label="node #554\nentropy = 0.811\nsamples = 4\nvalue = [3, 1]", fillcolor="#eeab7b"] ;
550 -> 554 ;
555 [label="node #555\nentropy = 1.0\nsamples = 2\nvalue = [1, 1]", fillcolor="#ffffff"] ;
545 -> 555 ;
556 [label="node #556\nentropy = 0.0\nsamples = 1\nvalue = [0, 1]", fillcolor="#399de5"] ;
526 -> 556 ;
557 [label="node #557\nentropy = 0.0\nsamples = 5\nvalue = [5, 0]", fillcolor="#e58139"] ;
525 -> 557 ;
558 [label="node #558\nentropy = 0.0\nsamples = 3\nvalue = [0, 3]", fillcolor="#399de5"] ;
524 -> 558 ;
559 [label="node #559\nprefix_6_5 <= 0.5\nentropy = 0.878\nsamples = 276\nvalue = [82, 194]", fillcolor="#8dc6f0"] ;
521 -> 559 ;
560 [label="node #560\nentropy = 0.0\nsamples = 18\nvalue = [0, 18]", fillcolor="#399de5"] ;
559 -> 560 ;
561 [label="node #561\nprefix_11_1 <= 0.5\nentropy = 0.902\nsamples = 258\nvalue = [82, 176]", fillcolor="#95cbf1"] ;
559 -> 561 ;
562 [label="node #562\nprefix_15_7 <= 0.5\nentropy = 0.887\nsamples = 253\nvalue = [77, 176]", fillcolor="#90c8f0"] ;
561 -> 562 ;
563 [label="node #563\nprefix_16_1 <= 0.5\nentropy = 0.908\nsamples = 238\nvalue = [77, 161]", fillcolor="#98ccf1"] ;
562 -> 563 ;
564 [label="node #564\nprefix_9_1 <= 0.5\nentropy = 0.917\nsamples = 232\nvalue = [77, 155]", fillcolor="#9bcef2"] ;
563 -> 564 ;
565 [label="node #565\nprefix_17_8 <= 0.5\nentropy = 0.876\nsamples = 159\nvalue = [47, 112]", fillcolor="#8cc6f0"] ;
564 -> 565 ;
566 [label="node #566\nprefix_15_1 <= 0.5\nentropy = 0.857\nsamples = 153\nvalue = [43, 110]", fillcolor="#86c3ef"] ;
565 -> 566 ;
567 [label="node #567\nprefix_11_13 <= 0.5\nentropy = 0.862\nsamples = 151\nvalue = [43, 108]", fillcolor="#88c4ef"] ;
566 -> 567 ;
568 [label="node #568\nprefix_10_6 <= 0.5\nentropy = 0.722\nsamples = 25\nvalue = [5, 20]", fillcolor="#6ab6ec"] ;
567 -> 568 ;
569 [label="node #569\nentropy = 0.0\nsamples = 1\nvalue = [0, 1]", fillcolor="#399de5"] ;
568 -> 569 ;
570 [label="node #570\nprefix_17_15 <= 0.5\nentropy = 0.738\nsamples = 24\nvalue = [5, 19]", fillcolor="#6db7ec"] ;
568 -> 570 ;
571 [label="node #571\nprefix_16_3 <= 0.5\nentropy = 0.722\nsamples = 20\nvalue = [4, 16]", fillcolor="#6ab6ec"] ;
570 -> 571 ;
572 [label="node #572\nprefix_15_13 <= 0.5\nentropy = 0.722\nsamples = 15\nvalue = [3, 12]", fillcolor="#6ab6ec"] ;
571 -> 572 ;
573 [label="node #573\nprefix_14_13 <= 0.5\nentropy = 0.722\nsamples = 10\nvalue = [2, 8]", fillcolor="#6ab6ec"] ;
572 -> 573 ;
574 [label="node #574\nentropy = 0.722\nsamples = 5\nvalue = [1, 4]", fillcolor="#6ab6ec"] ;
573 -> 574 ;
575 [label="node #575\nentropy = 0.722\nsamples = 5\nvalue = [1, 4]", fillcolor="#6ab6ec"] ;
573 -> 575 ;
576 [label="node #576\nentropy = 0.722\nsamples = 5\nvalue = [1, 4]", fillcolor="#6ab6ec"] ;
572 -> 576 ;
577 [label="node #577\nentropy = 0.722\nsamples = 5\nvalue = [1, 4]", fillcolor="#6ab6ec"] ;
571 -> 577 ;
578 [label="node #578\nentropy = 0.811\nsamples = 4\nvalue = [1, 3]", fillcolor="#7bbeee"] ;
570 -> 578 ;
579 [label="node #579\nprefix_18_1 <= 0.5\nentropy = 0.883\nsamples = 126\nvalue = [38, 88]", fillcolor="#8ec7f0"] ;
567 -> 579 ;
580 [label="node #580\nprefix_14_7 <= 0.5\nentropy = 0.886\nsamples = 125\nvalue = [38, 87]", fillcolor="#8fc8f0"] ;
579 -> 580 ;
581 [label="node #581\nprefix_5_3 <= 0.5\nentropy = 0.878\nsamples = 121\nvalue = [36, 85]", fillcolor="#8dc7f0"] ;
580 -> 581 ;
582 [label="node #582\nprefix_17_16 <= 0.5\nentropy = 0.833\nsamples = 53\nvalue = [14, 39]", fillcolor="#80c0ee"] ;
581 -> 582 ;
583 [label="node #583\nprefix_15_14 <= 0.5\nentropy = 0.851\nsamples = 47\nvalue = [13, 34]", fillcolor="#85c2ef"] ;
582 -> 583 ;
584 [label="node #584\nprefix_14_14 <= 0.5\nentropy = 0.784\nsamples = 30\nvalue = [7, 23]", fillcolor="#75bbed"] ;
583 -> 584 ;
585 [label="node #585\nentropy = 0.811\nsamples = 16\nvalue = [4, 12]", fillcolor="#7bbeee"] ;
584 -> 585 ;
586 [label="node #586\nentropy = 0.75\nsamples = 14\nvalue = [3, 11]", fillcolor="#6fb8ec"] ;
584 -> 586 ;
587 [label="node #587\nprefix_16_15 <= 0.5\nentropy = 0.937\nsamples = 17\nvalue = [6, 11]", fillcolor="#a5d2f3"] ;
583 -> 587 ;
588 [label="node #588\nentropy = 0.918\nsamples = 9\nvalue = [3, 6]", fillcolor="#9ccef2"] ;
587 -> 588 ;
589 [label="node #589\nentropy = 0.954\nsamples = 8\nvalue = [3, 5]", fillcolor="#b0d8f5"] ;
587 -> 589 ;
590 [label="node #590\nentropy = 0.65\nsamples = 6\nvalue = [1, 5]", fillcolor="#61b1ea"] ;
582 -> 590 ;
591 [label="node #591\nprefix_14_14 <= 0.5\nentropy = 0.908\nsamples = 68\nvalue = [22, 46]", fillcolor="#98ccf1"] ;
581 -> 591 ;
592 [label="node #592\nentropy = 0.959\nsamples = 21\nvalue = [8, 13]", fillcolor="#b3d9f5"] ;
591 -> 592 ;
593 [label="node #593\nprefix_16_15 <= 0.5\nentropy = 0.879\nsamples = 47\nvalue = [14, 33]", fillcolor="#8dc7f0"] ;
591 -> 593 ;
594 [label="node #594\nprefix_15_14 <= 0.5\nentropy = 0.837\nsamples = 30\nvalue = [8, 22]", fillcolor="#81c1ee"] ;
593 -> 594 ;
595 [label="node #595\nentropy = 0.811\nsamples = 16\nvalue = [4, 12]", fillcolor="#7bbeee"] ;
594 -> 595 ;
596 [label="node #596\nentropy = 0.863\nsamples = 14\nvalue = [4, 10]", fillcolor="#88c4ef"] ;
594 -> 596 ;
597 [label="node #597\nprefix_17_16 <= 0.5\nentropy = 0.937\nsamples = 17\nvalue = [6, 11]", fillcolor="#a5d2f3"] ;
593 -> 597 ;
598 [label="node #598\nentropy = 0.971\nsamples = 10\nvalue = [4, 6]", fillcolor="#bddef6"] ;
597 -> 598 ;
599 [label="node #599\nentropy = 0.863\nsamples = 7\nvalue = [2, 5]", fillcolor="#88c4ef"] ;
597 -> 599 ;
600 [label="node #600\nprefix_15_8 <= 0.5\nentropy = 1.0\nsamples = 4\nvalue = [2, 2]", fillcolor="#ffffff"] ;
580 -> 600 ;
601 [label="node #601\nentropy = 1.0\nsamples = 2\nvalue = [1, 1]", fillcolor="#ffffff"] ;
600 -> 601 ;
602 [label="node #602\nentropy = 1.0\nsamples = 2\nvalue = [1, 1]", fillcolor="#ffffff"] ;
600 -> 602 ;
603 [label="node #603\nentropy = 0.0\nsamples = 1\nvalue = [0, 1]", fillcolor="#399de5"] ;
579 -> 603 ;
604 [label="node #604\nentropy = 0.0\nsamples = 2\nvalue = [0, 2]", fillcolor="#399de5"] ;
566 -> 604 ;
605 [label="node #605\nprefix_15_14 <= 0.5\nentropy = 0.918\nsamples = 6\nvalue = [4, 2]", fillcolor="#f2c09c"] ;
565 -> 605 ;
606 [label="node #606\nentropy = 0.0\nsamples = 2\nvalue = [0, 2]", fillcolor="#399de5"] ;
605 -> 606 ;
607 [label="node #607\nentropy = 0.0\nsamples = 4\nvalue = [4, 0]", fillcolor="#e58139"] ;
605 -> 607 ;
608 [label="node #608\nprefix_18_8 <= 0.5\nentropy = 0.977\nsamples = 73\nvalue = [30, 43]", fillcolor="#c3e1f7"] ;
564 -> 608 ;
609 [label="node #609\nprefix_16_3 <= 0.5\nentropy = 0.985\nsamples = 70\nvalue = [30, 40]", fillcolor="#cee6f8"] ;
608 -> 609 ;
610 [label="node #610\nprefix_14_13 <= 0.5\nentropy = 0.985\nsamples = 42\nvalue = [18, 24]", fillcolor="#cee6f8"] ;
609 -> 610 ;
611 [label="node #611\nentropy = 0.985\nsamples = 14\nvalue = [6, 8]", fillcolor="#cee6f8"] ;
610 -> 611 ;
612 [label="node #612\nprefix_15_13 <= 0.5\nentropy = 0.985\nsamples = 28\nvalue = [12, 16]", fillcolor="#cee6f8"] ;
610 -> 612 ;
613 [label="node #613\nentropy = 0.985\nsamples = 14\nvalue = [6, 8]", fillcolor="#cee6f8"] ;
612 -> 613 ;
614 [label="node #614\nentropy = 0.985\nsamples = 14\nvalue = [6, 8]", fillcolor="#cee6f8"] ;
612 -> 614 ;
615 [label="node #615\nprefix_17_15 <= 0.5\nentropy = 0.985\nsamples = 28\nvalue = [12, 16]", fillcolor="#cee6f8"] ;
609 -> 615 ;
616 [label="node #616\nentropy = 0.985\nsamples = 14\nvalue = [6, 8]", fillcolor="#cee6f8"] ;
615 -> 616 ;
617 [label="node #617\nentropy = 0.985\nsamples = 14\nvalue = [6, 8]", fillcolor="#cee6f8"] ;
615 -> 617 ;
618 [label="node #618\nentropy = 0.0\nsamples = 3\nvalue = [0, 3]", fillcolor="#399de5"] ;
608 -> 618 ;
619 [label="node #619\nentropy = 0.0\nsamples = 6\nvalue = [0, 6]", fillcolor="#399de5"] ;
563 -> 619 ;
620 [label="node #620\nentropy = 0.0\nsamples = 15\nvalue = [0, 15]", fillcolor="#399de5"] ;
562 -> 620 ;
621 [label="node #621\nentropy = 0.0\nsamples = 5\nvalue = [5, 0]", fillcolor="#e58139"] ;
561 -> 621 ;
622 [label="node #622\nentropy = 0.0\nsamples = 73\nvalue = [0, 73]", fillcolor="#399de5"] ;
520 -> 622 ;
623 [label="node #623\nprefix_26_11 <= 0.5\nentropy = 0.752\nsamples = 51\nvalue = [40, 11]", fillcolor="#eca46f"] ;
37 -> 623 ;
624 [label="node #624\nprefix_28_17 <= 0.5\nentropy = 0.849\nsamples = 40\nvalue = [29, 11]", fillcolor="#efb184"] ;
623 -> 624 ;
625 [label="node #625\nprefix_26_18 <= 0.5\nentropy = 0.938\nsamples = 31\nvalue = [20, 11]", fillcolor="#f3c6a6"] ;
624 -> 625 ;
626 [label="node #626\nprefix_22_18 <= 0.5\nentropy = 0.918\nsamples = 27\nvalue = [18, 9]", fillcolor="#f2c09c"] ;
625 -> 626 ;
627 [label="node #627\nprefix_21_20 <= 0.5\nentropy = 0.918\nsamples = 15\nvalue = [10, 5]", fillcolor="#f2c09c"] ;
626 -> 627 ;
628 [label="node #628\nprefix_19_10 <= 0.5\nentropy = 0.918\nsamples = 12\nvalue = [8, 4]", fillcolor="#f2c09c"] ;
627 -> 628 ;
629 [label="node #629\nprefix_18_8 <= 0.5\nentropy = 0.918\nsamples = 6\nvalue = [4, 2]", fillcolor="#f2c09c"] ;
628 -> 629 ;
630 [label="node #630\nentropy = 0.918\nsamples = 3\nvalue = [2, 1]", fillcolor="#f2c09c"] ;
629 -> 630 ;
631 [label="node #631\nentropy = 0.918\nsamples = 3\nvalue = [2, 1]", fillcolor="#f2c09c"] ;
629 -> 631 ;
632 [label="node #632\nprefix_20_15 <= 0.5\nentropy = 0.918\nsamples = 6\nvalue = [4, 2]", fillcolor="#f2c09c"] ;
628 -> 632 ;
633 [label="node #633\nentropy = 0.918\nsamples = 3\nvalue = [2, 1]", fillcolor="#f2c09c"] ;
632 -> 633 ;
634 [label="node #634\nentropy = 0.918\nsamples = 3\nvalue = [2, 1]", fillcolor="#f2c09c"] ;
632 -> 634 ;
635 [label="node #635\nentropy = 0.918\nsamples = 3\nvalue = [2, 1]", fillcolor="#f2c09c"] ;
627 -> 635 ;
636 [label="node #636\nprefix_25_17 <= 0.5\nentropy = 0.918\nsamples = 12\nvalue = [8, 4]", fillcolor="#f2c09c"] ;
626 -> 636 ;
637 [label="node #637\nprefix_24_3 <= 0.5\nentropy = 0.918\nsamples = 9\nvalue = [6, 3]", fillcolor="#f2c09c"] ;
636 -> 637 ;
638 [label="node #638\nprefix_23_18 <= 0.5\nentropy = 0.918\nsamples = 6\nvalue = [4, 2]", fillcolor="#f2c09c"] ;
637 -> 638 ;
639 [label="node #639\nentropy = 0.918\nsamples = 3\nvalue = [2, 1]", fillcolor="#f2c09c"] ;
638 -> 639 ;
640 [label="node #640\nentropy = 0.918\nsamples = 3\nvalue = [2, 1]", fillcolor="#f2c09c"] ;
638 -> 640 ;
641 [label="node #641\nentropy = 0.918\nsamples = 3\nvalue = [2, 1]", fillcolor="#f2c09c"] ;
637 -> 641 ;
642 [label="node #642\nentropy = 0.918\nsamples = 3\nvalue = [2, 1]", fillcolor="#f2c09c"] ;
636 -> 642 ;
643 [label="node #643\nprefix_27_18 <= 0.5\nentropy = 1.0\nsamples = 4\nvalue = [2, 2]", fillcolor="#ffffff"] ;
625 -> 643 ;
644 [label="node #644\nentropy = 1.0\nsamples = 2\nvalue = [1, 1]", fillcolor="#ffffff"] ;
643 -> 644 ;
645 [label="node #645\nentropy = 1.0\nsamples = 2\nvalue = [1, 1]", fillcolor="#ffffff"] ;
643 -> 645 ;
646 [label="node #646\nentropy = 0.0\nsamples = 9\nvalue = [9, 0]", fillcolor="#e58139"] ;
624 -> 646 ;
647 [label="node #647\nentropy = 0.0\nsamples = 11\nvalue = [11, 0]", fillcolor="#e58139"] ;
623 -> 647 ;
648 [label="node #648\nentropy = 0.0\nsamples = 23\nvalue = [0, 23]", fillcolor="#399de5"] ;
36 -> 648 ;
649 [label="node #649\nentropy = 0.0\nsamples = 23\nvalue = [23, 0]", fillcolor="#e58139"] ;
35 -> 649 ;
650 [label="node #650\nprefix_5_1 <= 0.5\nentropy = 0.618\nsamples = 209\nvalue = [32, 177]", fillcolor="#5dafea"] ;
34 -> 650 ;
651 [label="node #651\nprefix_23_1 <= 0.5\nentropy = 0.972\nsamples = 77\nvalue = [31, 46]", fillcolor="#bedff7"] ;
650 -> 651 ;
652 [label="node #652\nprefix_11_1 <= 0.5\nentropy = 0.841\nsamples = 63\nvalue = [17, 46]", fillcolor="#82c1ef"] ;
651 -> 652 ;
653 [label="node #653\nprefix_16_15 <= 0.5\nentropy = 0.605\nsamples = 54\nvalue = [8, 46]", fillcolor="#5baeea"] ;
652 -> 653 ;
654 [label="node #654\nentropy = 0.0\nsamples = 14\nvalue = [0, 14]", fillcolor="#399de5"] ;
653 -> 654 ;
655 [label="node #655\nprefix_7_6 <= 0.5\nentropy = 0.722\nsamples = 40\nvalue = [8, 32]", fillcolor="#6ab6ec"] ;
653 -> 655 ;
656 [label="node #656\nentropy = 0.0\nsamples = 8\nvalue = [0, 8]", fillcolor="#399de5"] ;
655 -> 656 ;
657 [label="node #657\nprefix_20_1 <= 0.5\nentropy = 0.811\nsamples = 32\nvalue = [8, 24]", fillcolor="#7bbeee"] ;
655 -> 657 ;
658 [label="node #658\nprefix_23_20 <= 0.5\nentropy = 0.771\nsamples = 31\nvalue = [7, 24]", fillcolor="#73baed"] ;
657 -> 658 ;
659 [label="node #659\nprefix_20_20 <= 0.5\nentropy = 0.826\nsamples = 27\nvalue = [7, 20]", fillcolor="#7ebfee"] ;
658 -> 659 ;
660 [label="node #660\nprefix_19_18 <= 0.5\nentropy = 0.918\nsamples = 12\nvalue = [4, 8]", fillcolor="#9ccef2"] ;
659 -> 660 ;
661 [label="node #661\nentropy = 0.918\nsamples = 6\nvalue = [2, 4]", fillcolor="#9ccef2"] ;
660 -> 661 ;
662 [label="node #662\nentropy = 0.918\nsamples = 6\nvalue = [2, 4]", fillcolor="#9ccef2"] ;
660 -> 662 ;
663 [label="node #663\nprefix_22_20 <= 0.5\nentropy = 0.722\nsamples = 15\nvalue = [3, 12]", fillcolor="#6ab6ec"] ;
659 -> 663 ;
664 [label="node #664\nprefix_21_20 <= 0.5\nentropy = 0.722\nsamples = 10\nvalue = [2, 8]", fillcolor="#6ab6ec"] ;
663 -> 664 ;
665 [label="node #665\nentropy = 0.722\nsamples = 5\nvalue = [1, 4]", fillcolor="#6ab6ec"] ;
664 -> 665 ;
666 [label="node #666\nentropy = 0.722\nsamples = 5\nvalue = [1, 4]", fillcolor="#6ab6ec"] ;
664 -> 666 ;
667 [label="node #667\nentropy = 0.722\nsamples = 5\nvalue = [1, 4]", fillcolor="#6ab6ec"] ;
663 -> 667 ;
668 [label="node #668\nentropy = 0.0\nsamples = 4\nvalue = [0, 4]", fillcolor="#399de5"] ;
658 -> 668 ;
669 [label="node #669\nentropy = 0.0\nsamples = 1\nvalue = [1, 0]", fillcolor="#e58139"] ;
657 -> 669 ;
670 [label="node #670\nentropy = 0.0\nsamples = 9\nvalue = [9, 0]", fillcolor="#e58139"] ;
652 -> 670 ;
671 [label="node #671\nentropy = 0.0\nsamples = 14\nvalue = [14, 0]", fillcolor="#e58139"] ;
651 -> 671 ;
672 [label="node #672\nprefix_17_16 <= 0.5\nentropy = 0.064\nsamples = 132\nvalue = [1, 131]", fillcolor="#3b9ee5"] ;
650 -> 672 ;
673 [label="node #673\nentropy = 0.0\nsamples = 78\nvalue = [0, 78]", fillcolor="#399de5"] ;
672 -> 673 ;
674 [label="node #674\nprefix_19_18 <= 0.5\nentropy = 0.133\nsamples = 54\nvalue = [1, 53]", fillcolor="#3d9fe5"] ;
672 -> 674 ;
675 [label="node #675\nentropy = 0.65\nsamples = 6\nvalue = [1, 5]", fillcolor="#61b1ea"] ;
674 -> 675 ;
676 [label="node #676\nentropy = 0.0\nsamples = 48\nvalue = [0, 48]", fillcolor="#399de5"] ;
674 -> 676 ;
677 [label="node #677\nprefix_25_10 <= 0.5\nentropy = 0.711\nsamples = 72\nvalue = [58, 14]", fillcolor="#eb9f69"] ;
33 -> 677 ;
678 [label="node #678\nprefix_25_17 <= 0.5\nentropy = 0.633\nsamples = 69\nvalue = [58, 11]", fillcolor="#ea995f"] ;
677 -> 678 ;
679 [label="node #679\nprefix_23_18 <= 0.5\nentropy = 0.737\nsamples = 53\nvalue = [42, 11]", fillcolor="#eca26d"] ;
678 -> 679 ;
680 [label="node #680\nprefix_19_16 <= 0.5\nentropy = 0.722\nsamples = 45\nvalue = [36, 9]", fillcolor="#eca06a"] ;
679 -> 680 ;
681 [label="node #681\nprefix_16_9 <= 0.5\nentropy = 0.722\nsamples = 25\nvalue = [20, 5]", fillcolor="#eca06a"] ;
680 -> 681 ;
682 [label="node #682\nprefix_15_7 <= 0.5\nentropy = 0.722\nsamples = 10\nvalue = [8, 2]", fillcolor="#eca06a"] ;
681 -> 682 ;
683 [label="node #683\nentropy = 0.722\nsamples = 5\nvalue = [4, 1]", fillcolor="#eca06a"] ;
682 -> 683 ;
684 [label="node #684\nentropy = 0.722\nsamples = 5\nvalue = [4, 1]", fillcolor="#eca06a"] ;
682 -> 684 ;
685 [label="node #685\nprefix_17_12 <= 0.5\nentropy = 0.722\nsamples = 15\nvalue = [12, 3]", fillcolor="#eca06a"] ;
681 -> 685 ;
686 [label="node #686\nentropy = 0.722\nsamples = 5\nvalue = [4, 1]", fillcolor="#eca06a"] ;
685 -> 686 ;
687 [label="node #687\nprefix_18_17 <= 0.5\nentropy = 0.722\nsamples = 10\nvalue = [8, 2]", fillcolor="#eca06a"] ;
685 -> 687 ;
688 [label="node #688\nentropy = 0.722\nsamples = 5\nvalue = [4, 1]", fillcolor="#eca06a"] ;
687 -> 688 ;
689 [label="node #689\nentropy = 0.722\nsamples = 5\nvalue = [4, 1]", fillcolor="#eca06a"] ;
687 -> 689 ;
690 [label="node #690\nprefix_20_18 <= 0.5\nentropy = 0.722\nsamples = 20\nvalue = [16, 4]", fillcolor="#eca06a"] ;
680 -> 690 ;
691 [label="node #691\nentropy = 0.722\nsamples = 5\nvalue = [4, 1]", fillcolor="#eca06a"] ;
690 -> 691 ;
692 [label="node #692\nprefix_22_18 <= 0.5\nentropy = 0.722\nsamples = 15\nvalue = [12, 3]", fillcolor="#eca06a"] ;
690 -> 692 ;
693 [label="node #693\nprefix_21_3 <= 0.5\nentropy = 0.722\nsamples = 10\nvalue = [8, 2]", fillcolor="#eca06a"] ;
692 -> 693 ;
694 [label="node #694\nentropy = 0.722\nsamples = 5\nvalue = [4, 1]", fillcolor="#eca06a"] ;
693 -> 694 ;
695 [label="node #695\nentropy = 0.722\nsamples = 5\nvalue = [4, 1]", fillcolor="#eca06a"] ;
693 -> 695 ;
696 [label="node #696\nentropy = 0.722\nsamples = 5\nvalue = [4, 1]", fillcolor="#eca06a"] ;
692 -> 696 ;
697 [label="node #697\nprefix_24_17 <= 0.5\nentropy = 0.811\nsamples = 8\nvalue = [6, 2]", fillcolor="#eeab7b"] ;
679 -> 697 ;
698 [label="node #698\nentropy = 0.811\nsamples = 4\nvalue = [3, 1]", fillcolor="#eeab7b"] ;
697 -> 698 ;
699 [label="node #699\nentropy = 0.811\nsamples = 4\nvalue = [3, 1]", fillcolor="#eeab7b"] ;
697 -> 699 ;
700 [label="node #700\nentropy = 0.0\nsamples = 16\nvalue = [16, 0]", fillcolor="#e58139"] ;
678 -> 700 ;
701 [label="node #701\nentropy = 0.0\nsamples = 3\nvalue = [0, 3]", fillcolor="#399de5"] ;
677 -> 701 ;
702 [label="node #702\nprefix_8_6 <= 0.5\nentropy = 0.995\nsamples = 1080\nvalue = [585, 495]", fillcolor="#fbece1"] ;
32 -> 702 ;
703 [label="node #703\nprefix_11_12 <= 0.5\nentropy = 0.961\nsamples = 156\nvalue = [60, 96]", fillcolor="#b5daf5"] ;
702 -> 703 ;
704 [label="node #704\nprefix_10_13 <= 0.5\nentropy = 0.961\nsamples = 104\nvalue = [40, 64]", fillcolor="#b5daf5"] ;
703 -> 704 ;
705 [label="node #705\nentropy = 0.961\nsamples = 52\nvalue = [20, 32]", fillcolor="#b5daf5"] ;
704 -> 705 ;
706 [label="node #706\nentropy = 0.961\nsamples = 52\nvalue = [20, 32]", fillcolor="#b5daf5"] ;
704 -> 706 ;
707 [label="node #707\nentropy = 0.961\nsamples = 52\nvalue = [20, 32]", fillcolor="#b5daf5"] ;
703 -> 707 ;
708 [label="node #708\nprefix_5_3 <= 0.5\nentropy = 0.987\nsamples = 924\nvalue = [525, 399]", fillcolor="#f9e1cf"] ;
702 -> 708 ;
709 [label="node #709\nprefix_11_12 <= 0.5\nentropy = 0.98\nsamples = 432\nvalue = [252, 180]", fillcolor="#f8dbc6"] ;
708 -> 709 ;
710 [label="node #710\nprefix_10_13 <= 0.5\nentropy = 0.98\nsamples = 288\nvalue = [168, 120]", fillcolor="#f8dbc6"] ;
709 -> 710 ;
711 [label="node #711\nentropy = 0.98\nsamples = 144\nvalue = [84, 60]", fillcolor="#f8dbc6"] ;
710 -> 711 ;
712 [label="node #712\nentropy = 0.98\nsamples = 144\nvalue = [84, 60]", fillcolor="#f8dbc6"] ;
710 -> 712 ;
713 [label="node #713\nentropy = 0.98\nsamples = 144\nvalue = [84, 60]", fillcolor="#f8dbc6"] ;
709 -> 713 ;
714 [label="node #714\nprefix_10_13 <= 0.5\nentropy = 0.991\nsamples = 492\nvalue = [273, 219]", fillcolor="#fae6d8"] ;
708 -> 714 ;
715 [label="node #715\nentropy = 0.991\nsamples = 164\nvalue = [91, 73]", fillcolor="#fae6d8"] ;
714 -> 715 ;
716 [label="node #716\nprefix_11_12 <= 0.5\nentropy = 0.991\nsamples = 328\nvalue = [182, 146]", fillcolor="#fae6d8"] ;
714 -> 716 ;
717 [label="node #717\nentropy = 0.991\nsamples = 164\nvalue = [91, 73]", fillcolor="#fae6d8"] ;
716 -> 717 ;
718 [label="node #718\nentropy = 0.991\nsamples = 164\nvalue = [91, 73]", fillcolor="#fae6d8"] ;
716 -> 718 ;
719 [label="node #719\nprefix_8_2 <= 0.5\nentropy = 0.839\nsamples = 149\nvalue = [109, 40]", fillcolor="#efaf82"] ;
31 -> 719 ;
720 [label="node #720\nprefix_5_1 <= 0.5\nentropy = 0.589\nsamples = 127\nvalue = [109, 18]", fillcolor="#e9965a"] ;
719 -> 720 ;
721 [label="node #721\nprefix_18_8 <= 0.5\nentropy = 0.912\nsamples = 55\nvalue = [37, 18]", fillcolor="#f2be99"] ;
720 -> 721 ;
722 [label="node #722\nprefix_10_6 <= 0.5\nentropy = 1.0\nsamples = 36\nvalue = [18, 18]", fillcolor="#ffffff"] ;
721 -> 722 ;
723 [label="node #723\nentropy = 1.0\nsamples = 4\nvalue = [2, 2]", fillcolor="#ffffff"] ;
722 -> 723 ;
724 [label="node #724\nprefix_15_13 <= 0.5\nentropy = 1.0\nsamples = 32\nvalue = [16, 16]", fillcolor="#ffffff"] ;
722 -> 724 ;
725 [label="node #725\nprefix_12_10 <= 0.5\nentropy = 1.0\nsamples = 20\nvalue = [10, 10]", fillcolor="#ffffff"] ;
724 -> 725 ;
726 [label="node #726\nprefix_11_7 <= 0.5\nentropy = 1.0\nsamples = 8\nvalue = [4, 4]", fillcolor="#ffffff"] ;
725 -> 726 ;
727 [label="node #727\nentropy = 1.0\nsamples = 4\nvalue = [2, 2]", fillcolor="#ffffff"] ;
726 -> 727 ;
728 [label="node #728\nentropy = 1.0\nsamples = 4\nvalue = [2, 2]", fillcolor="#ffffff"] ;
726 -> 728 ;
729 [label="node #729\nprefix_13_14 <= 0.5\nentropy = 1.0\nsamples = 12\nvalue = [6, 6]", fillcolor="#ffffff"] ;
725 -> 729 ;
730 [label="node #730\nentropy = 1.0\nsamples = 4\nvalue = [2, 2]", fillcolor="#ffffff"] ;
729 -> 730 ;
731 [label="node #731\nprefix_14_13 <= 0.5\nentropy = 1.0\nsamples = 8\nvalue = [4, 4]", fillcolor="#ffffff"] ;
729 -> 731 ;
732 [label="node #732\nentropy = 1.0\nsamples = 4\nvalue = [2, 2]", fillcolor="#ffffff"] ;
731 -> 732 ;
733 [label="node #733\nentropy = 1.0\nsamples = 4\nvalue = [2, 2]", fillcolor="#ffffff"] ;
731 -> 733 ;
734 [label="node #734\nprefix_16_3 <= 0.5\nentropy = 1.0\nsamples = 12\nvalue = [6, 6]", fillcolor="#ffffff"] ;
724 -> 734 ;
735 [label="node #735\nentropy = 1.0\nsamples = 4\nvalue = [2, 2]", fillcolor="#ffffff"] ;
734 -> 735 ;
736 [label="node #736\nprefix_17_15 <= 0.5\nentropy = 1.0\nsamples = 8\nvalue = [4, 4]", fillcolor="#ffffff"] ;
734 -> 736 ;
737 [label="node #737\nentropy = 1.0\nsamples = 4\nvalue = [2, 2]", fillcolor="#ffffff"] ;
736 -> 737 ;
738 [label="node #738\nentropy = 1.0\nsamples = 4\nvalue = [2, 2]", fillcolor="#ffffff"] ;
736 -> 738 ;
739 [label="node #739\nentropy = 0.0\nsamples = 19\nvalue = [19, 0]", fillcolor="#e58139"] ;
721 -> 739 ;
740 [label="node #740\nentropy = 0.0\nsamples = 72\nvalue = [72, 0]", fillcolor="#e58139"] ;
720 -> 740 ;
741 [label="node #741\nentropy = 0.0\nsamples = 22\nvalue = [0, 22]", fillcolor="#399de5"] ;
719 -> 741 ;
742 [label="node #742\nentropy = 0.0\nsamples = 91\nvalue = [0, 91]", fillcolor="#399de5"] ;
28 -> 742 ;
743 [label="node #743\nprefix_22_19 <= 0.5\nentropy = 0.6\nsamples = 226\nvalue = [193, 33]", fillcolor="#e9975b"] ;
27 -> 743 ;
744 [label="node #744\nprefix_18_5 <= 0.5\nentropy = 0.71\nsamples = 170\nvalue = [137, 33]", fillcolor="#eb9f69"] ;
743 -> 744 ;
745 [label="node #745\nprefix_24_22 <= 0.5\nentropy = 0.679\nsamples = 167\nvalue = [137, 30]", fillcolor="#eb9d64"] ;
744 -> 745 ;
746 [label="node #746\nprefix_24_18 <= 0.5\nentropy = 0.645\nsamples = 164\nvalue = [137, 27]", fillcolor="#ea9a60"] ;
745 -> 746 ;
747 [label="node #747\nprefix_22_14 <= 0.5\nentropy = 0.652\nsamples = 161\nvalue = [134, 27]", fillcolor="#ea9a61"] ;
746 -> 747 ;
748 [label="node #748\nprefix_18_20 <= 0.5\nentropy = 0.632\nsamples = 157\nvalue = [132, 25]", fillcolor="#ea995e"] ;
747 -> 748 ;
749 [label="node #749\nprefix_18_11 <= 0.5\nentropy = 0.656\nsamples = 124\nvalue = [103, 21]", fillcolor="#ea9b61"] ;
748 -> 749 ;
750 [label="node #750\nprefix_17_6 <= 0.5\nentropy = 0.675\nsamples = 90\nvalue = [74, 16]", fillcolor="#eb9c64"] ;
749 -> 750 ;
751 [label="node #751\nentropy = 0.675\nsamples = 45\nvalue = [37, 8]", fillcolor="#eb9c64"] ;
750 -> 751 ;
752 [label="node #752\nentropy = 0.675\nsamples = 45\nvalue = [37, 8]", fillcolor="#eb9c64"] ;
750 -> 752 ;
753 [label="node #753\nentropy = 0.602\nsamples = 34\nvalue = [29, 5]", fillcolor="#e9975b"] ;
749 -> 753 ;
754 [label="node #754\nprefix_19_17 <= 0.5\nentropy = 0.533\nsamples = 33\nvalue = [29, 4]", fillcolor="#e99254"] ;
748 -> 754 ;
755 [label="node #755\nentropy = 0.503\nsamples = 9\nvalue = [8, 1]", fillcolor="#e89152"] ;
754 -> 755 ;
756 [label="node #756\nprefix_20_19 <= 0.5\nentropy = 0.544\nsamples = 24\nvalue = [21, 3]", fillcolor="#e99355"] ;
754 -> 756 ;
757 [label="node #757\nentropy = 0.544\nsamples = 8\nvalue = [7, 1]", fillcolor="#e99355"] ;
756 -> 757 ;
758 [label="node #758\nprefix_21_6 <= 0.5\nentropy = 0.544\nsamples = 16\nvalue = [14, 2]", fillcolor="#e99355"] ;
756 -> 758 ;
759 [label="node #759\nentropy = 0.544\nsamples = 8\nvalue = [7, 1]", fillcolor="#e99355"] ;
758 -> 759 ;
760 [label="node #760\nentropy = 0.544\nsamples = 8\nvalue = [7, 1]", fillcolor="#e99355"] ;
758 -> 760 ;
761 [label="node #761\nprefix_23_19 <= 0.5\nentropy = 1.0\nsamples = 4\nvalue = [2, 2]", fillcolor="#ffffff"] ;
747 -> 761 ;
762 [label="node #762\nentropy = 1.0\nsamples = 2\nvalue = [1, 1]", fillcolor="#ffffff"] ;
761 -> 762 ;
763 [label="node #763\nentropy = 1.0\nsamples = 2\nvalue = [1, 1]", fillcolor="#ffffff"] ;
761 -> 763 ;
764 [label="node #764\nentropy = 0.0\nsamples = 3\nvalue = [3, 0]", fillcolor="#e58139"] ;
746 -> 764 ;
765 [label="node #765\nentropy = 0.0\nsamples = 3\nvalue = [0, 3]", fillcolor="#399de5"] ;
745 -> 765 ;
766 [label="node #766\nentropy = 0.0\nsamples = 3\nvalue = [0, 3]", fillcolor="#399de5"] ;
744 -> 766 ;
767 [label="node #767\nentropy = 0.0\nsamples = 56\nvalue = [56, 0]", fillcolor="#e58139"] ;
743 -> 767 ;
768 [label="node #768\nprefix_7_4 <= 0.5\nentropy = 0.477\nsamples = 566\nvalue = [58, 508]", fillcolor="#50a8e8"] ;
26 -> 768 ;
769 [label="node #769\nprefix_6_1 <= 0.5\nentropy = 0.973\nsamples = 72\nvalue = [29, 43]", fillcolor="#bfdff7"] ;
768 -> 769 ;
770 [label="node #770\nprefix_7_1 <= 0.5\nentropy = 0.956\nsamples = 69\nvalue = [26, 43]", fillcolor="#b1d8f5"] ;
769 -> 770 ;
771 [label="node #771\nentropy = 0.929\nsamples = 29\nvalue = [10, 19]", fillcolor="#a1d1f3"] ;
770 -> 771 ;
772 [label="node #772\nentropy = 0.971\nsamples = 40\nvalue = [16, 24]", fillcolor="#bddef6"] ;
770 -> 772 ;
773 [label="node #773\nentropy = 0.0\nsamples = 3\nvalue = [3, 0]", fillcolor="#e58139"] ;
769 -> 773 ;
774 [label="node #774\nentropy = 0.322\nsamples = 494\nvalue = [29, 465]", fillcolor="#45a3e7"] ;
768 -> 774 ;
775 [label="node #775\nprefix_11_9 <= 0.5\nentropy = 0.952\nsamples = 202963\nvalue = [75404, 127559]", fillcolor="#aed7f4"] ;
25 -> 775 ;
776 [label="node #776\nprefix_12_10 <= 0.5\nentropy = 0.946\nsamples = 180275\nvalue = [65609, 114666]", fillcolor="#aad5f4"] ;
775 -> 776 ;
777 [label="node #777\nprefix_10_7 <= 0.5\nentropy = 0.941\nsamples = 163733\nvalue = [58541, 105192]", fillcolor="#a7d4f3"] ;
776 -> 777 ;
778 [label="node #778\nprefix_25_2 <= 0.5\nentropy = 0.944\nsamples = 157085\nvalue = [56707, 100378]", fillcolor="#a9d4f4"] ;
777 -> 778 ;
779 [label="node #779\nprefix_23_18 <= 0.5\nentropy = 0.944\nsamples = 156875\nvalue = [56707, 100168]", fillcolor="#a9d4f4"] ;
778 -> 779 ;
780 [label="node #780\nprefix_26_11 <= 0.5\nentropy = 0.942\nsamples = 154583\nvalue = [55596, 98987]", fillcolor="#a8d4f4"] ;
779 -> 780 ;
781 [label="node #781\nprefix_13_12 <= 0.5\nentropy = 0.943\nsamples = 154385\nvalue = [55585, 98800]", fillcolor="#a8d4f4"] ;
780 -> 781 ;
782 [label="node #782\nprefix_7_1 <= 0.5\nentropy = 0.943\nsamples = 154337\nvalue = [55537, 98800]", fillcolor="#a8d4f4"] ;
781 -> 782 ;
783 [label="node #783\nprefix_18_4 <= 0.5\nentropy = 0.941\nsamples = 151260\nvalue = [54171, 97089]", fillcolor="#a7d4f4"] ;
782 -> 783 ;
784 [label="node #784\nprefix_7_5 <= 0.5\nentropy = 0.941\nsamples = 151222\nvalue = [54133, 97089]", fillcolor="#a7d4f3"] ;
783 -> 784 ;
785 [label="node #785\nprefix_11_13 <= 0.5\nentropy = 0.941\nsamples = 150845\nvalue = [54070, 96775]", fillcolor="#a8d4f4"] ;
784 -> 785 ;
786 [label="node #786\nprefix_14_7 <= 0.5\nentropy = 0.944\nsamples = 137393\nvalue = [49680, 87713]", fillcolor="#a9d5f4"] ;
785 -> 786 ;
787 [label="node #787\nprefix_25_17 <= 0.5\nentropy = 0.945\nsamples = 136956\nvalue = [49617, 87339]", fillcolor="#a9d5f4"] ;
786 -> 787 ;
788 [label="node #788\nprefix_11_7 <= 0.5\nentropy = 0.944\nsamples = 136932\nvalue = [49593, 87339]", fillcolor="#a9d5f4"] ;
787 -> 788 ;
789 [label="node #789\nprefix_5_3 <= 0.5\nentropy = 0.946\nsamples = 132861\nvalue = [48317, 84544]", fillcolor="#aad5f4"] ;
788 -> 789 ;
790 [label="node #790\nprefix_14_15 <= 0.5\nentropy = 0.937\nsamples = 48887\nvalue = [17253, 31634]", fillcolor="#a5d2f3"] ;
789 -> 790 ;
791 [label="node #791\nprefix_20_20 <= 0.5\nentropy = 0.937\nsamples = 48875\nvalue = [17241, 31634]", fillcolor="#a5d2f3"] ;
790 -> 791 ;
792 [label="node #792\nprefix_7_7 <= 0.5\nentropy = 0.937\nsamples = 48858\nvalue = [17241, 31617]", fillcolor="#a5d2f3"] ;
791 -> 792 ;
793 [label="node #793\nprefix_5_2 <= 0.5\nentropy = 0.936\nsamples = 48824\nvalue = [17220, 31604]", fillcolor="#a5d2f3"] ;
792 -> 793 ;
794 [label="node #794\nprefix_4_3 <= 0.5\nentropy = 0.936\nsamples = 48786\nvalue = [17208, 31578]", fillcolor="#a5d2f3"] ;
793 -> 794 ;
795 [label="node #795\nprefix_3_2 <= 0.5\nentropy = 0.936\nsamples = 32524\nvalue = [11472, 21052]", fillcolor="#a5d2f3"] ;
794 -> 795 ;
796 [label="node #796\nentropy = 0.936\nsamples = 16262\nvalue = [5736, 10526]", fillcolor="#a5d2f3"] ;
795 -> 796 ;
797 [label="node #797\nentropy = 0.936\nsamples = 16262\nvalue = [5736, 10526]", fillcolor="#a5d2f3"] ;
795 -> 797 ;
798 [label="node #798\nentropy = 0.936\nsamples = 16262\nvalue = [5736, 10526]", fillcolor="#a5d2f3"] ;
794 -> 798 ;
799 [label="node #799\nprefix_6_4 <= 0.5\nentropy = 0.9\nsamples = 38\nvalue = [12, 26]", fillcolor="#94caf1"] ;
793 -> 799 ;
800 [label="node #800\nentropy = 0.9\nsamples = 19\nvalue = [6, 13]", fillcolor="#94caf1"] ;
799 -> 800 ;
801 [label="node #801\nentropy = 0.9\nsamples = 19\nvalue = [6, 13]", fillcolor="#94caf1"] ;
799 -> 801 ;
802 [label="node #802\nprefix_20_1 <= 0.5\nentropy = 0.96\nsamples = 34\nvalue = [21, 13]", fillcolor="#f5cfb4"] ;
792 -> 802 ;
803 [label="node #803\nprefix_14_14 <= 0.5\nentropy = 0.967\nsamples = 33\nvalue = [20, 13]", fillcolor="#f6d3ba"] ;
802 -> 803 ;
804 [label="node #804\nprefix_9_12 <= 0.5\nentropy = 0.918\nsamples = 21\nvalue = [14, 7]", fillcolor="#f2c09c"] ;
803 -> 804 ;
805 [label="node #805\nprefix_8_11 <= 0.5\nentropy = 0.918\nsamples = 6\nvalue = [4, 2]", fillcolor="#f2c09c"] ;
804 -> 805 ;
806 [label="node #806\nentropy = 0.918\nsamples = 3\nvalue = [2, 1]", fillcolor="#f2c09c"] ;
805 -> 806 ;
807 [label="node #807\nentropy = 0.918\nsamples = 3\nvalue = [2, 1]", fillcolor="#f2c09c"] ;
805 -> 807 ;
808 [label="node #808\nprefix_10_14 <= 0.5\nentropy = 0.918\nsamples = 15\nvalue = [10, 5]", fillcolor="#f2c09c"] ;
804 -> 808 ;
809 [label="node #809\nentropy = 0.918\nsamples = 3\nvalue = [2, 1]", fillcolor="#f2c09c"] ;
808 -> 809 ;
810 [label="node #810\nprefix_12_15 <= 0.5\nentropy = 0.918\nsamples = 12\nvalue = [8, 4]", fillcolor="#f2c09c"] ;
808 -> 810 ;
811 [label="node #811\nprefix_11_14 <= 0.5\nentropy = 0.918\nsamples = 6\nvalue = [4, 2]", fillcolor="#f2c09c"] ;
810 -> 811 ;
812 [label="node #812\nentropy = 0.918\nsamples = 3\nvalue = [2, 1]", fillcolor="#f2c09c"] ;
811 -> 812 ;
813 [label="node #813\nentropy = 0.918\nsamples = 3\nvalue = [2, 1]", fillcolor="#f2c09c"] ;
811 -> 813 ;
814 [label="node #814\nprefix_13_15 <= 0.5\nentropy = 0.918\nsamples = 6\nvalue = [4, 2]", fillcolor="#f2c09c"] ;
810 -> 814 ;
815 [label="node #815\nentropy = 0.918\nsamples = 3\nvalue = [2, 1]", fillcolor="#f2c09c"] ;
814 -> 815 ;
816 [label="node #816\nentropy = 0.918\nsamples = 3\nvalue = [2, 1]", fillcolor="#f2c09c"] ;
814 -> 816 ;
817 [label="node #817\nprefix_19_18 <= 0.5\nentropy = 1.0\nsamples = 12\nvalue = [6, 6]", fillcolor="#ffffff"] ;
803 -> 817 ;
818 [label="node #818\nprefix_16_4 <= 0.5\nentropy = 1.0\nsamples = 10\nvalue = [5, 5]", fillcolor="#ffffff"] ;
817 -> 818 ;
819 [label="node #819\nprefix_15_14 <= 0.5\nentropy = 1.0\nsamples = 4\nvalue = [2, 2]", fillcolor="#ffffff"] ;
818 -> 819 ;
820 [label="node #820\nentropy = 1.0\nsamples = 2\nvalue = [1, 1]", fillcolor="#ffffff"] ;
819 -> 820 ;
821 [label="node #821\nentropy = 1.0\nsamples = 2\nvalue = [1, 1]", fillcolor="#ffffff"] ;
819 -> 821 ;
822 [label="node #822\nprefix_18_17 <= 0.5\nentropy = 1.0\nsamples = 6\nvalue = [3, 3]", fillcolor="#ffffff"] ;
818 -> 822 ;
823 [label="node #823\nprefix_17_16 <= 0.5\nentropy = 1.0\nsamples = 4\nvalue = [2, 2]", fillcolor="#ffffff"] ;
822 -> 823 ;
824 [label="node #824\nentropy = 1.0\nsamples = 2\nvalue = [1, 1]", fillcolor="#ffffff"] ;
823 -> 824 ;
825 [label="node #825\nentropy = 1.0\nsamples = 2\nvalue = [1, 1]", fillcolor="#ffffff"] ;
823 -> 825 ;
826 [label="node #826\nentropy = 1.0\nsamples = 2\nvalue = [1, 1]", fillcolor="#ffffff"] ;
822 -> 826 ;
827 [label="node #827\nentropy = 1.0\nsamples = 2\nvalue = [1, 1]", fillcolor="#ffffff"] ;
817 -> 827 ;
828 [label="node #828\nentropy = 0.0\nsamples = 1\nvalue = [1, 0]", fillcolor="#e58139"] ;
802 -> 828 ;
829 [label="node #829\nentropy = 0.0\nsamples = 17\nvalue = [0, 17]", fillcolor="#399de5"] ;
791 -> 829 ;
830 [label="node #830\nentropy = 0.0\nsamples = 12\nvalue = [12, 0]", fillcolor="#e58139"] ;
790 -> 830 ;
831 [label="node #831\nprefix_6_5 <= 0.5\nentropy = 0.951\nsamples = 83974\nvalue = [31064, 52910]", fillcolor="#add7f4"] ;
789 -> 831 ;
832 [label="node #832\nprefix_17_12 <= 0.5\nentropy = 0.951\nsamples = 83689\nvalue = [31005, 52684]", fillcolor="#aed7f4"] ;
831 -> 832 ;
833 [label="node #833\nprefix_13_14 <= 0.5\nentropy = 0.951\nsamples = 83537\nvalue = [30915, 52622]", fillcolor="#add7f4"] ;
832 -> 833 ;
834 [label="node #834\nprefix_7_8 <= 0.5\nentropy = 0.95\nsamples = 83282\nvalue = [30785, 52497]", fillcolor="#add6f4"] ;
833 -> 834 ;
835 [label="node #835\nprefix_9_13 <= 0.5\nentropy = 0.951\nsamples = 83188\nvalue = [30770, 52418]", fillcolor="#add7f4"] ;
834 -> 835 ;
836 [label="node #836\nprefix_14_11 <= 0.5\nentropy = 0.95\nsamples = 83063\nvalue = [30689, 52374]", fillcolor="#add6f4"] ;
835 -> 836 ;
837 [label="node #837\nprefix_18_8 <= 0.5\nentropy = 0.95\nsamples = 83046\nvalue = [30689, 52357]", fillcolor="#add6f4"] ;
836 -> 837 ;
838 [label="node #838\nprefix_15_7 <= 0.5\nentropy = 0.95\nsamples = 82961\nvalue = [30674, 52287]", fillcolor="#add6f4"] ;
837 -> 838 ;
