digraph Tree {
node [shape=box, style="filled", color="black", fontname="helvetica"] ;
edge [fontname="helvetica"] ;
0 [label="node #0\nDiagnose_28 <= 0.5\ngini = 0.235\nsamples = 625\nvalue = [85, 540]", fillcolor="#58ace9"] ;
1 [label="node #1\nDisfuncOrg_10_1 <= 0.5\ngini = 0.163\nsamples = 593\nvalue = [53, 540]", fillcolor="#4ca7e8"] ;
0 -> 1 [labeldistance=2.5, labelangle=45, headlabel="True"] ;
2 [label="node #2\nDiagnose_12 <= 0.5\ngini = 0.465\nsamples = 98\nvalue = [36, 62]", fillcolor="#acd6f4"] ;
1 -> 2 ;
3 [label="node #3\nDisfuncOrg_9_2 <= 0.5\ngini = 0.429\nsamples = 90\nvalue = [28, 62]", fillcolor="#92c9f1"] ;
2 -> 3 ;
4 [label="node #4\nDisfuncOrg_2_2 <= 0.5\ngini = 0.469\nsamples = 72\nvalue = [27, 45]", fillcolor="#b0d8f5"] ;
3 -> 4 ;
5 [label="node #5\nDiagnose_116 <= 0.5\ngini = 0.417\nsamples = 64\nvalue = [19, 45]", fillcolor="#8dc6f0"] ;
4 -> 5 ;
6 [label="node #6\ngini = 0.452\nsamples = 55\nvalue = [19, 36]", fillcolor="#a2d1f3"] ;
5 -> 6 ;
7 [label="node #7\ngini = 0.0\nsamples = 9\nvalue = [0, 9]", fillcolor="#399de5"] ;
5 -> 7 ;
8 [label="node #8\ngini = 0.0\nsamples = 8\nvalue = [8, 0]", fillcolor="#e58139"] ;
4 -> 8 ;
9 [label="node #9\nDiagnose_114 <= 0.5\ngini = 0.105\nsamples = 18\nvalue = [1, 17]", fillcolor="#45a3e7"] ;
3 -> 9 ;
10 [label="node #10\ngini = 0.0\nsamples = 17\nvalue = [0, 17]", fillcolor="#399de5"] ;
9 -> 10 ;
11 [label="node #11\ngini = 0.0\nsamples = 1\nvalue = [1, 0]", fillcolor="#e58139"] ;
9 -> 11 ;
12 [label="node #12\ngini = 0.0\nsamples = 8\nvalue = [8, 0]", fillcolor="#e58139"] ;
2 -> 12 ;
13 [label="node #13\nDiagnose_56 <= 0.5\ngini = 0.066\nsamples = 495\nvalue = [17, 478]", fillcolor="#40a0e6"] ;
1 -> 13 ;
14 [label="node #14\nDiagnose_99 <= 0.5\ngini = 0.059\nsamples = 493\nvalue = [15, 478]", fillcolor="#3fa0e6"] ;
13 -> 14 ;
15 [label="node #15\nDiagnose_104 <= 0.5\ngini = 0.055\nsamples = 492\nvalue = [14, 478]", fillcolor="#3fa0e6"] ;
14 -> 15 ;
16 [label="node #16\nDiagnose_38 <= 0.5\ngini = 0.052\nsamples = 491\nvalue = [13, 478]", fillcolor="#3ea0e6"] ;
15 -> 16 ;
17 [label="node #17\ngini = 0.048\nsamples = 490\nvalue = [12, 478]", fillcolor="#3e9fe6"] ;
16 -> 17 ;
18 [label="node #18\ngini = 0.0\nsamples = 1\nvalue = [1, 0]", fillcolor="#e58139"] ;
16 -> 18 ;
19 [label="node #19\ngini = 0.0\nsamples = 1\nvalue = [1, 0]", fillcolor="#e58139"] ;
15 -> 19 ;
20 [label="node #20\ngini = 0.0\nsamples = 1\nvalue = [1, 0]", fillcolor="#e58139"] ;
14 -> 20 ;
21 [label="node #21\ngini = 0.0\nsamples = 2\nvalue = [2, 0]", fillcolor="#e58139"] ;
13 -> 21 ;
22 [label="node #22\ngini = 0.0\nsamples = 32\nvalue = [32, 0]", fillcolor="#e58139"] ;
0 -> 22 [labeldistance=2.5, labelangle=-45, headlabel="False"] ;
}
