digraph Tree {
node [shape=box, style="filled", color="black", fontname="helvetica"] ;
edge [fontname="helvetica"] ;
0 [label="node #0\nprefix_12_7 <= 0.5\ngini = 0.24\nsamples = 625\nvalue = [538, 87]", fillcolor="#e99559"] ;
1 [label="node #1\nprefix_8_9 <= 0.5\ngini = 0.225\nsamples = 618\nvalue = [538, 80]", fillcolor="#e99456"] ;
0 -> 1 [labeldistance=2.5, labelangle=45, headlabel="True"] ;
2 [label="node #2\nprefix_10_9 <= 0.5\ngini = 0.215\nsamples = 613\nvalue = [538, 75]", fillcolor="#e99355"] ;
1 -> 2 ;
3 [label="node #3\nprefix_11_7 <= 0.5\ngini = 0.204\nsamples = 608\nvalue = [538, 70]", fillcolor="#e89153"] ;
2 -> 3 ;
4 [label="node #4\nDisfuncOrg_14_1 <= 0.5\ngini = 0.195\nsamples = 604\nvalue = [538, 66]", fillcolor="#e89051"] ;
3 -> 4 ;
5 [label="node #5\nprefix_13_8 <= 0.5\ngini = 0.072\nsamples = 323\nvalue = [311, 12]", fillcolor="#e68641"] ;
4 -> 5 ;
6 [label="node #6\nprefix_13_7 <= 0.5\ngini = 0.06\nsamples = 321\nvalue = [311, 10]", fillcolor="#e6853f"] ;
5 -> 6 ;
7 [label="node #7\nprefix_9_8 <= 0.5\ngini = 0.049\nsamples = 319\nvalue = [311, 8]", fillcolor="#e6843e"] ;
6 -> 7 ;
8 [label="node #8\nprefix_12_9 <= 0.5\ngini = 0.043\nsamples = 318\nvalue = [311, 7]", fillcolor="#e6843d"] ;
7 -> 8 ;
9 [label="node #9\nprefix_11_8 <= 0.5\ngini = 0.037\nsamples = 317\nvalue = [311, 6]", fillcolor="#e6833d"] ;
8 -> 9 ;
10 [label="node #10\nprefix_12_1 <= 0.5\ngini = 0.031\nsamples = 316\nvalue = [311, 5]", fillcolor="#e5833c"] ;
9 -> 10 ;
11 [label="node #11\nprefix_10_10 <= 0.5\ngini = 0.025\nsamples = 315\nvalue = [311, 4]", fillcolor="#e5833c"] ;
10 -> 11 ;
12 [label="node #12\nprefix_13_10 <= 0.5\ngini = 0.019\nsamples = 314\nvalue = [311, 3]", fillcolor="#e5823b"] ;
11 -> 12 ;
13 [label="node #13\nprefix_12_8 <= 0.5\ngini = 0.013\nsamples = 313\nvalue = [311, 2]", fillcolor="#e5823a"] ;
12 -> 13 ;
14 [label="node #14\nprefix_8_10 <= 0.5\ngini = 0.006\nsamples = 312\nvalue = [311, 1]", fillcolor="#e5813a"] ;
13 -> 14 ;
15 [label="node #15\ngini = 0.0\nsamples = 311\nvalue = [311, 0]", fillcolor="#e58139"] ;
14 -> 15 ;
16 [label="node #16\ngini = 0.0\nsamples = 1\nvalue = [0, 1]", fillcolor="#399de5"] ;
14 -> 16 ;
17 [label="node #17\ngini = 0.0\nsamples = 1\nvalue = [0, 1]", fillcolor="#399de5"] ;
13 -> 17 ;
18 [label="node #18\ngini = 0.0\nsamples = 1\nvalue = [0, 1]", fillcolor="#399de5"] ;
12 -> 18 ;
19 [label="node #19\ngini = 0.0\nsamples = 1\nvalue = [0, 1]", fillcolor="#399de5"] ;
11 -> 19 ;
20 [label="node #20\ngini = 0.0\nsamples = 1\nvalue = [0, 1]", fillcolor="#399de5"] ;
10 -> 20 ;
21 [label="node #21\ngini = 0.0\nsamples = 1\nvalue = [0, 1]", fillcolor="#399de5"] ;
9 -> 21 ;
22 [label="node #22\ngini = 0.0\nsamples = 1\nvalue = [0, 1]", fillcolor="#399de5"] ;
8 -> 22 ;
23 [label="node #23\ngini = 0.0\nsamples = 1\nvalue = [0, 1]", fillcolor="#399de5"] ;
7 -> 23 ;
24 [label="node #24\ngini = 0.0\nsamples = 2\nvalue = [0, 2]", fillcolor="#399de5"] ;
6 -> 24 ;
25 [label="node #25\ngini = 0.0\nsamples = 2\nvalue = [0, 2]", fillcolor="#399de5"] ;
5 -> 25 ;
26 [label="node #26\nprefix_15_8 <= 0.5\ngini = 0.31\nsamples = 281\nvalue = [227, 54]", fillcolor="#eb9f68"] ;
4 -> 26 ;
27 [label="node #27\nprefix_14_7 <= 0.5\ngini = 0.296\nsamples = 277\nvalue = [227, 50]", fillcolor="#eb9d65"] ;
26 -> 27 ;
28 [label="node #28\nprefix_15_7 <= 0.5\ngini = 0.284\nsamples = 274\nvalue = [227, 47]", fillcolor="#ea9b62"] ;
27 -> 28 ;
29 [label="node #29\nprefix_12_3 <= 0.5\ngini = 0.276\nsamples = 272\nvalue = [227, 45]", fillcolor="#ea9a60"] ;
28 -> 29 ;
30 [label="node #30\nprefix_13_9 <= 0.5\ngini = 0.207\nsamples = 179\nvalue = [158, 21]", fillcolor="#e89253"] ;
29 -> 30 ;
31 [label="node #31\nprefix_3_8 <= 0.5\ngini = 0.199\nsamples = 178\nvalue = [158, 20]", fillcolor="#e89152"] ;
30 -> 31 ;
32 [label="node #32\nprefix_2_3 <= 0.5\ngini = 0.192\nsamples = 177\nvalue = [158, 19]", fillcolor="#e89051"] ;
31 -> 32 ;
33 [label="node #33\nprefix_13_1 <= 0.5\ngini = 0.184\nsamples = 176\nvalue = [158, 18]", fillcolor="#e88f50"] ;
32 -> 33 ;
34 [label="node #34\nprefix_5_8 <= 0.5\ngini = 0.169\nsamples = 172\nvalue = [156, 16]", fillcolor="#e88e4d"] ;
33 -> 34 ;
35 [label="node #35\nprefix_9_6 <= 0.5\ngini = 0.128\nsamples = 146\nvalue = [136, 10]", fillcolor="#e78a48"] ;
34 -> 35 ;
36 [label="node #36\nprefix_6_6 <= 0.5\ngini = 0.116\nsamples = 145\nvalue = [136, 9]", fillcolor="#e78946"] ;
35 -> 36 ;
37 [label="node #37\nprefix_12_1 <= 0.5\ngini = 0.106\nsamples = 143\nvalue = [135, 8]", fillcolor="#e78845"] ;
36 -> 37 ;
38 [label="node #38\nprefix_15_6 <= 0.5\ngini = 0.095\nsamples = 140\nvalue = [133, 7]", fillcolor="#e68843"] ;
37 -> 38 ;
39 [label="node #39\nprefix_15_3 <= 0.5\ngini = 0.062\nsamples = 93\nvalue = [90, 3]", fillcolor="#e68540"] ;
38 -> 39 ;
40 [label="node #40\ngini = 0.0\nsamples = 58\nvalue = [58, 0]", fillcolor="#e58139"] ;
39 -> 40 ;
41 [label="node #41\ngini = 0.157\nsamples = 35\nvalue = [32, 3]", fillcolor="#e78d4c"] ;
39 -> 41 ;
42 [label="node #42\ngini = 0.156\nsamples = 47\nvalue = [43, 4]", fillcolor="#e78d4b"] ;
38 -> 42 ;
43 [label="node #43\ngini = 0.444\nsamples = 3\nvalue = [2, 1]", fillcolor="#f2c09c"] ;
37 -> 43 ;
44 [label="node #44\ngini = 0.5\nsamples = 2\nvalue = [1, 1]", fillcolor="#ffffff"] ;
36 -> 44 ;
45 [label="node #45\ngini = 0.0\nsamples = 1\nvalue = [0, 1]", fillcolor="#399de5"] ;
35 -> 45 ;
46 [label="node #46\ngini = 0.355\nsamples = 26\nvalue = [20, 6]", fillcolor="#eda774"] ;
34 -> 46 ;
47 [label="node #47\ngini = 0.5\nsamples = 4\nvalue = [2, 2]", fillcolor="#ffffff"] ;
33 -> 47 ;
48 [label="node #48\ngini = 0.0\nsamples = 1\nvalue = [0, 1]", fillcolor="#399de5"] ;
32 -> 48 ;
49 [label="node #49\ngini = 0.0\nsamples = 1\nvalue = [0, 1]", fillcolor="#399de5"] ;
31 -> 49 ;
50 [label="node #50\ngini = 0.0\nsamples = 1\nvalue = [0, 1]", fillcolor="#399de5"] ;
30 -> 50 ;
51 [label="node #51\nprefix_6_8 <= 0.5\ngini = 0.383\nsamples = 93\nvalue = [69, 24]", fillcolor="#eead7e"] ;
29 -> 51 ;
52 [label="node #52\nprefix_4_2 <= 0.5\ngini = 0.32\nsamples = 80\nvalue = [64, 16]", fillcolor="#eca06a"] ;
51 -> 52 ;
53 [label="node #53\ngini = 0.43\nsamples = 32\nvalue = [22, 10]", fillcolor="#f1ba93"] ;
52 -> 53 ;
54 [label="node #54\ngini = 0.219\nsamples = 48\nvalue = [42, 6]", fillcolor="#e99355"] ;
52 -> 54 ;
55 [label="node #55\ngini = 0.473\nsamples = 13\nvalue = [5, 8]", fillcolor="#b5daf5"] ;
51 -> 55 ;
56 [label="node #56\ngini = 0.0\nsamples = 2\nvalue = [0, 2]", fillcolor="#399de5"] ;
28 -> 56 ;
57 [label="node #57\ngini = 0.0\nsamples = 3\nvalue = [0, 3]", fillcolor="#399de5"] ;
27 -> 57 ;
58 [label="node #58\ngini = 0.0\nsamples = 4\nvalue = [0, 4]", fillcolor="#399de5"] ;
26 -> 58 ;
59 [label="node #59\ngini = 0.0\nsamples = 4\nvalue = [0, 4]", fillcolor="#399de5"] ;
3 -> 59 ;
60 [label="node #60\ngini = 0.0\nsamples = 5\nvalue = [0, 5]", fillcolor="#399de5"] ;
2 -> 60 ;
61 [label="node #61\ngini = 0.0\nsamples = 5\nvalue = [0, 5]", fillcolor="#399de5"] ;
1 -> 61 ;
62 [label="node #62\ngini = 0.0\nsamples = 7\nvalue = [0, 7]", fillcolor="#399de5"] ;
0 -> 62 [labeldistance=2.5, labelangle=-45, headlabel="False"] ;
}
