digraph Tree {
node [shape=box, style="filled", color="black", fontname="helvetica"] ;
edge [fontname="helvetica"] ;
0 [label="node #0\nDisfuncOrg_15_2 <= 0.5\nentropy = 0.608\nsamples = 603\nvalue = [90, 513]", fillcolor="#5caeea"] ;
1 [label="node #1\nDisfuncOrg_15_1 <= 0.5\nentropy = 0.513\nsamples = 358\nvalue = [41, 317]", fillcolor="#53aae8"] ;
0 -> 1 [labeldistance=2.5, labelangle=45, headlabel="True"] ;
2 [label="node #2\nDisfuncOrg_10_1 <= 0.5\nentropy = 0.476\nsamples = 333\nvalue = [34, 299]", fillcolor="#50a8e8"] ;
1 -> 2 ;
3 [label="node #3\nDiagnose_48 <= 0.5\nentropy = 0.509\nsamples = 301\nvalue = [34, 267]", fillcolor="#52a9e8"] ;
2 -> 3 ;
4 [label="node #4\nentropy = 0.521\nsamples = 290\nvalue = [34, 256]", fillcolor="#53aae8"] ;
3 -> 4 ;
5 [label="node #5\nentropy = 0.0\nsamples = 11\nvalue = [0, 11]", fillcolor="#399de5"] ;
3 -> 5 ;
6 [label="node #6\nentropy = 0.0\nsamples = 32\nvalue = [0, 32]", fillcolor="#399de5"] ;
2 -> 6 ;
7 [label="node #7\nentropy = 0.855\nsamples = 25\nvalue = [7, 18]", fillcolor="#86c3ef"] ;
1 -> 7 ;
8 [label="node #8\nDisfuncOrg_1_2 <= 0.5\nentropy = 0.722\nsamples = 245\nvalue = [49, 196]", fillcolor="#6ab6ec"] ;
0 -> 8 [labeldistance=2.5, labelangle=-45, headlabel="False"] ;
9 [label="node #9\nentropy = 0.0\nsamples = 15\nvalue = [0, 15]", fillcolor="#399de5"] ;
8 -> 9 ;
10 [label="node #10\nDiagnose_27 <= 0.5\nentropy = 0.747\nsamples = 230\nvalue = [49, 181]", fillcolor="#6fb8ec"] ;
8 -> 10 ;
11 [label="node #11\nDiagnose_15 <= 0.5\nentropy = 0.766\nsamples = 206\nvalue = [46, 160]", fillcolor="#72b9ec"] ;
10 -> 11 ;
12 [label="node #12\nentropy = 0.752\nsamples = 195\nvalue = [42, 153]", fillcolor="#6fb8ec"] ;
11 -> 12 ;
13 [label="node #13\nentropy = 0.946\nsamples = 11\nvalue = [4, 7]", fillcolor="#aad5f4"] ;
11 -> 13 ;
14 [label="node #14\nentropy = 0.544\nsamples = 24\nvalue = [3, 21]", fillcolor="#55abe9"] ;
10 -> 14 ;
}
