digraph Tree {
node [shape=box, style="filled", color="black", fontname="helvetica"] ;
edge [fontname="helvetica"] ;
0 [label="node #0\nprefix_38_54 <= 0.5\nentropy = 1.0\nsamples = 602\nvalue = [301.0, 301.0]", fillcolor="#ffffff"] ;
1 [label="node #1\nprefix_39_50 <= 0.5\nentropy = 0.997\nsamples = 547\nvalue = [301.0, 266.654]", fillcolor="#fcf1e8"] ;
0 -> 1 [labeldistance=2.5, labelangle=45, headlabel="True"] ;
2 [label="node #2\nprefix_5_36 <= 0.5\nentropy = 0.989\nsamples = 496\nvalue = [301.0, 234.805]", fillcolor="#f9e3d3"] ;
1 -> 2 ;
3 [label="node #3\nprefix_25_70 <= 0.5\nentropy = 0.996\nsamples = 484\nvalue = [270.9, 234.805]", fillcolor="#fceee5"] ;
2 -> 3 ;
4 [label="node #4\nprefix_19_78 <= 0.5\nentropy = 1.0\nsamples = 473\nvalue = [243.308, 234.805]", fillcolor="#fefbf8"] ;
3 -> 4 ;
5 [label="node #5\nprefix_24_72 <= 0.5\nentropy = 0.999\nsamples = 462\nvalue = [215.717, 234.805]", fillcolor="#eff7fd"] ;
4 -> 5 ;
6 [label="node #6\nprefix_23_71 <= 0.5\nentropy = 0.992\nsamples = 452\nvalue = [190.633, 234.805]", fillcolor="#daedfa"] ;
5 -> 6 ;
7 [label="node #7\nprefix_24_71 <= 0.5\nentropy = 0.978\nsamples = 442\nvalue = [165.55, 234.805]", fillcolor="#c5e2f7"] ;
6 -> 7 ;
8 [label="node #8\nprefix_26_63 <= 0.5\nentropy = 0.957\nsamples = 433\nvalue = [142.975, 234.805]", fillcolor="#b2d9f5"] ;
7 -> 8 ;
9 [label="node #9\nprefix_19_79 <= 0.5\nentropy = 0.932\nsamples = 426\nvalue = [125.417, 234.805]", fillcolor="#a3d1f3"] ;
8 -> 9 ;
10 [label="node #10\nprefix_30_62 <= 0.5\nentropy = 0.904\nsamples = 420\nvalue = [110.367, 234.805]", fillcolor="#96cbf1"] ;
9 -> 10 ;
11 [label="node #11\nprefix_21_72 <= 0.5\nentropy = 0.874\nsamples = 415\nvalue = [97.825, 234.805]", fillcolor="#8bc6f0"] ;
10 -> 11 ;
12 [label="node #12\nprefix_18_78 <= 0.5\nentropy = 0.836\nsamples = 410\nvalue = [85.283, 234.805]", fillcolor="#81c1ee"] ;
11 -> 12 ;
13 [label="node #13\nprefix_21_71 <= 0.5\nentropy = 0.799\nsamples = 406\nvalue = [75.25, 234.805]", fillcolor="#78bced"] ;
12 -> 13 ;
14 [label="node #14\nprefix_4_30 <= 0.5\nentropy = 0.755\nsamples = 402\nvalue = [65.217, 234.805]", fillcolor="#70b8ec"] ;
13 -> 14 ;
15 [label="node #15\nprefix_29_68 <= 0.5\nentropy = 0.702\nsamples = 398\nvalue = [55.183, 234.805]", fillcolor="#68b4eb"] ;
14 -> 15 ;
16 [label="node #16\nprefix_24_73 <= 0.5\nentropy = 0.655\nsamples = 395\nvalue = [47.658, 234.805]", fillcolor="#61b1ea"] ;
15 -> 16 ;
17 [label="node #17\nprefix_5_16 <= 0.5\nentropy = 0.6\nsamples = 392\nvalue = [40.133, 234.805]", fillcolor="#5baee9"] ;
16 -> 17 ;
18 [label="node #18\nprefix_47_59 <= 0.5\nentropy = 0.558\nsamples = 390\nvalue = [35.117, 234.805]", fillcolor="#57ace9"] ;
17 -> 18 ;
19 [label="node #19\nprefix_6_28 <= 0.5\nentropy = 0.511\nsamples = 388\nvalue = [30.1, 234.805]", fillcolor="#52aae8"] ;
18 -> 19 ;
20 [label="node #20\nprefix_25_50 <= 0.5\nentropy = 0.459\nsamples = 384\nvalue = [25.083, 233.556]", fillcolor="#4ea8e8"] ;
19 -> 20 ;
21 [label="node #21\nprefix_21_73 <= 0.5\nentropy = 0.401\nsamples = 379\nvalue = [20.067, 231.683]", fillcolor="#4aa5e7"] ;
20 -> 21 ;
22 [label="node #22\nprefix_4_13 <= 0.5\nentropy = 0.368\nsamples = 378\nvalue = [17.558, 231.683]", fillcolor="#48a4e7"] ;
21 -> 22 ;
23 [label="node #23\nprefix_5_26 <= 0.5\nentropy = 0.331\nsamples = 377\nvalue = [15.05, 231.683]", fillcolor="#46a3e7"] ;
22 -> 23 ;
24 [label="node #24\nprefix_18_83 <= 0.5\nentropy = 0.292\nsamples = 376\nvalue = [12.542, 231.683]", fillcolor="#44a2e6"] ;
23 -> 24 ;
25 [label="node #25\nprefix_6_27 <= 0.5\nentropy = 0.249\nsamples = 375\nvalue = [10.033, 231.683]", fillcolor="#42a1e6"] ;
24 -> 25 ;
26 [label="node #26\nprefix_6_26 <= 0.5\nentropy = 0.153\nsamples = 358\nvalue = [5.017, 222.315]", fillcolor="#3d9fe6"] ;
25 -> 26 ;
27 [label="node #27\nprefix_4_4 <= 0.5\nentropy = 0.089\nsamples = 355\nvalue = [2.508, 221.066]", fillcolor="#3b9ee5"] ;
26 -> 27 ;
28 [label="node #28\nprefix_2_6 <= 0.5\nentropy = 0.198\nsamples = 128\nvalue = [2.508, 79.309]", fillcolor="#3fa0e6"] ;
27 -> 28 ;
29 [label="node #29\nprefix_2_4 <= 0.5\nentropy = 0.331\nsamples = 63\nvalue = [2.508, 38.718]", fillcolor="#46a3e7"] ;
28 -> 29 ;
30 [label="node #30\nentropy = 0.534\nsamples = 30\nvalue = [2.508, 18.11]", fillcolor="#54abe9"] ;
29 -> 30 ;
31 [label="node #31\nentropy = 0.0\nsamples = 33\nvalue = [0.0, 20.608]", fillcolor="#399de5"] ;
29 -> 31 ;
32 [label="node #32\nprefix_34_22 <= 0.5\nentropy = 0.0\nsamples = 65\nvalue = [0.0, 40.591]", fillcolor="#399de5"] ;
28 -> 32 ;
33 [label="node #33\nentropy = 0.0\nsamples = 62\nvalue = [0.0, 38.718]", fillcolor="#399de5"] ;
32 -> 33 ;
34 [label="node #34\nentropy = 0.0\nsamples = 3\nvalue = [0.0, 1.873]", fillcolor="#399de5"] ;
32 -> 34 ;
35 [label="node #35\nentropy = -0.0\nsamples = 227\nvalue = [0.0, 141.757]", fillcolor="#399de5"] ;
27 -> 35 ;
36 [label="node #36\nentropy = 0.917\nsamples = 3\nvalue = [2.508, 1.249]", fillcolor="#f2c09c"] ;
26 -> 36 ;
37 [label="node #37\nentropy = 0.933\nsamples = 17\nvalue = [5.017, 9.367]", fillcolor="#a3d1f3"] ;
25 -> 37 ;
38 [label="node #38\nentropy = -0.0\nsamples = 1\nvalue = [2.508, 0.0]", fillcolor="#e58139"] ;
24 -> 38 ;
39 [label="node #39\nentropy = -0.0\nsamples = 1\nvalue = [2.508, 0.0]", fillcolor="#e58139"] ;
23 -> 39 ;
40 [label="node #40\nentropy = -0.0\nsamples = 1\nvalue = [2.508, 0.0]", fillcolor="#e58139"] ;
22 -> 40 ;
41 [label="node #41\nentropy = -0.0\nsamples = 1\nvalue = [2.508, 0.0]", fillcolor="#e58139"] ;
21 -> 41 ;
42 [label="node #42\nentropy = 0.844\nsamples = 5\nvalue = [5.017, 1.873]", fillcolor="#efb083"] ;
20 -> 42 ;
43 [label="node #43\nentropy = 0.721\nsamples = 4\nvalue = [5.017, 1.249]", fillcolor="#eba06a"] ;
19 -> 43 ;
44 [label="node #44\nentropy = -0.0\nsamples = 2\nvalue = [5.017, 0.0]", fillcolor="#e58139"] ;
18 -> 44 ;
45 [label="node #45\nentropy = -0.0\nsamples = 2\nvalue = [5.017, 0.0]", fillcolor="#e58139"] ;
17 -> 45 ;
46 [label="node #46\nentropy = -0.0\nsamples = 3\nvalue = [7.525, 0.0]", fillcolor="#e58139"] ;
16 -> 46 ;
47 [label="node #47\nentropy = -0.0\nsamples = 3\nvalue = [7.525, 0.0]", fillcolor="#e58139"] ;
15 -> 47 ;
48 [label="node #48\nentropy = -0.0\nsamples = 4\nvalue = [10.033, 0.0]", fillcolor="#e58139"] ;
14 -> 48 ;
49 [label="node #49\nentropy = -0.0\nsamples = 4\nvalue = [10.033, 0.0]", fillcolor="#e58139"] ;
13 -> 49 ;
50 [label="node #50\nentropy = -0.0\nsamples = 4\nvalue = [10.033, 0.0]", fillcolor="#e58139"] ;
12 -> 50 ;
51 [label="node #51\nentropy = -0.0\nsamples = 5\nvalue = [12.542, 0.0]", fillcolor="#e58139"] ;
11 -> 51 ;
52 [label="node #52\nentropy = -0.0\nsamples = 5\nvalue = [12.542, 0.0]", fillcolor="#e58139"] ;
10 -> 52 ;
53 [label="node #53\nentropy = -0.0\nsamples = 6\nvalue = [15.05, 0.0]", fillcolor="#e58139"] ;
9 -> 53 ;
54 [label="node #54\nentropy = -0.0\nsamples = 7\nvalue = [17.558, 0.0]", fillcolor="#e58139"] ;
8 -> 54 ;
55 [label="node #55\nentropy = 0.0\nsamples = 9\nvalue = [22.575, 0.0]", fillcolor="#e58139"] ;
7 -> 55 ;
56 [label="node #56\nentropy = 0.0\nsamples = 10\nvalue = [25.083, 0.0]", fillcolor="#e58139"] ;
6 -> 56 ;
57 [label="node #57\nentropy = 0.0\nsamples = 10\nvalue = [25.083, 0.0]", fillcolor="#e58139"] ;
5 -> 57 ;
58 [label="node #58\nentropy = 0.0\nsamples = 11\nvalue = [27.592, 0.0]", fillcolor="#e58139"] ;
4 -> 58 ;
59 [label="node #59\nentropy = 0.0\nsamples = 11\nvalue = [27.592, 0.0]", fillcolor="#e58139"] ;
3 -> 59 ;
60 [label="node #60\nentropy = 0.0\nsamples = 12\nvalue = [30.1, 0.0]", fillcolor="#e58139"] ;
2 -> 60 ;
61 [label="node #61\nentropy = 0.0\nsamples = 51\nvalue = [0.0, 31.849]", fillcolor="#399de5"] ;
1 -> 61 ;
62 [label="node #62\nentropy = 0.0\nsamples = 55\nvalue = [0.0, 34.346]", fillcolor="#399de5"] ;
0 -> 62 [labeldistance=2.5, labelangle=-45, headlabel="False"] ;
}
