digraph Tree {
node [shape=box, style="filled", color="black", fontname="helvetica"] ;
edge [fontname="helvetica"] ;
0 [label="node #0\nprefix_16_46 <= 0.5\nentropy = 0.642\nsamples = 490\nvalue = [80, 410]", fillcolor="#60b0ea"] ;
1 [label="node #1\nprefix_17_51 <= 0.5\nentropy = 0.519\nsamples = 464\nvalue = [54, 410]", fillcolor="#53aae8"] ;
0 -> 1 [labeldistance=2.5, labelangle=45, headlabel="True"] ;
2 [label="node #2\nprefix_15_51 <= 0.5\nentropy = 0.419\nsamples = 448\nvalue = [38, 410]", fillcolor="#4ba6e7"] ;
1 -> 2 ;
3 [label="node #3\nprefix_21_53 <= 0.5\nentropy = 0.359\nsamples = 440\nvalue = [30, 410]", fillcolor="#47a4e7"] ;
2 -> 3 ;
4 [label="node #4\nprefix_21_54 <= 0.5\nentropy = 0.308\nsamples = 434\nvalue = [24, 410]", fillcolor="#45a3e7"] ;
3 -> 4 ;
5 [label="node #5\nprefix_23_52 <= 0.5\nentropy = 0.252\nsamples = 428\nvalue = [18, 410]", fillcolor="#42a1e6"] ;
4 -> 5 ;
6 [label="node #6\nprefix_22_53 <= 0.5\nentropy = 0.209\nsamples = 424\nvalue = [14, 410]", fillcolor="#40a0e6"] ;
5 -> 6 ;
7 [label="node #7\nprefix_22_57 <= 0.5\nentropy = 0.175\nsamples = 421\nvalue = [11, 410]", fillcolor="#3ea0e6"] ;
6 -> 7 ;
8 [label="node #8\nprefix_19_48 <= 0.5\nentropy = 0.137\nsamples = 418\nvalue = [8, 410]", fillcolor="#3d9fe6"] ;
7 -> 8 ;
9 [label="node #9\nprefix_4_5 <= 0.5\nentropy = 0.109\nsamples = 416\nvalue = [6, 410]", fillcolor="#3c9ee5"] ;
8 -> 9 ;
10 [label="node #10\nprefix_28_54 <= 0.5\nentropy = 0.21\nsamples = 181\nvalue = [6, 175]", fillcolor="#40a0e6"] ;
9 -> 10 ;
11 [label="node #11\nprefix_3_9 <= 0.5\nentropy = 0.183\nsamples = 180\nvalue = [5, 175]", fillcolor="#3fa0e6"] ;
10 -> 11 ;
12 [label="node #12\nprefix_19_47 <= 0.5\nentropy = 0.126\nsamples = 174\nvalue = [3, 171]", fillcolor="#3c9fe5"] ;
11 -> 12 ;
13 [label="node #13\nprefix_2_14 <= 0.5\nentropy = 0.091\nsamples = 173\nvalue = [2, 171]", fillcolor="#3b9ee5"] ;
12 -> 13 ;
14 [label="node #14\nprefix_3_17 <= 0.5\nentropy = 0.052\nsamples = 172\nvalue = [1, 171]", fillcolor="#3a9ee5"] ;
13 -> 14 ;
15 [label="node #15\nentropy = 0.0\nsamples = 158\nvalue = [0, 158]", fillcolor="#399de5"] ;
14 -> 15 ;
16 [label="node #16\nentropy = 0.371\nsamples = 14\nvalue = [1, 13]", fillcolor="#48a5e7"] ;
14 -> 16 ;
17 [label="node #17\nentropy = 0.0\nsamples = 1\nvalue = [1, 0]", fillcolor="#e58139"] ;
13 -> 17 ;
18 [label="node #18\nentropy = 0.0\nsamples = 1\nvalue = [1, 0]", fillcolor="#e58139"] ;
12 -> 18 ;
19 [label="node #19\nentropy = 0.918\nsamples = 6\nvalue = [2, 4]", fillcolor="#9ccef2"] ;
11 -> 19 ;
20 [label="node #20\nentropy = 0.0\nsamples = 1\nvalue = [1, 0]", fillcolor="#e58139"] ;
10 -> 20 ;
21 [label="node #21\nentropy = 0.0\nsamples = 235\nvalue = [0, 235]", fillcolor="#399de5"] ;
9 -> 21 ;
22 [label="node #22\nentropy = 0.0\nsamples = 2\nvalue = [2, 0]", fillcolor="#e58139"] ;
8 -> 22 ;
23 [label="node #23\nentropy = 0.0\nsamples = 3\nvalue = [3, 0]", fillcolor="#e58139"] ;
7 -> 23 ;
24 [label="node #24\nentropy = 0.0\nsamples = 3\nvalue = [3, 0]", fillcolor="#e58139"] ;
6 -> 24 ;
25 [label="node #25\nentropy = 0.0\nsamples = 4\nvalue = [4, 0]", fillcolor="#e58139"] ;
5 -> 25 ;
26 [label="node #26\nentropy = 0.0\nsamples = 6\nvalue = [6, 0]", fillcolor="#e58139"] ;
4 -> 26 ;
27 [label="node #27\nentropy = 0.0\nsamples = 6\nvalue = [6, 0]", fillcolor="#e58139"] ;
3 -> 27 ;
28 [label="node #28\nentropy = 0.0\nsamples = 8\nvalue = [8, 0]", fillcolor="#e58139"] ;
2 -> 28 ;
29 [label="node #29\nentropy = 0.0\nsamples = 16\nvalue = [16, 0]", fillcolor="#e58139"] ;
1 -> 29 ;
30 [label="node #30\nentropy = 0.0\nsamples = 26\nvalue = [26, 0]", fillcolor="#e58139"] ;
0 -> 30 [labeldistance=2.5, labelangle=-45, headlabel="False"] ;
}
